import math
def sigmoid(x):
    if x < 0.0:
        z = math.exp(x)
        return z / (1.0 + z)
    return 1.0 / (1.0 + math.exp(-x))
def score(input):
    if input[12883] > 0.000000000000000000000000000000000010000000180025095:
        if input[17668] > 398.00000000000006:
            if input[17676] > 1.5000000000000002:
                if input[1188] > 0.05374208283668388:
                    var0 = -0.41774083836379877
                else:
                    var0 = -0.3519567477769947
            else:
                if input[13217] > 0.019579905926171818:
                    var0 = -0.4797081591025349
                else:
                    if input[14634] > 0.01541266028844528:
                        if input[16705] > 0.01003276918712301:
                            var0 = -0.4973913224226139
                        else:
                            var0 = -0.3869422620582233
                    else:
                        var0 = -0.3712482028910674
        else:
            if input[14192] > 0.013584141770568518:
                if input[14170] > 0.013016761019206386:
                    var0 = -0.45490028300909824
                else:
                    var0 = -0.3446603998094806
            else:
                if input[14500] > 0.01595989231936864:
                    var0 = -0.4205373190359144
                else:
                    var0 = -0.5361068384620159
    else:
        if input[17676] > 1.5000000000000002:
            if input[11632] > 0.01673211741467767:
                if input[3747] > 0.019225908049810673:
                    if input[808] > 0.02982793255195824:
                        var0 = -0.5086877883141661
                    else:
                        if input[13055] > 0.02630752206696829:
                            var0 = -0.45039849148996364
                        else:
                            var0 = -0.37144612817828576
                else:
                    if input[12815] > 0.0130082786619336:
                        var0 = -0.38274359769951566
                    else:
                        if input[13113] > 0.007675530166828611:
                            if input[16131] > 0.008664887181013972:
                                var0 = -0.37927507744737876
                            else:
                                if input[15211] > 0.008268517132664141:
                                    var0 = -0.42185626378542185
                                else:
                                    if input[17329] > 0.0071627018384037506:
                                        var0 = -0.4407565251291221
                                    else:
                                        var0 = -0.5460348655549443
                        else:
                            if input[7642] > 0.03078639037293937:
                                var0 = -0.43298360889216425
                            else:
                                if input[13813] > 0.007156483613693786:
                                    if input[12041] > 0.017170405433081615:
                                        var0 = -0.5520727429318502
                                    else:
                                        if input[13511] > 0.0072549433045749024:
                                            var0 = -0.394906666545934
                                        else:
                                            var0 = -0.49500641117789035
                                else:
                                    if input[14181] > 0.01793445039024347:
                                        var0 = -0.44884918577393484
                                    else:
                                        if input[13358] > 0.01146000851110395:
                                            var0 = -0.45739867942895457
                                        else:
                                            var0 = -0.5421170136914472
            else:
                if input[13698] > 0.015849069015467048:
                    if input[17592] > 0.005318538316068796:
                        var0 = -0.40610327754294345
                    else:
                        var0 = -0.5242799202878031
                else:
                    if input[4315] > 0.012931193266703276:
                        if input[3794] > 0.015638842839670552:
                            var0 = -0.44682570397364635
                        else:
                            if input[17046] > 0.018049541224046502:
                                if input[11526] > 0.009669814152362177:
                                    var0 = -0.384807007171081
                                else:
                                    var0 = -0.49500641117789035
                            else:
                                if input[10067] > 0.04253187630212577:
                                    var0 = -0.4297292223823125
                                else:
                                    var0 = -0.3606394773435174
                    else:
                        if input[11798] > 0.010013168385167208:
                            if input[11701] > 0.010729935041245512:
                                var0 = -0.44801684909217004
                            else:
                                var0 = -0.5515387337069142
                        else:
                            if input[1278] > 0.021309463225246395:
                                var0 = -0.4995916619706608
                            else:
                                if input[17015] > 0.011056799135629613:
                                    if input[11767] > 0.006544415332259094:
                                        var0 = -0.5218214726586989
                                    else:
                                        var0 = -0.394502462114333
                                else:
                                    var0 = -0.363795492223859
        else:
            if input[3747] > 0.01030438384794292:
                if input[17051] > 0.00414076456762165:
                    if input[14030] > 0.014109604584916778:
                        if input[13193] > 0.004119639512169202:
                            if input[13257] > 0.014506928112800856:
                                var0 = -0.4407565251291221
                            else:
                                var0 = -0.5475665138132247
                        else:
                            var0 = -0.4159326896420667
                    else:
                        if input[16069] > 0.015198369277771255:
                            var0 = -0.5515387337069142
                        else:
                            if input[13176] > 0.015343456923810445:
                                if input[14862] > 0.01221903995133983:
                                    var0 = -0.5112422404653628
                                else:
                                    var0 = -0.3898589596901316
                            else:
                                var0 = -0.37340030547866576
                else:
                    if input[3778] > 0.014028684076177899:
                        var0 = -0.42558848415280376
                    else:
                        if input[12954] > 0.01658620634167744:
                            var0 = -0.4439823015571945
                        else:
                            if input[11428] > 0.01010445086967288:
                                var0 = -0.4615791202905862
                            else:
                                var0 = -0.5508222115880319
            else:
                if input[17669] > 27.500000000000004:
                    if input[17615] > 0.015051078352336851:
                        if input[14548] > 0.00928397893946137:
                            var0 = -0.4653735991389746
                        else:
                            var0 = -0.5531319429330266
                    else:
                        if input[1530] > 0.01140496487479877:
                            var0 = -0.526184074802251
                        else:
                            if input[17593] > 0.012583606786137683:
                                var0 = -0.5203222413747466
                            else:
                                if input[12005] > 0.01376784194837824:
                                    var0 = -0.49500641117789035
                                else:
                                    if input[16097] > 0.009515947705133124:
                                        var0 = -0.35767226160553633
                                    else:
                                        var0 = -0.4364802089375493
                else:
                    if input[16314] > 0.025504405304282413:
                        var0 = -0.43178096076560635
                    else:
                        if input[16375] > 0.005709891629687896:
                            if input[7767] > 0.041844807597953816:
                                var0 = -0.382612619546272
                            else:
                                if input[4988] > 0.029850739686992214:
                                    var0 = -0.4302719231496932
                                else:
                                    if input[11429] > 0.016463034685584205:
                                        var0 = -0.4190022373320841
                                    else:
                                        if input[12213] > 0.01937927628399379:
                                            var0 = -0.4615791202905862
                                        else:
                                            var0 = -0.5460333005134355
                        else:
                            var0 = -0.548491215334081
    if input[12883] > 0.000000000000000000000000000000000010000000180025095:
        if input[17668] > 398.00000000000006:
            if input[17676] > 5.500000000000001:
                var1 = 0.11676168084117777
            else:
                if input[13217] > 0.019579905926171818:
                    if input[583] > 0.015995187594197456:
                        var1 = -0.03663745201907793
                    else:
                        var1 = 0.0785834624846784
                else:
                    if input[17051] > 0.00819210248354147:
                        if input[15485] > 0.010527687474119534:
                            if input[16034] > 0.00418845981500795:
                                var1 = 0.10410046731128555
                            else:
                                if input[15462] > 0.0117264714214264:
                                    var1 = -0.030894076522195935
                                else:
                                    var1 = 0.08463993902996136
                        else:
                            var1 = 0.11063288882000849
                    else:
                        if input[17024] > 0.013544313620147961:
                            var1 = -0.010181322352483778
                        else:
                            if input[12761] > 0.0100355070272617:
                                var1 = 0.10327806933536153
                            else:
                                if input[14824] > 0.0064971151063116005:
                                    var1 = -0.023802277960652922
                                else:
                                    var1 = 0.08208136003012349
        else:
            if input[14192] > 0.013584141770568518:
                if input[1278] > 0.025532138909001644:
                    var1 = 0.014061343454615505
                else:
                    var1 = 0.11514747886969715
            else:
                if input[13836] > 0.016231739490613444:
                    var1 = 0.054803499111838294
                else:
                    var1 = -0.061117964463884136
    else:
        if input[17676] > 1.5000000000000002:
            if input[11633] > 0.016736775847024748:
                if input[3747] > 0.019225908049810673:
                    if input[808] > 0.02982793255195824:
                        var1 = -0.03412260675660763
                    else:
                        if input[13055] > 0.02630752206696829:
                            var1 = 0.021473252968923315
                        else:
                            var1 = 0.09426092809270264
                else:
                    if input[13003] > 0.010480989964463385:
                        if input[16131] > 0.01035862080958211:
                            if input[15494] > 0.007569727722436783:
                                var1 = 0.014795853544363972
                            else:
                                var1 = 0.11094468882234228
                        else:
                            if input[16516] > 0.01870425175603307:
                                var1 = 0.08876828411347654
                            else:
                                if input[16813] > 0.012996778686931854:
                                    var1 = 0.05010852876613921
                                else:
                                    if input[7949] > 0.036495746616732924:
                                        var1 = 0.035332243147199315
                                    else:
                                        if input[16589] > 0.019167241411661137:
                                            var1 = 0.021322867650819255
                                        else:
                                            if input[11543] > 0.012858651102425673:
                                                var1 = 0.008586026468075419
                                            else:
                                                if input[13154] > 0.007839047286213022:
                                                    var1 = -0.0793750982663138
                                                else:
                                                    var1 = -0.005509060662534379
                    else:
                        if input[12402] > 0.013354011008526406:
                            var1 = 0.04057420599734236
                        else:
                            if input[659] > 0.017610507088795548:
                                var1 = 0.004783781871769499
                            else:
                                var1 = -0.06804978684345699
            else:
                if input[15464] > 0.016218649747216325:
                    if input[17592] > 0.005318538316068796:
                        var1 = 0.06280797218085128
                    else:
                        var1 = -0.04818732616468624
                else:
                    if input[14125] > 0.02174052224875805:
                        var1 = -0.02081984652752141
                    else:
                        if input[17051] > 0.011581516300309513:
                            if input[12854] > 0.000000000000000000000000000000000010000000180025095:
                                var1 = 0.09942570862206418
                            else:
                                if input[11821] > 0.006132999095891145:
                                    var1 = 0.09834986872018668
                                else:
                                    var1 = -0.01398754063096839
                        else:
                            if input[14233] > 0.021159697063412978:
                                var1 = -0.051515428723442884
                            else:
                                if input[16748] > 0.015393975765482914:
                                    var1 = -0.03945014146018025
                                else:
                                    if input[14624] > 0.012537904376298854:
                                        var1 = 0.003679698368119496
                                    else:
                                        var1 = 0.0914247231178329
        else:
            if input[3747] > 0.01030438384794292:
                if input[17051] > 0.00414076456762165:
                    if input[4944] > 0.026658543861234937:
                        var1 = -0.07726402905023709
                    else:
                        if input[11640] > 0.007939957007323762:
                            if input[15258] > 0.011894101911925952:
                                if input[12476] > 0.02181086385174896:
                                    var1 = 0.030926547950326455
                                else:
                                    var1 = -0.07113826609128736
                            else:
                                if input[17422] > 0.015853712674837157:
                                    var1 = -0.025962310267247574
                                else:
                                    if input[11728] > 0.015231366326138055:
                                        var1 = 0.017430392302455706
                                    else:
                                        var1 = 0.11043639614732681
                        else:
                            var1 = 0.07901397612927646
                else:
                    if input[3778] > 0.014028684076177899:
                        var1 = 0.04469771700545495
                    else:
                        if input[12954] > 0.01658620634167744:
                            var1 = 0.02750848378251343
                        else:
                            var1 = -0.06322609193970768
            else:
                if input[17669] > 27.500000000000004:
                    if input[15257] > 0.009207724228249258:
                        if input[14161] > 0.007663837729917078:
                            var1 = 0.06380551646519221
                        else:
                            if input[11911] > 0.014562634775217164:
                                var1 = 0.030503562623519883
                            else:
                                if input[15973] > 0.015531512276068407:
                                    var1 = 0.030996895855285336
                                else:
                                    var1 = -0.06865975780718166
                    else:
                        if input[12280] > 0.011451201360450405:
                            var1 = -0.01592042853154632
                        else:
                            var1 = 0.0846685339410811
                else:
                    if input[16314] > 0.025504405304282413:
                        var1 = 0.03891116172721132
                    else:
                        if input[16375] > 0.005709891629687896:
                            if input[15875] > 0.016121571854569697:
                                var1 = 0.041535770797886694
                            else:
                                if input[11682] > 0.016061035970956806:
                                    if input[17403] > 0.01928748086005094:
                                        var1 = 0.05238021296812977
                                    else:
                                        var1 = -0.06041404042919435
                                else:
                                    if input[14879] > 0.019515645461188513:
                                        var1 = 0.006001699655209228
                                    else:
                                        var1 = -0.07381198565023012
                        else:
                            var1 = -0.07301939673321688
    if input[12883] > 0.000000000000000000000000000000000010000000180025095:
        if input[17668] > 398.00000000000006:
            if input[17676] > 1.5000000000000002:
                if input[1188] > 0.05374208283668388:
                    var2 = 0.04625066387017593
                else:
                    var2 = 0.10503583346072008
            else:
                if input[13217] > 0.019579905926171818:
                    var2 = -0.0071589357145121785
                else:
                    if input[14634] > 0.01541266028844528:
                        if input[13426] > 0.012542733471452456:
                            var2 = 0.08224157419585938
                        else:
                            var2 = -0.02854920712613771
                    else:
                        var2 = 0.08833465241094329
        else:
            if input[14192] > 0.013584141770568518:
                if input[14170] > 0.013016761019206386:
                    var2 = 0.015746522934032902
                else:
                    var2 = 0.1115830332472342
            else:
                if input[13836] > 0.016231739490613444:
                    var2 = 0.051553631294797043
                else:
                    var2 = -0.05908398775584135
    else:
        if input[17676] > 1.5000000000000002:
            if input[11633] > 0.016736775847024748:
                if input[12148] > 0.007488937817945806:
                    if input[14396] > 0.019679432019700495:
                        var2 = -0.04623149459941433
                    else:
                        if input[17104] > 0.014512665954986384:
                            if input[1147] > 0.019846360625796804:
                                var2 = -0.03538801690416789
                            else:
                                if input[17424] > 0.005479449972117829:
                                    var2 = 0.07777661231681188
                                else:
                                    var2 = -0.0037613622925592527
                        else:
                            var2 = 0.09693967101287518
                else:
                    if input[13203] > 0.007226543873747552:
                        if input[12225] > 0.006862338569185662:
                            var2 = 0.07833142285752175
                        else:
                            if input[13526] > 0.01083110585050096:
                                var2 = 0.032857999709612985
                            else:
                                var2 = -0.06552709558578666
                    else:
                        if input[13003] > 0.010480989964463385:
                            if input[16378] > 0.01091566752482927:
                                if input[15916] > 0.009896304125192145:
                                    if input[11454] > 0.015941590167413536:
                                        var2 = 0.046252538251467176
                                    else:
                                        var2 = -0.06584599847163038
                                else:
                                    var2 = 0.07182107922476631
                            else:
                                if input[340] > 0.022356552497246013:
                                    var2 = 0.045239099567664476
                                else:
                                    if input[17669] > 43.50000000000001:
                                        var2 = 0.021514098543800753
                                    else:
                                        var2 = -0.06983698778308155
                        else:
                            if input[11578] > 0.012115028570911457:
                                var2 = 0.02716911979399734
                            else:
                                var2 = -0.0721941620886588
            else:
                if input[17673] > 3.5000000000000004:
                    if input[12148] > 0.004636726313058204:
                        var2 = 0.09779353927736219
                    else:
                        if input[10865] > 0.03667643564482229:
                            var2 = 0.09366548080417786
                        else:
                            if input[11798] > 0.008505121461907733:
                                if input[16333] > 0.005964170580320672:
                                    var2 = -0.08009396599399275
                                else:
                                    var2 = 0.02267247899889248
                            else:
                                if input[15292] > 0.008745815180317076:
                                    var2 = -0.01894222943943906
                                else:
                                    if input[12061] > 0.004833118391887318:
                                        var2 = 0.10273345454690659
                                    else:
                                        if input[13090] > 0.007990749292591538:
                                            var2 = -0.021379102287923366
                                        else:
                                            var2 = 0.08858176395911212
                else:
                    if input[14903] > 0.014456011687993238:
                        var2 = -0.0443807838529941
                    else:
                        if input[16810] > 0.010979250389969237:
                            var2 = 0.09511903823017019
                        else:
                            if input[12296] > 0.0059537121078650215:
                                var2 = 0.05895997503343969
                            else:
                                if input[15998] > 0.009219181196762554:
                                    var2 = 0.02265664947468081
                                else:
                                    var2 = -0.0702919847513725
        else:
            if input[3747] > 0.01030438384794292:
                if input[17051] > 0.00414076456762165:
                    if input[14951] > 0.026665567733377773:
                        var2 = -0.07571406916046132
                    else:
                        if input[16960] > 0.0037883269220315165:
                            if input[14703] > 0.02088430610673896:
                                var2 = -0.0654596016582819
                            else:
                                if input[6378] > 0.037859036159905914:
                                    if input[14439] > 0.008336648150179813:
                                        var2 = 0.009214874830021097
                                    else:
                                        var2 = 0.09727249205869198
                                else:
                                    if input[4471] > 0.011814300436618222:
                                        var2 = 0.04921301242049763
                                    else:
                                        var2 = -0.049498338233288044
                        else:
                            var2 = 0.07995720831764036
                else:
                    if input[13238] > 0.01258536595268001:
                        var2 = 0.02181271481266968
                    else:
                        if input[11437] > 0.01762225715350633:
                            var2 = 0.018726098700768953
                        else:
                            var2 = -0.0686110523911212
            else:
                if input[17669] > 27.500000000000004:
                    if input[17615] > 0.014836390298238923:
                        if input[6311] > 0.03369814604239635:
                            var2 = 0.026763223672825548
                        else:
                            var2 = -0.07158983178227356
                    else:
                        if input[2291] > 0.016275852156301254:
                            var2 = -0.05077612782378732
                        else:
                            if input[14601] > 0.006479881664353574:
                                var2 = -0.014967441601052575
                            else:
                                if input[12759] > 0.004825163530323307:
                                    var2 = 0.09545345457239755
                                else:
                                    var2 = 0.02149572752174049
                else:
                    if input[16314] > 0.025504405304282413:
                        var2 = 0.03669057478929143
                    else:
                        if input[16375] > 0.005709891629687896:
                            if input[7767] > 0.041844807597953816:
                                var2 = 0.08450573990386491
                            else:
                                if input[4988] > 0.029850739686992214:
                                    var2 = 0.04097929702980216
                                else:
                                    if input[11429] > 0.016463034685584205:
                                        var2 = 0.0505947028152005
                                    else:
                                        if input[12124] > 0.011721247388745878:
                                            var2 = 0.01049038717343779
                                        else:
                                            var2 = -0.06903483337912462
                        else:
                            if input[15188] > 0.01733956180565969:
                                var2 = -0.002430674346801795
                            else:
                                var2 = -0.07197453664287458
    if input[12883] > 0.000000000000000000000000000000000010000000180025095:
        if input[17668] > 398.00000000000006:
            if input[12295] > 0.006399540603857153:
                var3 = 0.09803222886273498
            else:
                if input[6918] > 0.023967219606875974:
                    if input[17051] > 0.008514450456773551:
                        if input[15483] > 0.009773837965013563:
                            var3 = 0.027413396993869882
                        else:
                            var3 = 0.10230970891831043
                    else:
                        var3 = -0.06152529869767651
                else:
                    if input[16482] > 0.018155122583153886:
                        var3 = 0.009318906265895228
                    else:
                        var3 = 0.08752062880522689
        else:
            if input[14192] > 0.013584141770568518:
                if input[14171] > 0.013035118382796316:
                    var3 = 0.014920710481404626
                else:
                    var3 = 0.10499517354198028
            else:
                if input[13836] > 0.016231739490613444:
                    var3 = 0.04859181117388894
                else:
                    var3 = -0.05718012874436208
    else:
        if input[17668] > 1082.5000000000002:
            if input[14166] > 0.023173204719222556:
                if input[8261] > 0.032490662442862535:
                    var3 = 0.06420848917795059
                else:
                    if input[11581] > 0.008778960308252048:
                        var3 = 0.0583029535995446
                    else:
                        if input[13669] > 0.01574099268413211:
                            var3 = 0.01595021474349655
                        else:
                            var3 = -0.07527944951709561
            else:
                if input[16531] > 0.0045237436809293504:
                    if input[14498] > 0.006262830213485075:
                        if input[12324] > 0.034401666919425734:
                            var3 = 0.0078119716151671325
                        else:
                            if input[15295] > 0.017977050016433873:
                                var3 = 0.01526377388277863
                            else:
                                if input[16083] > 0.005135763175735828:
                                    var3 = 0.10030538068851935
                                else:
                                    if input[11738] > 0.006551004737823665:
                                        var3 = 0.09483902526949163
                                    else:
                                        var3 = -0.007893791172469144
                    else:
                        if input[16238] > 0.007887812939735806:
                            if input[14660] > 0.007338824381666637:
                                var3 = -0.06783768708379521
                            else:
                                var3 = 0.038581788045248734
                        else:
                            if input[14274] > 0.00645860831663351:
                                var3 = 0.01576378044123076
                            else:
                                var3 = 0.1023816112180883
                else:
                    if input[13698] > 0.015849069015467048:
                        if input[14748] > 0.014523819734507058:
                            var3 = 0.0393410367369197
                        else:
                            var3 = -0.06553803202483054
                    else:
                        if input[4315] > 0.01472245413736323:
                            if input[11497] > 0.02186858019527853:
                                if input[14053] > 0.012566963377850763:
                                    var3 = -0.054349218225235744
                                else:
                                    if input[13963] > 0.007089378878662499:
                                        if input[16822] > 0.007175014397142497:
                                            var3 = 0.0558689082254098
                                        else:
                                            var3 = -0.052300320776768744
                                    else:
                                        var3 = 0.07179143455725055
                            else:
                                if input[12144] > 0.003822035634374515:
                                    var3 = 0.09400673379579988
                                else:
                                    if input[15556] > 0.00927390986013322:
                                        var3 = -0.012831759363095921
                                    else:
                                        var3 = 0.08134983914431101
                        else:
                            if input[12569] > 0.02215621198804301:
                                if input[16844] > 0.006980518827642264:
                                    var3 = 0.007409482423997635
                                else:
                                    var3 = 0.10064513044723443
                            else:
                                if input[13024] > 0.012790753705853636:
                                    var3 = 0.05146445997179221
                                else:
                                    if input[16780] > 0.01222325020217027:
                                        var3 = 0.0765732893307332
                                    else:
                                        if input[16378] > 0.005005964469124328:
                                            if input[11798] > 0.008505121461907733:
                                                var3 = -0.055962226691071815
                                            else:
                                                if input[3634] > 0.009693372203767155:
                                                    var3 = 0.08209036305677898
                                                else:
                                                    var3 = -0.005916026306976018
                                        else:
                                            if input[13646] > 0.00492778996288662:
                                                var3 = -0.07145177645291986
                                            else:
                                                var3 = 0.013331164012688934
        else:
            if input[12148] > 0.007695779366423498:
                if input[16946] > 0.015369548945421743:
                    if input[11392] > 0.014745994976709793:
                        var3 = 0.0904071780372746
                    else:
                        var3 = 0.014926086458658509
                else:
                    if input[773] > 0.03535851163060299:
                        if input[16395] > 0.009170537445202622:
                            var3 = 0.013904256054349374
                        else:
                            var3 = 0.09022284525089098
                    else:
                        if input[17683] > 1.5000000000000002:
                            var3 = 0.06643222222202486
                        else:
                            if input[2878] > 0.016454436918406586:
                                if input[11629] > 0.012529573947392247:
                                    var3 = -0.014462629187726972
                                else:
                                    var3 = 0.08274961219622798
                            else:
                                if input[4471] > 0.016746904039809222:
                                    var3 = 0.015196591276007794
                                else:
                                    if input[912] > 0.04556465043663612:
                                        var3 = 0.0032373682538291413
                                    else:
                                        var3 = -0.0659641821417089
            else:
                if input[4845] > 0.02746349014538284:
                    if input[16164] > 0.009337730856774359:
                        var3 = 0.06456630656092319
                    else:
                        if input[16672] > 0.007182119340514044:
                            var3 = 0.049273008464980644
                        else:
                            var3 = -0.04940712764670557
                else:
                    if input[16314] > 0.025504405304282413:
                        var3 = 0.03622197857158647
                    else:
                        if input[17681] > 1.5000000000000002:
                            if input[14443] > 0.011083845817151128:
                                var3 = 0.0648876940275437
                            else:
                                if input[4797] > 0.01589535285552876:
                                    var3 = 0.014323655088180596
                                else:
                                    if input[16544] > 0.011377782378224897:
                                        var3 = 0.015123312530515718
                                    else:
                                        var3 = -0.0694352553286444
                        else:
                            if input[15998] > 0.018637476536135004:
                                var3 = 0.020188307494482888
                            else:
                                if input[4839] > 0.040905295181152275:
                                    var3 = -0.012879008845497206
                                else:
                                    if input[12834] > 0.02297796622843365:
                                        var3 = 0.0
                                    else:
                                        var3 = -0.06984302976718475
    if input[17671] > 2.5000000000000004:
        if input[3747] > 0.000000000000000000000000000000000010000000180025095:
            if input[17685] > 0.000000000000000000000000000000000010000000180025095:
                if input[16677] > 0.004632310154550055:
                    var4 = 0.09367693095577344
                else:
                    if input[12240] > 0.006801073554987792:
                        if input[11393] > 0.02260860615580623:
                            if input[4315] > 0.03196285909502851:
                                var4 = 0.07950983001520943
                            else:
                                var4 = -0.01644702885298761
                        else:
                            var4 = 0.09165080725970154
                    else:
                        var4 = -0.008695626379238559
            else:
                if input[11517] > 0.004673256450645891:
                    if input[12078] > 0.009292488661351609:
                        var4 = -0.031183429223978154
                    else:
                        if input[2815] > 0.020015553675971087:
                            var4 = 0.005146347817148307
                        else:
                            var4 = 0.08013985664637933
                else:
                    var4 = -0.045070390475704616
        else:
            if input[17676] > 5.500000000000001:
                if input[16406] > 0.015085397824429669:
                    var4 = 0.010240046722177078
                else:
                    if input[14127] > 0.016499110446866024:
                        var4 = 0.02083206390176786
                    else:
                        var4 = 0.08890538401387428
            else:
                if input[11578] > 0.005353819082819855:
                    if input[15017] > 0.010646153376563232:
                        var4 = -0.045736299630541155
                    else:
                        if input[16430] > 0.017860994103817623:
                            var4 = -0.03668362019823306
                        else:
                            if input[6274] > 0.020995580618749007:
                                var4 = -0.003532460548609489
                            else:
                                if input[13976] > 0.022137876719729586:
                                    var4 = 0.008872111391561686
                                else:
                                    var4 = 0.07792847661303336
                else:
                    if input[3613] > 0.012902661258591049:
                        if input[14155] > 0.005429006900063414:
                            var4 = 0.094521283878053
                        else:
                            var4 = 0.001040037946388536
                    else:
                        if input[16915] > 0.017497578357379653:
                            if input[17051] > 0.01128597402641311:
                                var4 = 0.08439723859855636
                            else:
                                var4 = -0.009541118418346003
                        else:
                            if input[16304] > 0.018284946403400875:
                                var4 = 0.058593896396250914
                            else:
                                if input[13762] > 0.01975738341931615:
                                    var4 = 0.04939402389925096
                                else:
                                    if input[13506] > 0.006734404373367403:
                                        if input[14727] > 0.007557556253771725:
                                            var4 = 0.04132329616938838
                                        else:
                                            var4 = -0.055890762408766795
                                    else:
                                        var4 = -0.06877793310946949
    else:
        if input[3747] > 0.0082783577041799:
            if input[12144] > 0.012088276475620536:
                if input[17676] > 0.000000000000000000000000000000000010000000180025095:
                    if input[273] > 0.04071998097716334:
                        if input[12148] > 0.021824175155164462:
                            var4 = 0.05967375676574456
                        else:
                            var4 = -0.046303203766659105
                    else:
                        if input[4339] > 0.030605201597348548:
                            var4 = -0.021176168414162193
                        else:
                            if input[15192] > 0.016802740042187885:
                                if input[11636] > 0.010321508041951479:
                                    var4 = 0.06772531252762083
                                else:
                                    var4 = -0.023308491154008997
                            else:
                                var4 = 0.0860515744615011
                else:
                    if input[773] > 0.03645757990859797:
                        var4 = 0.07352250226326168
                    else:
                        if input[17051] > 0.006103171284906903:
                            if input[14069] > 0.015888326676971407:
                                var4 = -0.048139707294027285
                            else:
                                var4 = 0.051070693702377205
                        else:
                            if input[11962] > 0.01860241310578809:
                                var4 = 0.04051699360382048
                            else:
                                var4 = -0.06822401858878746
            else:
                if input[232] > 0.018807316987289886:
                    if input[17311] > 0.010902691474429101:
                        var4 = 0.07605880075912247
                    else:
                        var4 = -0.02633085789480756
                else:
                    if input[12644] > 0.005439414676181335:
                        if input[13055] > 0.01782562581306962:
                            var4 = -0.04544062044097424
                        else:
                            var4 = 0.07784060227506888
                    else:
                        if input[13164] > 0.011433096628020174:
                            var4 = 0.016788416474557862
                        else:
                            var4 = -0.06680752480359203
        else:
            if input[2056] > 0.04229347552442619:
                var4 = 0.09636042944897855
            else:
                if input[16375] > 0.0046626897429059245:
                    if input[2899] > 0.0200562844398297:
                        if input[7776] > 0.02342086251710467:
                            var4 = 0.0725853802185684
                        else:
                            if input[15705] > 0.018477511001521087:
                                var4 = -0.07475803378461958
                            else:
                                if input[16308] > 0.015818080758807664:
                                    var4 = 0.07008909344819497
                                else:
                                    var4 = -0.02419580040070352
                    else:
                        if input[7767] > 0.038616697204254556:
                            var4 = 0.06383569948415198
                        else:
                            if input[11509] > 0.02151815274243626:
                                var4 = 0.05643247105466315
                            else:
                                if input[7113] > 0.028729532724733126:
                                    if input[7973] > 0.022949171765638345:
                                        var4 = 0.06727876343795836
                                    else:
                                        var4 = -0.06358478319249276
                                else:
                                    if input[14119] > 0.017522498789234627:
                                        if input[11391] > 0.009766401143912536:
                                            var4 = 0.04914623895238809
                                        else:
                                            var4 = -0.05192445077669122
                                    else:
                                        if input[13427] > 0.015790537024447496:
                                            var4 = 0.03415198459635343
                                        else:
                                            if input[15932] > 0.01810888591184479:
                                                var4 = 0.010487569595606101
                                            else:
                                                var4 = -0.06850522497179166
                else:
                    if input[11791] > 0.07745085615423944:
                        var4 = 0.0792970928522239
                    else:
                        if input[11608] > 0.018745149682836103:
                            if input[13070] > 0.010946595820220482:
                                var4 = 0.06050311766213502
                            else:
                                if input[16966] > 0.016534177828973033:
                                    var4 = 0.031859183357424124
                                else:
                                    var4 = -0.0581750880057346
                        else:
                            if input[3157] > 0.015436016198213684:
                                var4 = -0.029704243035565948
                            else:
                                var4 = -0.06968412128297154
    if input[17671] > 2.5000000000000004:
        if input[16531] > 0.004276688652540353:
            if input[17685] > 0.000000000000000000000000000000000010000000180025095:
                if input[11833] > 0.021809244724454505:
                    var5 = 0.02752295830589521
                else:
                    if input[15327] > 0.022581324808880098:
                        var5 = 0.03723972856461368
                    else:
                        var5 = 0.08979162734667046
            else:
                if input[17676] > 0.000000000000000000000000000000000010000000180025095:
                    if input[16677] > 0.007048955703225747:
                        var5 = 0.08005661979969396
                    else:
                        var5 = -0.02006055814359765
                else:
                    if input[15142] > 0.01264281175547165:
                        var5 = 0.061561129419118225
                    else:
                        var5 = -0.0636648403879949
        else:
            if input[17676] > 2.5000000000000004:
                if input[6485] > 0.04250808697783624:
                    var5 = -0.029780713849708703
                else:
                    if input[15257] > 0.019176046034021687:
                        var5 = -0.0082656483008757
                    else:
                        if input[13018] > 0.017453336450069756:
                            var5 = -0.0033461714893763626
                        else:
                            if input[4315] > 0.00846637558541563:
                                var5 = 0.08272846716703888
                            else:
                                if input[15511] > 0.007192345963477591:
                                    var5 = -0.002691276339727754
                                else:
                                    var5 = 0.07560993548807017
            else:
                if input[17669] > 49.50000000000001:
                    if input[13700] > 0.006193926804190124:
                        if input[15580] > 0.009602387990374335:
                            var5 = 0.03880302694278073
                        else:
                            var5 = -0.07881595965122595
                    else:
                        if input[14131] > 0.008337993411811266:
                            var5 = 0.007060378818507242
                        else:
                            var5 = 0.08562532088164702
                else:
                    if input[12857] > 0.007228705906817287:
                        if input[16527] > 0.008471107830818477:
                            var5 = 0.08437685769282788
                        else:
                            if input[11393] > 0.022531250309571673:
                                var5 = -0.052149070936285284
                            else:
                                var5 = 0.04437779325729114
                    else:
                        if input[13471] > 0.014586286798395565:
                            if input[15464] > 0.005983844522835635:
                                var5 = -0.06368981875441765
                            else:
                                if input[2195] > 0.01782415860711512:
                                    var5 = 0.07053328689156328
                                else:
                                    var5 = -0.01614206510278741
                        else:
                            if input[13440] > 0.015447451758461088:
                                var5 = 0.07035338551464919
                            else:
                                if input[8200] > 0.046298171763716034:
                                    var5 = 0.0037844278220415238
                                else:
                                    var5 = -0.06947986548315792
    else:
        if input[16531] > 0.005628437969373713:
            if input[12144] > 0.012767015881067678:
                if input[17676] > 0.000000000000000000000000000000000010000000180025095:
                    if input[273] > 0.04071998097716334:
                        if input[16531] > 0.02108307351790589:
                            var5 = 0.05141849592271413
                        else:
                            var5 = -0.06056603785352587
                    else:
                        if input[1841] > 0.01756489188675114:
                            var5 = -0.005284987621522557
                        else:
                            if input[15115] > 0.019277706564551737:
                                var5 = 0.018470722712246434
                            else:
                                var5 = 0.08173348632995424
                else:
                    if input[15085] > 0.030680791481010623:
                        var5 = 0.08201090772603303
                    else:
                        if input[6378] > 0.03371156629008982:
                            if input[13292] > 0.015869842449318904:
                                var5 = -0.020123993751728016
                            else:
                                var5 = 0.07694393635023603
                        else:
                            if input[4315] > 0.024574847695327973:
                                var5 = 0.018023901702947508
                            else:
                                if input[13604] > 0.019467421114483244:
                                    var5 = 0.012552505442089652
                                else:
                                    var5 = -0.07082252090278986
            else:
                if input[15492] > 0.008542947715997768:
                    if input[13910] > 0.004839642196711167:
                        if input[13665] > 0.009512027037464022:
                            var5 = -0.0025530065255576504
                        else:
                            var5 = 0.08493152131433312
                    else:
                        var5 = -0.052760183617464686
                else:
                    if input[13844] > 0.011567995062555207:
                        var5 = 0.054538252893944664
                    else:
                        if input[3553] > 0.013260948867682571:
                            var5 = 0.01652170477578729
                        else:
                            var5 = -0.06223755431817918
        else:
            if input[2056] > 0.04229347552442619:
                var5 = 0.08969764212635688
            else:
                if input[16375] > 0.0046626897429059245:
                    if input[2899] > 0.0200562844398297:
                        if input[13980] > 0.021544656528507334:
                            var5 = -0.059269939089019286
                        else:
                            if input[15140] > 0.017924784970662067:
                                var5 = -0.043881021478858764
                            else:
                                if input[11637] > 0.005144526822685488:
                                    var5 = 0.009337969779805525
                                else:
                                    var5 = 0.08453690567090089
                    else:
                        if input[11509] > 0.02151815274243626:
                            var5 = 0.06374586296644268
                        else:
                            if input[5209] > 0.022468089898166413:
                                if input[15867] > 0.014432188497142633:
                                    var5 = 0.0637575529831906
                                else:
                                    if input[16372] > 0.014511691179186348:
                                        var5 = 0.026604156556754972
                                    else:
                                        var5 = -0.061687257699078124
                            else:
                                if input[14154] > 0.01666238100229105:
                                    var5 = 0.0680589251540887
                                else:
                                    if input[12102] > 0.027972033204865233:
                                        var5 = 0.02769599281847142
                                    else:
                                        if input[12001] > 0.0188390005668808:
                                            var5 = 0.015176459010211897
                                        else:
                                            var5 = -0.06540291120526508
                else:
                    if input[13409] > 0.06875373366899794:
                        var5 = 0.060840486718204426
                    else:
                        if input[17683] > 1.5000000000000002:
                            var5 = 0.028906143860881486
                        else:
                            if input[3146] > 0.01884808033031791:
                                var5 = 0.013028333101746984
                            else:
                                if input[14965] > 0.01846460221390615:
                                    var5 = 0.0138365614245446
                                else:
                                    if input[16021] > 0.02804758483455577:
                                        if input[16672] > 0.009415650927684255:
                                            var5 = 0.05041454888038267
                                        else:
                                            var5 = -0.06182986517485611
                                    else:
                                        var5 = -0.06689642220785101
    if input[12883] > 0.000000000000000000000000000000000010000000180025095:
        if input[17668] > 398.00000000000006:
            if input[17676] > 5.500000000000001:
                var6 = 0.089295442019065
            else:
                if input[3162] > 0.02413282860175225:
                    if input[13384] > 0.014045898219424785:
                        if input[1191] > 0.02065973276223105:
                            var6 = 0.04958794184240299
                        else:
                            var6 = -0.048555033630816785
                    else:
                        if input[16398] > 0.0058220826489890935:
                            var6 = 0.08195199216737792
                        else:
                            var6 = 0.0160023101046612
                else:
                    if input[8795] > 0.04297538296145473:
                        var6 = 0.02189185912184481
                    else:
                        var6 = 0.07681576790160899
        else:
            if input[14192] > 0.013584141770568518:
                if input[1278] > 0.025532138909001644:
                    var6 = 0.008955836568899096
                else:
                    var6 = 0.08965978094205049
            else:
                if input[13836] > 0.016231739490613444:
                    var6 = 0.03937898752806284
                else:
                    var6 = -0.05378712996692941
    else:
        if input[17676] > 1.5000000000000002:
            if input[11632] > 0.01725392797058047:
                if input[3747] > 0.018941570797194444:
                    if input[808] > 0.02982793255195824:
                        var6 = -0.031762693528798756
                    else:
                        if input[273] > 0.04071998097716334:
                            var6 = 0.014902261423540581
                        else:
                            var6 = 0.07566638865460235
                else:
                    if input[6334] > 0.04630192358974388:
                        var6 = 0.05649761063097199
                    else:
                        if input[13003] > 0.010480989964463385:
                            if input[15853] > 0.013473225888365433:
                                var6 = -0.06434794786032574
                            else:
                                if input[13228] > 0.012331123310242447:
                                    var6 = 0.06418144724605834
                                else:
                                    if input[15590] > 0.01044623715784207:
                                        if input[13606] > 0.007585742333818692:
                                            var6 = 0.002242537853200841
                                        else:
                                            var6 = -0.06555866831165542
                                    else:
                                        if input[17382] > 0.018162472130870532:
                                            if input[17687] > 0.5166000000000001:
                                                var6 = 0.034955386354534254
                                            else:
                                                var6 = -0.0735345785862475
                                        else:
                                            if input[13340] > 0.011928308253061893:
                                                var6 = 0.013366482591068238
                                            else:
                                                var6 = 0.09254674622804969
                        else:
                            if input[3591] > 0.022720089724008807:
                                var6 = -0.0005708685629514114
                            else:
                                var6 = -0.06495670900325905
            else:
                if input[17673] > 3.5000000000000004:
                    if input[4315] > 0.01494629778620057:
                        if input[15563] > 0.008917268127950842:
                            var6 = 0.08405859512724251
                        else:
                            if input[13420] > 0.005994263100137911:
                                var6 = -0.005344493793296225
                            else:
                                var6 = 0.07429344920931356
                    else:
                        if input[11801] > 0.012590354081581151:
                            var6 = -0.03183859744354783
                        else:
                            if input[16748] > 0.015393975765482914:
                                var6 = -0.021942515908347636
                            else:
                                if input[9600] > 0.02116947154308298:
                                    var6 = -0.0069480658931494
                                else:
                                    if input[13218] > 0.01473084629528248:
                                        var6 = 0.01629096726072243
                                    else:
                                        var6 = 0.08612058957078758
                else:
                    if input[11724] > 0.016127418604322947:
                        if input[13194] > 0.013947674713633474:
                            var6 = 0.031201135574901485
                        else:
                            var6 = -0.05937454575167289
                    else:
                        if input[17051] > 0.013476601326147862:
                            if input[2177] > 0.000000000000000000000000000000000010000000180025095:
                                var6 = 0.08237416967958167
                            else:
                                var6 = 0.017924363729508463
                        else:
                            if input[12925] > 0.010544288352130471:
                                var6 = -0.07525278245904121
                            else:
                                var6 = 0.014325092702863088
        else:
            if input[3747] > 0.01030438384794292:
                if input[16946] > 0.017274735013462838:
                    if input[14581] > 0.009677969874300477:
                        var6 = -0.03437216227830243
                    else:
                        var6 = 0.0738453539432077
                else:
                    if input[10865] > 0.028112837464971906:
                        if input[14672] > 0.010284428233501262:
                            var6 = -0.01441883606924421
                        else:
                            var6 = 0.06903683152526158
                    else:
                        if input[1666] > 0.020751523983203724:
                            var6 = 0.042709789252868544
                        else:
                            if input[2837] > 0.02748474755456835:
                                var6 = 0.0157584809216611
                            else:
                                if input[13000] > 0.01713592058173773:
                                    var6 = 0.025357044899731097
                                else:
                                    if input[13707] > 0.02356695563263116:
                                        var6 = 0.0058018433206795585
                                    else:
                                        var6 = -0.06582123272309226
            else:
                if input[17669] > 26.500000000000004:
                    if input[17615] > 0.015051078352336851:
                        if input[2727] > 0.02778159771898402:
                            var6 = 0.027978614360482268
                        else:
                            var6 = -0.06813403430822677
                    else:
                        if input[12143] > 0.006656600893581136:
                            var6 = -0.04740176811963976
                        else:
                            if input[11960] > 0.009214804060979676:
                                var6 = -0.02303554046102491
                            else:
                                if input[14421] > 0.008704235285216482:
                                    var6 = 0.07456406955306237
                                else:
                                    var6 = 0.005222893053641792
                else:
                    if input[16314] > 0.025504405304282413:
                        var6 = 0.030699452538331087
                    else:
                        if input[16375] > 0.005709891629687896:
                            if input[15875] > 0.016121571854569697:
                                var6 = 0.04139064393210829
                            else:
                                if input[11682] > 0.016061035970956806:
                                    if input[17403] > 0.01928748086005094:
                                        var6 = 0.05251081144463657
                                    else:
                                        var6 = -0.053987254902721826
                                else:
                                    if input[13442] > 0.015153533869944025:
                                        var6 = 0.006980237190880267
                                    else:
                                        var6 = -0.06661549709861918
                        else:
                            if input[14968] > 0.0285490395326688:
                                var6 = -0.0030340529601223312
                            else:
                                if input[12599] > 0.02846722938037157:
                                    var6 = 0.010882926392874854
                                else:
                                    var6 = -0.06658460314737984
    if input[17671] > 2.5000000000000004:
        if input[3747] > 0.000000000000000000000000000000000010000000180025095:
            if input[17685] > 0.000000000000000000000000000000000010000000180025095:
                if input[9755] > 0.06907252272025238:
                    var7 = 0.012814200145678856
                else:
                    if input[15327] > 0.022581324808880098:
                        var7 = 0.03174786192547942
                    else:
                        var7 = 0.08065988335617014
            else:
                if input[12761] > 0.004323802254524987:
                    if input[12986] > 0.01726167286739109:
                        var7 = -0.026013513787830164
                    else:
                        var7 = 0.06120766743269728
                else:
                    var7 = -0.044049461162118886
        else:
            if input[17685] > 0.000000000000000000000000000000000010000000180025095:
                if input[17213] > 0.021971126969388428:
                    var7 = -0.04526915889450636
                else:
                    if input[11912] > 0.02232659177720429:
                        var7 = -0.05214526265296979
                    else:
                        if input[17483] > 0.01389128617544418:
                            var7 = 0.07642469503648924
                        else:
                            if input[16007] > 0.018553861661290593:
                                var7 = -0.04589083219037834
                            else:
                                if input[12143] > 0.024000569384836395:
                                    var7 = -0.028301835642442152
                                else:
                                    if input[14404] > 0.016168373317812117:
                                        if input[14367] > 0.009975784701915399:
                                            var7 = -0.06460274439636533
                                        else:
                                            var7 = 0.03554040057469176
                                    else:
                                        if input[16092] > 0.01733906292550808:
                                            if input[4684] > 0.01009486605449955:
                                                var7 = -0.06417970104172127
                                            else:
                                                if input[11701] > 0.01009978303227668:
                                                    var7 = -0.02572884525168284
                                                else:
                                                    var7 = 0.07979421339005993
                                        else:
                                            if input[14595] > 0.01662461199819851:
                                                var7 = 0.007963579372884775
                                            else:
                                                if input[16136] > 0.012214199559564643:
                                                    var7 = 0.005708785191192738
                                                else:
                                                    var7 = 0.07915598898087693
            else:
                if input[11517] > 0.01635678315709475:
                    if input[17667] > 292.50000000000006:
                        var7 = 0.08251807048744118
                    else:
                        var7 = -0.03999093545717166
                else:
                    if input[14348] > 0.014928839185280573:
                        var7 = 0.04930759231405591
                    else:
                        if input[11655] > 0.006972548480862176:
                            var7 = 0.034200425666670954
                        else:
                            var7 = -0.05991884908583898
    else:
        if input[3747] > 0.0082783577041799:
            if input[17051] > 0.013777294921885178:
                if input[5254] > 0.03434902829084859:
                    if input[12677] > 0.010269929632611113:
                        var7 = 0.05135120871105975
                    else:
                        var7 = -0.053150551995048756
                else:
                    if input[14951] > 0.03835455094745755:
                        var7 = -0.06931035848337619
                    else:
                        if input[11633] > 0.02357153435724095:
                            if input[15916] > 0.008052434014739885:
                                if input[12148] > 0.022478013929929475:
                                    var7 = 0.0334214155467343
                                else:
                                    var7 = -0.06836921146071798
                            else:
                                var7 = 0.06112202318063569
                        else:
                            if input[17643] > 0.014180831707237595:
                                if input[12147] > 0.01223764264266905:
                                    var7 = 0.07149988690463492
                                else:
                                    var7 = -0.020924161702679384
                            else:
                                if input[17479] > 0.012559172433822716:
                                    var7 = 0.08466339975424594
                                else:
                                    var7 = 0.031140341726329086
            else:
                if input[4845] > 0.005925609298852321:
                    if input[16527] > 0.007467462626331138:
                        var7 = 0.08254833743640536
                    else:
                        var7 = 0.0062349257642977975
                else:
                    if input[15085] > 0.030680791481010623:
                        var7 = 0.05927045255685101
                    else:
                        if input[15812] > 0.012122292542445194:
                            var7 = 0.04678112140841725
                        else:
                            if input[13111] > 0.02283344755381624:
                                var7 = 0.0522700341951107
                            else:
                                if input[6378] > 0.043159249753363445:
                                    var7 = -0.01065513197845533
                                else:
                                    var7 = -0.06843705829593882
        else:
            if input[5514] > 0.019167002173486974:
                if input[16314] > 0.023590429458272288:
                    var7 = 0.0961684443452345
                else:
                    if input[958] > 0.015927946104730865:
                        var7 = 0.06948433422111898
                    else:
                        if input[17408] > 0.010598207024171608:
                            var7 = 0.0022452409073684828
                        else:
                            var7 = -0.07109881379271833
            else:
                if input[16375] > 0.0046626897429059245:
                    if input[15820] > 0.005850367449973976:
                        if input[16768] > 0.017516323657843755:
                            var7 = -0.05193871442599971
                        else:
                            if input[14051] > 0.009481664229864847:
                                if input[15686] > 0.006743947792854989:
                                    var7 = 0.0034443582928679107
                                else:
                                    var7 = 0.08947243517846742
                            else:
                                if input[12477] > 0.02347636936066105:
                                    var7 = 0.033547976496264134
                                else:
                                    var7 = -0.05082176726991362
                    else:
                        if input[13003] > 0.014597052387497188:
                            if input[11852] > 0.01661789450293417:
                                var7 = -0.05420113254462845
                            else:
                                if input[1278] > 0.012303692962218662:
                                    var7 = -0.031116490068835812
                                else:
                                    var7 = 0.05792943157358345
                        else:
                            if input[14873] > 0.016999805122496475:
                                var7 = 0.02814695985937267
                            else:
                                if input[14154] > 0.012965025471209956:
                                    var7 = 0.0010727242878026623
                                else:
                                    var7 = -0.06634388939298592
                else:
                    if input[11608] > 0.018745149682836103:
                        if input[16034] > 0.009570809864731926:
                            var7 = 0.07135988109805745
                        else:
                            if input[14320] > 0.013456532686695591:
                                var7 = 0.019559616477383402
                            else:
                                var7 = -0.057176587390978764
                    else:
                        if input[12895] > 0.012594703727458254:
                            var7 = 0.008252689051980948
                        else:
                            if input[3157] > 0.015436016198213684:
                                if input[14935] > 0.007906658570593203:
                                    var7 = 0.03615355464137377
                                else:
                                    var7 = -0.061558145514493526
                            else:
                                var7 = -0.06621754975321718
    if input[17668] > 1063.0000000000002:
        if input[12856] > 0.000000000000000000000000000000000010000000180025095:
            if input[12295] > 0.006399540603857153:
                var8 = 0.07899068992175672
            else:
                if input[6918] > 0.023967219606875974:
                    if input[12240] > 0.010754415726652365:
                        var8 = 0.05458019267795751
                    else:
                        var8 = -0.05622820155189112
                else:
                    if input[15456] > 0.014708965358249558:
                        var8 = -0.002988448389116889
                    else:
                        var8 = 0.07432406866873165
        else:
            if input[14166] > 0.023322426475822843:
                if input[8261] > 0.03276750160484931:
                    var8 = 0.0629999253399371
                else:
                    if input[15744] > 0.012868791615582008:
                        var8 = 0.03576836126156899
                    else:
                        if input[11713] > 0.015020858209667262:
                            var8 = 0.013572766101988116
                        else:
                            var8 = -0.06722762717172037
            else:
                if input[3747] > 0.01074610229962754:
                    if input[13392] > 0.009214546272618085:
                        if input[16542] > 0.01836632820231027:
                            var8 = 0.008880554192608378
                        else:
                            var8 = 0.07867248644174861
                    else:
                        if input[17104] > 0.01463623992716353:
                            if input[13606] > 0.007491870593956044:
                                var8 = 0.03960891092427053
                            else:
                                var8 = -0.07543965320307328
                        else:
                            if input[15220] > 0.007751683513980859:
                                var8 = -0.004777467529709292
                            else:
                                var8 = 0.06978361704588225
                else:
                    if input[12766] > 0.007542929686044464:
                        if input[15083] > 0.010202716096063241:
                            if input[16588] > 0.012398453239854045:
                                var8 = 0.06210010106125407
                            else:
                                if input[15432] > 0.0066163573626809085:
                                    if input[13687] > 0.006079932417295409:
                                        if input[9516] > 0.028094209651953552:
                                            var8 = -0.042988545979148696
                                        else:
                                            var8 = 0.059088075102214144
                                    else:
                                        var8 = -0.07367534448439979
                                else:
                                    if input[1244] > 0.01456167055666367:
                                        var8 = 0.02606869109038228
                                    else:
                                        var8 = -0.061800957794932755
                        else:
                            if input[11930] > 0.01700676965683406:
                                var8 = -0.010498420288031439
                            else:
                                if input[15381] > 0.018915244051363734:
                                    var8 = -0.022517060420084944
                                else:
                                    if input[13149] > 0.013370118496509507:
                                        var8 = 0.0006374907148036547
                                    else:
                                        if input[15017] > 0.010158873592473664:
                                            var8 = 0.00900247086842612
                                        else:
                                            var8 = 0.07754261109355798
                    else:
                        if input[10865] > 0.043958319505576764:
                            if input[15662] > 0.01247851173144938:
                                var8 = -0.047111545518180656
                            else:
                                var8 = 0.0636098229686706
                        else:
                            if input[1100] > 0.01026518591929724:
                                if input[17274] > 0.006922226033972234:
                                    var8 = 0.06160551547537501
                                else:
                                    var8 = -0.045277856181849645
                            else:
                                if input[12000] > 0.012232663307205809:
                                    var8 = 0.029080027847703784
                                else:
                                    var8 = -0.06176725804794934
    else:
        if input[12147] > 0.008418982975672534:
            if input[17683] > 0.000000000000000000000000000000000010000000180025095:
                if input[12240] > 0.006650702572064973:
                    var8 = 0.07134908541513467
                else:
                    if input[13599] > 0.00851681421812451:
                        var8 = -0.042942648649288276
                    else:
                        if input[17442] > 0.008822299488180184:
                            var8 = 0.0894218542274083
                        else:
                            var8 = 0.008785338121304005
            else:
                if input[773] > 0.02879433389833363:
                    if input[16395] > 0.017153169351560853:
                        var8 = -0.017373680956719977
                    else:
                        if input[14210] > 0.0064429344794544536:
                            var8 = 0.08417729601517794
                        else:
                            if input[11498] > 0.007253247603641164:
                                var8 = 0.05762983518632117
                            else:
                                var8 = -0.026198976165700112
                else:
                    if input[17685] > 0.000000000000000000000000000000000010000000180025095:
                        if input[16677] > 0.01457234492320943:
                            var8 = 0.07409816145299923
                        else:
                            if input[15546] > 0.007901010586509214:
                                if input[13980] > 0.017915535355700066:
                                    var8 = -0.05010402735846536
                                else:
                                    var8 = 0.05768186479082974
                            else:
                                var8 = -0.05664283267625632
                    else:
                        if input[15976] > 0.021155854748491416:
                            var8 = 0.052210228494686255
                        else:
                            if input[13211] > 0.015501287459875139:
                                var8 = 0.021689227591027004
                            else:
                                var8 = -0.056455289159992574
        else:
            if input[14500] > 0.016922676700465607:
                if input[12881] > 0.01561084978034639:
                    var8 = 0.08287656489552303
                else:
                    if input[17422] > 0.011420525884681008:
                        var8 = 0.03494693090919489
                    else:
                        if input[12186] > 0.015305471008027252:
                            var8 = 0.058424979236222634
                        else:
                            var8 = -0.05592946454453887
            else:
                if input[11578] > 0.011412979717926416:
                    if input[13156] > 0.019495424860623146:
                        var8 = 0.08360761642437164
                    else:
                        if input[13279] > 0.009575045488055265:
                            var8 = 0.045410176849503374
                        else:
                            if input[17318] > 0.022946059184768282:
                                var8 = 0.01436911854101309
                            else:
                                var8 = -0.06705279691153374
                else:
                    if input[13187] > 0.012786895097599471:
                        if input[16298] > 0.0077597796652591425:
                            var8 = 0.0596730414150702
                        else:
                            var8 = -0.0478542842177019
                    else:
                        if input[12296] > 0.02231034009156573:
                            if input[12281] > 0.020180176294164822:
                                var8 = 0.03971871881018211
                            else:
                                var8 = -0.04731365690042125
                        else:
                            if input[13759] > 0.027573734579082052:
                                var8 = 0.0073352807305162365
                            else:
                                if input[5091] > 0.1527290883205434:
                                    var8 = 0.00210472556019385
                                else:
                                    if input[495] > 0.07786436965997831:
                                        var8 = 0.00928006005865639
                                    else:
                                        var8 = -0.06443344190779517
    if input[12883] > 0.000000000000000000000000000000000010000000180025095:
        if input[4315] > 0.006015308428436685:
            if input[9966] > 0.05198177785556219:
                if input[13523] > 0.005544009868584276:
                    var9 = 0.07732954991525182
                else:
                    var9 = -0.030500184126775194
            else:
                var9 = 0.07539816687830346
        else:
            if input[13836] > 0.005474106967183437:
                if input[15088] > 0.007193816498804393:
                    var9 = 0.07450065709500324
                else:
                    if input[14555] > 0.011620876549790556:
                        var9 = 0.0702143504351103
                    else:
                        if input[15644] > 0.008165387465783753:
                            var9 = -0.05323998916933496
                        else:
                            var9 = 0.04736028461900444
            else:
                if input[11564] > 0.016706874937536077:
                    var9 = 0.059736950173033224
                else:
                    if input[11454] > 0.013670826889898178:
                        var9 = 0.021116164818675332
                    else:
                        var9 = -0.0707842859389156
    else:
        if input[17676] > 1.5000000000000002:
            if input[11632] > 0.01725392797058047:
                if input[12148] > 0.011670588045942752:
                    if input[13208] > 0.012381978182993397:
                        if input[13649] > 0.006412890849077774:
                            var9 = 0.04835310466347275
                        else:
                            var9 = -0.055857146046296484
                    else:
                        var9 = 0.0633234301843169
                else:
                    if input[13617] > 0.011195321329120851:
                        if input[16313] > 0.005541341797562188:
                            if input[11922] > 0.012127609283025717:
                                var9 = 0.08281780754605356
                            else:
                                if input[14201] > 0.01793267362143268:
                                    var9 = 0.06968884806906243
                                else:
                                    var9 = -0.038522266442925605
                        else:
                            if input[13387] > 0.016680994411360343:
                                var9 = 0.020621811214604154
                            else:
                                var9 = -0.061981847047476946
                    else:
                        if input[15365] > 0.006480010442729501:
                            if input[13111] > 0.008770561572579166:
                                var9 = 0.05229486017493621
                            else:
                                if input[11605] > 0.019974140376252707:
                                    var9 = 0.060840163946314876
                                else:
                                    var9 = -0.0546156390487887
                        else:
                            if input[10904] > 0.047667736113979786:
                                var9 = -0.0011967350844816558
                            else:
                                var9 = -0.056754541699215046
            else:
                if input[13698] > 0.015849069015467048:
                    if input[17054] > 0.010030672243602084:
                        var9 = 0.053955526819722634
                    else:
                        if input[15601] > 0.009255099051175093:
                            var9 = 0.050597347043249086
                        else:
                            var9 = -0.05624394175008283
                else:
                    if input[14125] > 0.023794760780790496:
                        var9 = -0.03880286074873346
                    else:
                        if input[10865] > 0.03667643564482229:
                            if input[11925] > 0.000000000000000000000000000000000010000000180025095:
                                if input[16198] > 0.012492570804103422:
                                    var9 = 0.01810564727436828
                                else:
                                    var9 = 0.08277795871859638
                            else:
                                var9 = 0.002078010305525717
                        else:
                            if input[16748] > 0.015393975765482914:
                                var9 = -0.02756920829861187
                            else:
                                if input[15211] > 0.00748728507664185:
                                    if input[16042] > 0.015463510147300215:
                                        var9 = 0.008766209400237446
                                    else:
                                        if input[12616] > 0.011977997250820075:
                                            if input[17197] > 0.007440831991405707:
                                                var9 = 0.07359892086508957
                                            else:
                                                var9 = -0.023539689285160495
                                        else:
                                            var9 = 0.07900604479284803
                                else:
                                    if input[4797] > 0.013048282834297991:
                                        if input[14098] > 0.007104031441336885:
                                            var9 = 0.02757977908823822
                                        else:
                                            var9 = -0.055303015140905534
                                    else:
                                        var9 = 0.05616577377462646
        else:
            if input[3747] > 0.01030438384794292:
                if input[15269] > 0.012615606128991555:
                    if input[819] > 0.017595017672209393:
                        var9 = -0.045913547892598994
                    else:
                        if input[14402] > 0.0059231416288831485:
                            var9 = 0.017888279135598407
                        else:
                            var9 = 0.0734586215978297
                else:
                    if input[16532] > 0.011562981795354695:
                        if input[11712] > 0.017209673454689982:
                            var9 = 0.07076813293525862
                        else:
                            var9 = -0.010821218343807788
                    else:
                        if input[17051] > 0.014891620510695104:
                            if input[14205] > 0.010907208629824637:
                                if input[16690] > 0.010991982324049665:
                                    var9 = 0.028935159823707497
                                else:
                                    var9 = -0.056797507351976174
                            else:
                                var9 = 0.05794378966030148
                        else:
                            if input[12945] > 0.015621588065954569:
                                var9 = 0.0138140733535806
                            else:
                                var9 = -0.060689356889706995
            else:
                if input[17668] > 1082.5000000000002:
                    if input[15464] > 0.005882817941398939:
                        if input[4801] > 0.025867635770607415:
                            var9 = 0.029643072224539154
                        else:
                            var9 = -0.06393631938938582
                    else:
                        if input[16957] > 0.013205586221696661:
                            if input[12609] > 0.008436727361797113:
                                var9 = 0.012881027874387316
                            else:
                                var9 = -0.07200907328733631
                        else:
                            if input[14378] > 0.01109478555497921:
                                var9 = -0.03376191101073267
                            else:
                                if input[16834] > 0.007388131047903958:
                                    var9 = -0.03191342686034414
                                else:
                                    if input[13290] > 0.007563039538385085:
                                        var9 = 0.0263611581065132
                                    else:
                                        var9 = 0.08706625300773689
                else:
                    if input[16314] > 0.025504405304282413:
                        var9 = 0.028454316412435194
                    else:
                        if input[12025] > 0.021525510434792988:
                            if input[2819] > 0.019578260848256136:
                                var9 = 0.06713411916171622
                            else:
                                if input[12214] > 0.010717229684971847:
                                    var9 = 0.026638526413209313
                                else:
                                    var9 = -0.05359819648867892
                        else:
                            if input[16778] > 0.024107988150781117:
                                var9 = 0.024916081052619405
                            else:
                                if input[16118] > 0.020601309565839856:
                                    var9 = 0.008761461058832501
                                else:
                                    var9 = -0.061250751013966986
    if input[12883] > 0.000000000000000000000000000000000010000000180025095:
        if input[4315] > 0.006015308428436685:
            if input[16530] > 0.006840975316749413:
                if input[11951] > 0.025033650479926207:
                    var10 = 0.026515974895591855
                else:
                    var10 = 0.07578865855992933
            else:
                if input[14142] > 0.006745467851150991:
                    if input[16717] > 0.011204346224343523:
                        var10 = 0.05886393724734419
                    else:
                        var10 = -0.04334889925732756
                else:
                    var10 = 0.06677450988885983
        else:
            if input[17667] > 90.50000000000001:
                if input[6918] > 0.03129069207875467:
                    var10 = -0.02623390837332868
                else:
                    if input[11715] > 0.006823762420443185:
                        var10 = 0.06993544980398031
                    else:
                        if input[15480] > 0.008816837377687901:
                            var10 = -0.029213375721396064
                        else:
                            var10 = 0.05987361978116354
            else:
                if input[11712] > 0.021286434703685773:
                    var10 = 0.038527566395925764
                else:
                    var10 = -0.05197785737831684
    else:
        if input[17676] > 1.5000000000000002:
            if input[11632] > 0.01725392797058047:
                if input[12148] > 0.007488937817945806:
                    if input[14396] > 0.019679432019700495:
                        var10 = -0.04298966384317923
                    else:
                        if input[17104] > 0.01790717930050517:
                            if input[11858] > 0.012434722716389915:
                                var10 = -0.042101976811723
                            else:
                                var10 = 0.05348523761910287
                        else:
                            if input[11640] > 0.01041128464624433:
                                var10 = 0.07020366151956506
                            else:
                                var10 = 0.015018322378858712
                else:
                    if input[12226] > 0.012157023150433507:
                        if input[14671] > 0.007465143144839812:
                            var10 = 0.06435770984849996
                        else:
                            var10 = -0.0373202904951706
                    else:
                        if input[14395] > 0.006790382826214599:
                            if input[13617] > 0.014646253152344966:
                                var10 = 0.07446026178457822
                            else:
                                if input[8418] > 0.047641080164979165:
                                    var10 = 0.059813505864055476
                                else:
                                    var10 = -0.044565586536537714
                        else:
                            if input[642] > 0.027038662518155895:
                                var10 = 0.05032951142829928
                            else:
                                if input[14691] > 0.01375894097027146:
                                    var10 = 0.006469566308311999
                                else:
