"""Auto-generated Tier 2 scorer for verification.

Generated by m2cgen from LightGBM model.
Pure Python -- zero runtime dependencies.
"""
import math


def score(input):
    if input[41] > 57.50000000000001:
        if input[33] > 6.500000000000001:
            if input[3] > 0.000000000000000000000000000000000010000000180025095:
                if input[33] > 16.500000000000004:
                    if input[3] > 63.50000000000001:
                        if input[38] > 69.00000000000001:
                            var0 = 48.93206479043694
                        else:
                            var0 = 47.40456474275322
                    else:
                        if input[32] > 3.5000000000000004:
                            var0 = 49.38765424141268
                        else:
                            var0 = 48.95689220926273
                else:
                    if input[21] > 0.05949999950826169:
                        if input[33] > 8.500000000000002:
                            var0 = 48.75763193125847
                        else:
                            var0 = 48.41522204097114
                    else:
                        if input[28] > 8463.500000000002:
                            var0 = 47.52619738452606
                        else:
                            var0 = 48.37926625820719
            else:
                if input[0] > 7.500000000000001:
                    var0 = 46.81956472512469
                else:
                    if input[43] > 65.50000000000001:
                        var0 = 48.34188619312292
                    else:
                        var0 = 47.533605836553384
        else:
            if input[33] > 2.5000000000000004:
                if input[3] > 1.5000000000000002:
                    if input[4] > 4.500000000000001:
                        var0 = 48.299167266860195
                    else:
                        var0 = 47.909603062337276
                else:
                    if input[28] > 2379.5000000000005:
                        var0 = 47.04537118298356
                    else:
                        if input[2] > 1886.5000000000002:
                            var0 = 47.6324628280376
                        else:
                            var0 = 48.569564755468875
            else:
                if input[37] > 44.00000000000001:
                    if input[41] > 86.50000000000001:
                        var0 = 48.348410925209606
                    else:
                        if input[24] > 0.000000000000000000000000000000000010000000180025095:
                            var0 = 47.61359882976092
                        else:
                            var0 = 47.268468245627425
                else:
                    var0 = 46.39605728803766
    else:
        if input[32] > 0.000000000000000000000000000000000010000000180025095:
            if input[2] > 3866.0000000000005:
                if input[27] > 0.02550000045448542:
                    if input[43] > 28.500000000000004:
                        if input[32] > 1.5000000000000002:
                            var0 = 47.606726916771876
                        else:
                            var0 = 46.666109468589994
                    else:
                        var0 = 48.04133896029728
                else:
                    if input[43] > 74.50000000000001:
                        var0 = 46.03708443950701
                    else:
                        var0 = 46.592465501598426
            else:
                if input[32] > 1.5000000000000002:
                    var0 = 46.75875393091141
                else:
                    if input[18] > 8.500000000000002:
                        var0 = 46.40488220594684
                    else:
                        var0 = 46.00802209124079
        else:
            if input[3] > 1.5000000000000002:
                if input[18] > 20.500000000000004:
                    var0 = 47.06956474752159
                else:
                    var0 = 45.95893257704172
            else:
                var0 = 45.59215231300861
    if input[41] > 57.50000000000001:
        if input[33] > 6.500000000000001:
            if input[3] > 0.000000000000000000000000000000000010000000180025095:
                if input[33] > 16.500000000000004:
                    if input[3] > 63.50000000000001:
                        if input[38] > 69.00000000000001:
                            var1 = 1.5408967930078508
                        else:
                            var1 = 0.08977178192138673
                    else:
                        if input[21] > 0.058499999344348914:
                            var1 = 1.7362154420542522
                        else:
                            var1 = 1.3452895084748397
                else:
                    if input[21] > 0.05949999950826169:
                        if input[32] > 3.5000000000000004:
                            var1 = 1.7501848886550313
                        else:
                            var1 = 1.236784971508629
                    else:
                        if input[28] > 8463.500000000002:
                            var1 = 0.205322789172737
                        else:
                            var1 = 1.0157381955367417
            else:
                if input[0] > 7.500000000000001:
                    var1 = -0.4659782409667969
                else:
                    if input[37] > 44.00000000000001:
                        var1 = 0.722460428743719
                    else:
                        var1 = -0.31400948112661187
        else:
            if input[33] > 2.5000000000000004:
                if input[3] > 1.5000000000000002:
                    if input[14] > 0.000000000000000000000000000000000010000000180025095:
                        var1 = 1.362539397210491
                    else:
                        if input[21] > 0.07149999961256982:
                            var1 = 0.7813365815216274
                        else:
                            var1 = 0.4371468854396522
                else:
                    if input[2] > 11131.500000000002:
                        var1 = -0.32504086069541405
                    else:
                        if input[18] > 0.000000000000000000000000000000000010000000180025095:
                            if input[28] > 422.50000000000006:
                                var1 = 0.42524646679057354
                            else:
                                var1 = 1.3631884259482225
                        else:
                            var1 = -0.5098864746945245
            else:
                if input[37] > 44.00000000000001:
                    if input[41] > 86.50000000000001:
                        var1 = 0.9864255861594128
                    else:
                        var1 = 0.013518542982637882
                else:
                    var1 = -0.8683103201994256
    else:
        if input[32] > 0.000000000000000000000000000000000010000000180025095:
            if input[18] > 8.500000000000002:
                if input[22] > 1.5000000000000002:
                    if input[21] > 0.003500000108033419:
                        var1 = -0.7537057106180972
                    else:
                        var1 = -1.4052421068533874
                else:
                    if input[27] > 0.07950000092387201:
                        var1 = -0.7734246742725372
                    else:
                        if input[37] > 49.50000000000001:
                            var1 = -0.40228604815508195
                        else:
                            var1 = 0.6418976150060955
            else:
                if input[2] > 5503.500000000001:
                    var1 = -0.6257561317944931
                else:
                    var1 = -1.159938218080957
        else:
            if input[1] > 2.5000000000000004:
                if input[18] > 20.500000000000004:
                    var1 = -0.3013081832365556
                else:
                    var1 = -1.3544562795834665
            else:
                var1 = -1.6584354614884196
    if input[41] > 57.50000000000001:
        if input[33] > 6.500000000000001:
            if input[3] > 0.000000000000000000000000000000000010000000180025095:
                if input[33] > 16.500000000000004:
                    if input[3] > 68.50000000000001:
                        var2 = 0.5514617751493599
                    else:
                        if input[32] > 3.5000000000000004:
                            var2 = 1.8895974214484053
                        else:
                            if input[4] > 4.500000000000001:
                                var2 = 1.595265258606299
                            else:
                                var2 = 1.2584123170630819
                else:
                    if input[21] > 0.05949999950826169:
                        if input[33] > 8.500000000000002:
                            var2 = 1.3103181126964416
                        else:
                            var2 = 0.9873338256398556
                    else:
                        if input[28] > 8463.500000000002:
                            var2 = 0.19505665156306054
                        else:
                            var2 = 0.9649512780468856
            else:
                if input[21] > 0.2625000029802323:
                    if input[30] > 0.000000000000000000000000000000000010000000180025095:
                        var2 = 0.29613611567765474
                    else:
                        var2 = 1.0846124940448338
                else:
                    var2 = -0.24866298729298164
        else:
            if input[33] > 2.5000000000000004:
                if input[3] > 1.5000000000000002:
                    if input[14] > 0.000000000000000000000000000000000010000000180025095:
                        var2 = 1.2944124577604996
                    else:
                        if input[21] > 0.07149999961256982:
                            var2 = 0.7422697565344533
                        else:
                            var2 = 0.41528954548495156
                else:
                    if input[28] > 2379.5000000000005:
                        var2 = -0.23952890384581782
                    else:
                        if input[18] > 0.000000000000000000000000000000000010000000180025095:
                            if input[28] > 422.50000000000006:
                                var2 = 0.4123661233925484
                            else:
                                var2 = 1.2950289932855716
                        else:
                            var2 = -0.46550286383855916
            else:
                if input[37] > 44.00000000000001:
                    if input[41] > 86.50000000000001:
                        var2 = 0.9371043507869428
                    else:
                        if input[24] > 0.000000000000000000000000000000000010000000180025095:
                            var2 = 0.2876782317053188
                        else:
                            var2 = -0.0401958167552948
                else:
                    var2 = -0.8248948218217538
    else:
        if input[32] > 0.000000000000000000000000000000000010000000180025095:
            if input[32] > 1.5000000000000002:
                if input[18] > 19.500000000000004:
                    var2 = 0.3167643750968733
                else:
                    var2 = -0.5005041004698954
            else:
                if input[2] > 3866.0000000000005:
                    if input[36] > 32.50000000000001:
                        if input[43] > 28.500000000000004:
                            var2 = -0.5970840414198871
                        else:
                            var2 = 0.8380775378300594
                    else:
                        var2 = -1.0582731004429873
                else:
                    var2 = -1.1037846491635357
        else:
            if input[1] > 2.5000000000000004:
                if input[18] > 20.500000000000004:
                    var2 = -0.28624278848821466
                else:
                    var2 = -1.2867335196030447
            else:
                var2 = -1.5755136833271484
    if input[41] > 57.50000000000001:
        if input[33] > 6.500000000000001:
            if input[3] > 0.000000000000000000000000000000000010000000180025095:
                if input[33] > 16.500000000000004:
                    if input[3] > 63.50000000000001:
                        if input[38] > 69.00000000000001:
                            var3 = 1.4196965557336807
                        else:
                            var3 = 0.04996687698364258
                    else:
                        if input[21] > 0.058499999344348914:
                            var3 = 1.5697945367003872
                        else:
                            var3 = 1.2061307285283063
                else:
                    if input[21] > 0.05949999950826169:
                        if input[32] > 3.5000000000000004:
                            var3 = 1.598524523956675
                        else:
                            var3 = 1.114253653532155
                    else:
                        if input[28] > 8463.500000000002:
                            var3 = 0.18530381285414405
                        else:
                            var3 = 0.9167037349361092
            else:
                if input[0] > 7.500000000000001:
                    var3 = -0.4351988931496938
                else:
                    if input[43] > 65.50000000000001:
                        var3 = 0.9215011919715576
                    else:
                        var3 = 0.17663843292896064
        else:
            if input[33] > 2.5000000000000004:
                if input[3] > 1.5000000000000002:
                    if input[4] > 4.500000000000001:
                        var3 = 0.8617369145716085
                    else:
                        var3 = 0.50774996143648
                else:
                    if input[2] > 11131.500000000002:
                        var3 = -0.2968123256570042
                    else:
                        if input[18] > 0.000000000000000000000000000000000010000000180025095:
                            if input[28] > 422.50000000000006:
                                var3 = 0.3866665710376788
                            else:
                                var3 = 1.2302775584161283
                        else:
                            var3 = -0.4639416749988284
            else:
                if input[37] > 44.00000000000001:
                    if input[41] > 86.50000000000001:
                        var3 = 0.8902490823887862
                    else:
                        var3 = 0.012200497386648376
                else:
                    var3 = -0.7836500495227416
    else:
        if input[32] > 0.000000000000000000000000000000000010000000180025095:
            if input[32] > 1.5000000000000002:
                if input[18] > 19.500000000000004:
                    var3 = 0.30092616175350395
                else:
                    var3 = -0.47547889896381057
            else:
                if input[18] > 8.500000000000002:
                    if input[43] > 28.500000000000004:
                        if input[29] > 5.500000000000001:
                            var3 = -0.954482588407846
                        else:
                            if input[27] > 0.07649999856948854:
                                var3 = -0.9182498296101889
                            else:
                                if input[37] > 49.50000000000001:
                                    var3 = -0.4972363166511059
                                else:
                                    var3 = 0.6211810364442714
                    else:
                        var3 = 1.0183883266015488
                else:
                    var3 = -1.0455271856558699
        else:
            if input[3] > 1.5000000000000002:
                if input[18] > 20.500000000000004:
                    var3 = -0.19910068511962892
                else:
                    var3 = -1.1515193012939102
            else:
                var3 = -1.473601331649914
    if input[41] > 57.50000000000001:
        if input[33] > 4.500000000000001:
            if input[3] > 0.000000000000000000000000000000000010000000180025095:
                if input[33] > 8.500000000000002:
                    if input[21] > 0.07750000059604646:
                        if input[32] > 3.5000000000000004:
                            var4 = 1.6758482294204908
                        else:
                            var4 = 1.2873803961829204
                    else:
                        if input[1] > 119.50000000000001:
                            if input[0] > 5.500000000000001:
                                var4 = 0.827151418359656
                            else:
                                var4 = -0.11301328700941962
                        else:
                            var4 = 1.063605139377166
                else:
                    if input[21] > 0.12150000035762788:
                        var4 = 0.9385357452303172
                    else:
                        if input[1] > 123.50000000000001:
                            var4 = -0.220320463180542
                        else:
                            var4 = 0.6785231844927311
            else:
                if input[25] > 41.50000000000001:
                    var4 = -0.3914810156822205
                else:
                    if input[25] > 12.500000000000002:
                        var4 = 0.9725486690264482
                    else:
                        if input[31] > 0.0054999999701976785:
                            var4 = -0.16610813621484058
                        else:
                            var4 = 0.5879531607031823
        else:
            if input[33] > 1.5000000000000002:
                if input[40] > 30.000000000000004:
                    if input[21] > 0.06750000268220903:
                        if input[43] > 58.50000000000001:
                            if input[1] > 27.500000000000004:
                                var4 = 1.093939723417458
                            else:
                                var4 = 0.5160416647672462
                        else:
                            if input[1] > 48.50000000000001:
                                var4 = -0.1690651849359274
                            else:
                                var4 = 0.44380932374629367
                    else:
                        var4 = 0.17356982189830128
                else:
                    if input[28] > 374.50000000000006:
                        var4 = -0.11878805330982714
                    else:
                        var4 = 1.0719765975557525
            else:
                if input[37] > 53.50000000000001:
                    var4 = -0.04482446794156675
                else:
                    if input[4] > 2.5000000000000004:
                        var4 = -0.3709972581442665
                    else:
                        var4 = -1.3434015805904682
    else:
        if input[32] > 0.000000000000000000000000000000000010000000180025095:
            if input[32] > 1.5000000000000002:
                if input[18] > 19.500000000000004:
                    var4 = 0.28587985148555356
                else:
                    var4 = -0.45170495149530016
            else:
                if input[2] > 3866.0000000000005:
                    if input[36] > 32.50000000000001:
                        if input[43] > 28.500000000000004:
                            var4 = -0.5259895026434416
                        else:
                            var4 = 0.7770067407534673
                    else:
                        var4 = -0.9605217919305519
                else:
                    var4 = -1.0006054676621898
        else:
            if input[1] > 2.5000000000000004:
                if input[18] > 20.500000000000004:
                    var4 = -0.25618241917003287
                else:
                    var4 = -1.1559016474699362
            else:
                var4 = -1.4230579572469155
    var5 = var0 + var1 + var2 + var3 + var4
    if input[41] > 57.50000000000001:
        if input[33] > 4.500000000000001:
            if input[3] > 0.000000000000000000000000000000000010000000180025095:
                if input[33] > 11.500000000000002:
                    if input[21] > 0.07750000059604646:
                        var6 = 1.3388595362682514
                    else:
                        if input[1] > 119.50000000000001:
                            if input[19] > 0.014999999664723875:
                                var6 = 0.8055840539932252
                            else:
                                var6 = -0.2972989241282145
                        else:
                            var6 = 1.106622847479189
                else:
                    if input[21] > 0.12150000035762788:
                        if input[43] > 55.50000000000001:
                            var6 = 1.210182108180061
                        else:
                            var6 = 0.7998452303442851
                    else:
                        if input[3] > 56.50000000000001:
                            var6 = -0.1549918511639471
                        else:
                            if input[33] > 7.500000000000001:
                                var6 = 0.8786851224867074
                            else:
                                var6 = 0.5591274764364129
            else:
                if input[25] > 41.50000000000001:
                    var6 = -0.3719069736533695
                else:
                    if input[25] > 12.500000000000002:
                        var6 = 0.9239212476060941
                    else:
                        var6 = 0.14165849542153663
        else:
            if input[33] > 1.5000000000000002:
                if input[24] > 2.5000000000000004:
                    var6 = 0.9114662780481226
                else:
                    if input[29] > 0.000000000000000000000000000000000010000000180025095:
                        if input[41] > 77.50000000000001:
                            var6 = 1.0511527708172799
                        else:
                            if input[3] > 1.5000000000000002:
                                if input[21] > 0.05150000005960465:
                                    var6 = 0.4528318688767501
                                else:
                                    var6 = 0.1176701762985975
                            else:
                                if input[21] > 0.125500001013279:
                                    var6 = 0.21677591741085053
                                else:
                                    var6 = -0.2785017404173102
                    else:
                        var6 = -0.40039813782348005
            else:
                if input[37] > 53.50000000000001:
                    var6 = -0.042583253198199805
                else:
                    var6 = -0.7527538665135702
    else:
        if input[32] > 0.000000000000000000000000000000000010000000180025095:
            if input[18] > 8.500000000000002:
                if input[22] > 1.5000000000000002:
                    if input[21] > 0.020499999634921554:
                        var6 = -0.542639507413445
                    else:
                        var6 = -1.0574092057697912
                else:
                    if input[27] > 0.07950000092387201:
                        var6 = -0.6409218406677246
                    else:
                        if input[0] > 1.5000000000000002:
                            if input[38] > 34.00000000000001:
                                var6 = 0.8602297365665437
                            else:
                                var6 = -0.2642317448483139
                        else:
                            var6 = 1.0824145251306996
            else:
                if input[2] > 5503.500000000001:
                    var6 = -0.4903018807960769
                else:
                    var6 = -0.9571129543179131
        else:
            if input[1] > 2.5000000000000004:
                var6 = -1.0114515817659793
            else:
                var6 = -1.351905079285094
    if input[41] > 57.50000000000001:
        if input[33] > 6.500000000000001:
            if input[3] > 0.000000000000000000000000000000000010000000180025095:
                if input[32] > 3.5000000000000004:
                    var7 = 1.4877394253074534
                else:
                    if input[21] > 0.07750000059604646:
                        if input[33] > 14.500000000000002:
                            var7 = 1.2641946558858834
                        else:
                            var7 = 0.9547635688626719
                    else:
                        if input[3] > 68.50000000000001:
                            var7 = -0.03364514725075828
                        else:
                            if input[33] > 11.500000000000002:
                                var7 = 0.9764696021974087
                            else:
                                var7 = 0.6679771160311772
            else:
                if input[21] > 0.2625000029802323:
                    var7 = 0.5832598368727392
                else:
                    var7 = -0.22845533525242523
        else:
            if input[33] > 2.5000000000000004:
                if input[3] > 1.5000000000000002:
                    if input[17] > 0.000000000000000000000000000000000010000000180025095:
                        var7 = 0.679390345256967
                    else:
                        var7 = 0.36524097941688854
                else:
                    if input[2] > 11131.500000000002:
                        var7 = -0.2842766616604116
                    else:
                        if input[18] > 0.000000000000000000000000000000000010000000180025095:
                            var7 = 0.4426747113711887
                        else:
                            var7 = -0.4227966569364071
            else:
                if input[37] > 44.00000000000001:
                    if input[41] > 86.50000000000001:
                        var7 = 0.8289607343765406
                    else:
                        if input[30] > 1.5000000000000002:
                            var7 = -0.3028163363610892
                        else:
                            if input[28] > 750.0000000000001:
                                if input[21] > 0.05650000087916852:
                                    var7 = 0.3082984549620739
                                else:
                                    if input[19] > 0.0449999999254942:
                                        var7 = 0.22594685618877414
                                    else:
                                        var7 = -0.2733010988839915
                            else:
                                if input[22] > 2.5000000000000004:
                                    var7 = -0.4256588050779307
                                else:
                                    var7 = -0.005590663345492616
                else:
                    var7 = -0.683032307873911
    else:
        if input[32] > 0.000000000000000000000000000000000010000000180025095:
            if input[32] > 1.5000000000000002:
                if input[22] > 0.000000000000000000000000000000000010000000180025095:
                    if input[37] > 54.50000000000001:
                        var7 = -0.3991484703642599
                    else:
                        var7 = 0.9511562418192625
                else:
                    var7 = -0.605798081355759
            else:
                if input[2] > 3866.0000000000005:
                    if input[36] > 32.50000000000001:
                        if input[43] > 28.500000000000004:
                            var7 = -0.4722399218810653
                        else:
                            var7 = 0.7360152606780712
                    else:
                        var7 = -0.8759419756433952
                else:
                    var7 = -0.908313672610049
        else:
            if input[18] > 28.500000000000004:
                var7 = -0.32005440877831504
            else:
                if input[18] > 1.5000000000000002:
                    var7 = -1.1225012206589775
                else:
                    var7 = -1.341088371752687
    if input[41] > 57.50000000000001:
        if input[33] > 8.500000000000002:
            if input[3] > 0.000000000000000000000000000000000010000000180025095:
                if input[21] > 0.07750000059604646:
                    if input[32] > 3.5000000000000004:
                        var8 = 1.4532062601584654
                    else:
                        var8 = 1.1048807680444432
                else:
                    if input[1] > 119.50000000000001:
                        if input[38] > 69.00000000000001:
                            var8 = 0.9602028406184653
                        else:
                            var8 = 0.013631230592727661
                    else:
                        var8 = 0.912025621655036
            else:
                if input[30] > 0.000000000000000000000000000000000010000000180025095:
                    var8 = -0.0312646930034344
                else:
                    var8 = 0.8722091720040356
        else:
            if input[33] > 2.5000000000000004:
                if input[3] > 0.000000000000000000000000000000000010000000180025095:
                    if input[3] > 48.50000000000001:
                        var8 = -0.453165656587352
                    else:
                        if input[11] > 0.000000000000000000000000000000000010000000180025095:
                            if input[27] > 0.14150000363588336:
                                var8 = -0.12676823139190674
                            else:
                                if input[19] > 0.12499999627470972:
                                    var8 = 0.45051489892245844
                                else:
                                    var8 = 0.779214596342575
                        else:
                            if input[27] > 0.02550000045448542:
                                var8 = 0.4597328864129203
                            else:
                                var8 = -0.1471594617391626
                else:
                    if input[43] > 65.50000000000001:
                        if input[2] > 1677.0000000000002:
                            var8 = 0.3035362650105294
                        else:
                            var8 = 1.2402416837215424
                    else:
                        var8 = -0.203536654342162
            else:
                if input[37] > 44.00000000000001:
                    if input[41] > 86.50000000000001:
                        var8 = 0.7875127056470285
                    else:
                        if input[24] > 0.000000000000000000000000000000000010000000180025095:
                            var8 = 0.26029906007037923
                        else:
                            var8 = -0.04339246553483239
                else:
                    var8 = -0.648880712843653
    else:
        if input[32] > 0.000000000000000000000000000000000010000000180025095:
            if input[18] > 19.500000000000004:
                if input[25] > 5.500000000000001:
                    if input[21] > 0.01750000007450581:
                        var8 = -0.15593577467424924
                    else:
                        var8 = -0.8121398106453912
                else:
                    var8 = 0.44812121561595375
            else:
                if input[32] > 1.5000000000000002:
                    var8 = -0.3764151883713993
                else:
                    if input[27] > 0.024500000290572647:
                        if input[2] > 1631.0000000000002:
                            if input[18] > 0.000000000000000000000000000000000010000000180025095:
                                if input[36] > 37.50000000000001:
                                    var8 = -0.5243167868345091
                                else:
                                    var8 = 0.6133441793567994
                            else:
                                var8 = -0.8771172302961351
                        else:
                            var8 = -0.9296124108584531
                    else:
                        var8 = -0.8763570891378762
        else:
            if input[3] > 1.5000000000000002:
                var8 = -0.7738870279811253
            else:
                var8 = -1.2021841339604857
    if input[41] > 57.50000000000001:
        if input[33] > 4.500000000000001:
            if input[3] > 0.000000000000000000000000000000000010000000180025095:
                if input[33] > 16.500000000000004:
                    if input[3] > 68.50000000000001:
                        var9 = 0.3714873008655779
                    else:
                        var9 = 1.1635928127531694
                else:
                    if input[4] > 3.5000000000000004:
                        if input[29] > 12.500000000000002:
                            var9 = 0.6907973699271679
                        else:
                            var9 = 0.931042043948056
                    else:
                        if input[27] > 0.04450000077486039:
                            var9 = 0.6416479893433031
                        else:
                            if input[11] > 0.000000000000000000000000000000000010000000180025095:
                                var9 = 0.9858464753627777
                            else:
                                var9 = -0.1750514389045777
            else:
                if input[25] > 39.50000000000001:
                    var9 = -0.338411353463712
                else:
                    if input[25] > 12.500000000000002:
                        var9 = 0.8791286147776104
                    else:
                        if input[31] > 0.0054999999701976785:
                            var9 = -0.17069204069778954
                        else:
                            var9 = 0.5099155885331771
        else:
            if input[33] > 1.5000000000000002:
                if input[24] > 2.5000000000000004:
                    var9 = 0.8224601125892472
                else:
                    if input[41] > 77.50000000000001:
                        if input[27] > 0.04849999956786633:
                            var9 = 1.3534802826968106
                        else:
                            var9 = 0.3170498437855555
                    else:
                        if input[3] > 0.000000000000000000000000000000000010000000180025095:
                            if input[21] > 0.05450000055134297:
                                if input[43] > 61.50000000000001:
                                    var9 = 0.6198057065032563
                                else:
                                    if input[1] > 48.50000000000001:
                                        var9 = -0.31920839190483097
                                    else:
                                        var9 = 0.33177043346194884
                            else:
                                var9 = 0.05081719764243769
                        else:
                            var9 = -0.08471475126116344
            else:
                if input[37] > 38.00000000000001:
                    var9 = -0.06063768631135914
                else:
                    var9 = -1.0201151204109191
    else:
        if input[32] > 0.000000000000000000000000000000000010000000180025095:
            if input[43] > 74.50000000000001:
                var9 = -0.8624165354898343
            else:
                if input[18] > 5.500000000000001:
                    if input[29] > 2.5000000000000004:
                        if input[2] > 8857.500000000002:
                            var9 = -0.08788644133262265
                        else:
                            var9 = -0.6319741068151891
                    else:
                        if input[27] > 0.0834999978542328:
                            var9 = -0.35129561831311484
                        else:
                            var9 = 0.4543009427376092
                else:
                    if input[28] > 3051.5000000000005:
                        var9 = 0.03786811047586902
                    else:
                        var9 = -0.7937309684120022
        else:
            if input[18] > 33.50000000000001:
                var9 = -0.1956118178367615
            else:
                if input[2] > 369.50000000000006:
                    var9 = -1.051524255652971
                else:
                    var9 = -1.2746395869443647
    if input[41] > 57.50000000000001:
        if input[33] > 8.500000000000002:
            if input[3] > 0.000000000000000000000000000000000010000000180025095:
                if input[21] > 0.058499999344348914:
                    if input[32] > 3.5000000000000004:
                        var10 = 1.344361018948257
                    else:
                        if input[38] > 44.50000000000001:
                            var10 = 1.0297793775105664
                        else:
                            var10 = 0.6918584077350366
                else:
                    if input[3] > 37.50000000000001:
                        if input[0] > 5.500000000000001:
                            var10 = 0.6568188850160527
                        else:
                            var10 = -0.06946396259766706
                    else:
                        var10 = 0.8225050267177759
            else:
                if input[30] > 0.000000000000000000000000000000000010000000180025095:
                    var10 = -0.027083867411692067
                else:
                    var10 = 0.8028780284382049
        else:
            if input[33] > 3.5000000000000004:
                if input[3] > 0.000000000000000000000000000000000010000000180025095:
                    if input[4] > 4.500000000000001:
                        var10 = 0.7468520056963759
                    else:
                        if input[21] > 0.21149999648332599:
                            var10 = 0.7650859774363162
                        else:
                            var10 = 0.38874800766518514
                else:
                    if input[21] > 0.23550000041723254:
                        var10 = 0.3998057932137175
                    else:
                        var10 = -0.2823132239446967
            else:
                if input[37] > 50.50000000000001:
                    if input[12] > 0.000000000000000000000000000000000010000000180025095:
                        var10 = 1.1112836221853892
                    else:
                        if input[24] > 2.5000000000000004:
                            var10 = 0.5768450667150319
                        else:
                            if input[33] > 1.5000000000000002:
                                if input[16] > 0.000000000000000000000000000000000010000000180025095:
                                    if input[21] > 0.01650000084191561:
                                        var10 = 0.318392103223361
                                    else:
                                        var10 = -0.27647090745422076
                                else:
                                    var10 = -0.011830254929030642
                            else:
                                var10 = -0.08396041818345205
                else:
                    if input[36] > 50.50000000000001:
                        var10 = 0.04088031352630683
                    else:
                        var10 = -0.6787712495435368
    else:
        if input[32] > 0.000000000000000000000000000000000010000000180025095:
            if input[32] > 1.5000000000000002:
                if input[22] > 0.000000000000000000000000000000000010000000180025095:
                    if input[37] > 54.50000000000001:
                        var10 = -0.3352104045032116
                    else:
                        var10 = 0.9166913491673768
                else:
                    var10 = -0.523366543311107
            else:
                if input[27] > 0.03450000099837781:
                    if input[43] > 28.500000000000004:
                        var10 = -0.5311064531781183
                    else:
                        var10 = 0.8174327878952026
                else:
                    if input[21] > 0.003500000108033419:
                        var10 = -0.6591454218533439
                    else:
                        var10 = -0.930806087348305
        else:
            if input[36] > 45.50000000000001:
                if input[18] > 20.500000000000004:
                    var10 = -0.11117874817414718
                else:
                    var10 = -0.8904016947416666
            else:
                var10 = -1.109063547469474
    if input[41] > 57.50000000000001:
        if input[33] > 8.500000000000002:
            if input[3] > 0.000000000000000000000000000000000010000000180025095:
                if input[21] > 0.058499999344348914:
                    if input[32] > 3.5000000000000004:
                        var11 = 1.277142934293248
                    else:
                        if input[38] > 44.50000000000001:
                            var11 = 0.9782904040396941
                        else:
                            var11 = 0.6572654914731781
                else:
                    if input[1] > 114.50000000000001:
                        var11 = 0.0755864070694555
                    else:
                        var11 = 0.7415812966360975
            else:
                if input[30] > 0.000000000000000000000000000000000010000000180025095:
                    var11 = -0.025729677130232803
                else:
                    var11 = 0.7627341222195398
        else:
            if input[33] > 2.5000000000000004:
                if input[3] > 1.5000000000000002:
                    if input[3] > 48.50000000000001:
                        var11 = -0.47521123471467397
                    else:
                        if input[31] > 0.1224999986588955:
                            var11 = -0.22939404208084635
                        else:
                            if input[4] > 2.5000000000000004:
                                if input[27] > 0.1094999983906746:
                                    var11 = 0.18690369574630517
                                else:
                                    if input[19] > 0.23499999940395358:
                                        var11 = 0.2203035340540939
                                    else:
                                        var11 = 0.6465504719723727
                            else:
                                var11 = 0.18226126704651577
                else:
                    if input[2] > 10449.000000000002:
                        var11 = -0.25865992909750424
                    else:
                        if input[18] > 0.000000000000000000000000000000000010000000180025095:
                            var11 = 0.4032241599943216
                        else:
                            var11 = -0.4010598397749897
            else:
                if input[37] > 44.00000000000001:
                    if input[30] > 1.5000000000000002:
                        var11 = -0.28023643966983347
                    else:
                        if input[0] > 5.500000000000001:
                            var11 = 0.7397098960876466
                        else:
                            if input[41] > 77.50000000000001:
                                var11 = 0.650921512000701
                            else:
                                if input[28] > 750.0000000000001:
                                    var11 = 0.10976113467964016
                                else:
                                    var11 = -0.12961175925489785
                else:
                    var11 = -0.5711471755113176
    else:
        if input[32] > 0.000000000000000000000000000000000010000000180025095:
            if input[32] > 1.5000000000000002:
                var11 = -0.19876641400903464
            else:
                if input[18] > 8.500000000000002:
                    if input[43] > 28.500000000000004:
                        if input[29] > 5.500000000000001:
                            var11 = -0.6904078712018071
                        else:
                            if input[27] > 0.07649999856948854:
                                var11 = -0.711355079266063
                            else:
                                if input[37] > 49.50000000000001:
                                    var11 = -0.30307225307333285
                                else:
                                    var11 = 0.6777808957240161
                    else:
                        var11 = 0.8535913174802607
                else:
                    var11 = -0.7469900712978325
        else:
            if input[18] > 1.5000000000000002:
                var11 = -0.87599960123232
            else:
                var11 = -1.101289173851013
    if input[41] > 57.50000000000001:
        if input[33] > 4.500000000000001:
            if input[3] > 0.000000000000000000000000000000000010000000180025095:
                if input[33] > 16.500000000000004:
                    if input[3] > 68.50000000000001:
                        var12 = 0.28537008364995325
                    else:
                        var12 = 1.0101149743527313
                else:
                    if input[3] > 56.50000000000001:
                        var12 = -0.10981298648827785
                    else:
                        if input[4] > 3.5000000000000004:
                            if input[31] > 0.08150000125169755:
                                var12 = 0.023002400994300842
                            else:
                                var12 = 0.739774538838927
                        else:
                            if input[27] > 0.04450000077486039:
                                var12 = 0.5715259828865528
                            else:
                                var12 = 0.10496615201998981
            else:
                if input[25] > 39.50000000000001:
                    var12 = -0.31483460859112117
                else:
                    if input[25] > 12.500000000000002:
                        var12 = 0.809833912622361
                    else:
                        if input[2] > 6156.500000000001:
                            var12 = -0.15330181012028143
                        else:
                            var12 = 0.48668554477069687
        else:
            if input[33] > 1.5000000000000002:
                if input[24] > 2.5000000000000004:
                    var12 = 0.7346227827317575
                else:
                    if input[41] > 77.50000000000001:
                        var12 = 0.7474396391047372
                    else:
                        if input[3] > 1.5000000000000002:
                            if input[21] > 0.05150000005960465:
                                var12 = 0.3482121082242784
                            else:
                                if input[2] > 22406.000000000004:
                                    var12 = -0.5975970725600537
                                else:
                                    var12 = 0.13145070567440528
                        else:
                            if input[21] > 0.125500001013279:
                                if input[1] > 21.500000000000004:
                                    var12 = -0.15912614911394096
                                else:
                                    var12 = 0.2996255864091471
                            else:
                                var12 = -0.3310362593725671
            else:
                if input[37] > 38.00000000000001:
                    var12 = -0.05493578054955309
                else:
                    var12 = -0.910931374654174
    else:
        if input[32] > 0.000000000000000000000000000000000010000000180025095:
            if input[43] > 74.50000000000001:
                var12 = -0.7511469724621529
            else:
                if input[18] > 5.500000000000001:
                    if input[29] > 2.5000000000000004:
                        if input[2] > 8857.500000000002:
                            var12 = -0.04307673305851742
                        else:
                            var12 = -0.5448624985548557
                    else:
                        if input[27] > 0.0834999978542328:
                            var12 = -0.2903405644544741
                        else:
                            var12 = 0.4320408418832813
                else:
                    if input[28] > 3051.5000000000005:
                        var12 = 0.07623536196248286
                    else:
                        var12 = -0.6889521307693722
        else:
            if input[36] > 46.50000000000001:
                if input[18] > 20.500000000000004:
                    var12 = 0.03560060858726501
                else:
                    var12 = -0.793707376596879
            else:
                var12 = -0.9995689818124731
    if input[41] > 57.50000000000001:
        if input[33] > 8.500000000000002:
            if input[3] > 0.000000000000000000000000000000000010000000180025095:
                if input[21] > 0.07750000059604646:
                    if input[43] > 55.50000000000001:
                        var13 = 0.988847054928998
                    else:
                        var13 = 0.7317039331343338
                else:
                    if input[3] > 32.50000000000001:
                        if input[27] > 0.03549999929964543:
                            if input[33] > 34.50000000000001:
                                var13 = 1.0170381849462335
                            else:
                                var13 = 0.37967672293860444
                        else:
                            var13 = -0.5609969811006026
                    else:
                        var13 = 0.7653610588452681
            else:
                if input[30] > 0.000000000000000000000000000000000010000000180025095:
                    var13 = -0.02415654528272021
                else:
                    var13 = 0.7095603749865578
        else:
            if input[33] > 3.5000000000000004:
                if input[3] > 0.000000000000000000000000000000000010000000180025095:
                    if input[4] > 4.500000000000001:
                        var13 = 0.6540307263257384
                    else:
                        if input[1] > 149.50000000000003:
                            var13 = -0.32622807264328
                        else:
                            var13 = 0.4103026174483099
                else:
                    if input[21] > 0.25650000572204595:
                        var13 = 0.37547604264798523
                    else:
                        var13 = -0.2382589092136671
            else:
                if input[12] > 0.000000000000000000000000000000000010000000180025095:
                    var13 = 0.9984253025054932
                else:
                    if input[18] > 0.000000000000000000000000000000000010000000180025095:
                        if input[24] > 1.5000000000000002:
                            var13 = 0.4111158287856392
                        else:
                            if input[14] > 0.000000000000000000000000000000000010000000180025095:
                                var13 = 0.5600274105404699
                            else:
                                if input[36] > 43.50000000000001:
                                    if input[25] > 3.5000000000000004:
                                        var13 = -0.012128458747233953
                                    else:
                                        var13 = 0.31573995235158464
                                else:
                                    if input[15] > 0.000000000000000000000000000000000010000000180025095:
                                        var13 = 0.08090091081810934
                                    else:
                                        var13 = -0.8151491880099825
                    else:
                        var13 = -0.512031100694964
    else:
        if input[32] > 0.000000000000000000000000000000000010000000180025095:
            if input[32] > 1.5000000000000002:
                if input[22] > 0.000000000000000000000000000000000010000000180025095:
                    if input[37] > 54.50000000000001:
                        var13 = -0.2864634209553178
                    else:
                        var13 = 0.8805951572954656
                else:
                    var13 = -0.45860731492314155
            else:
                if input[2] > 3866.0000000000005:
                    if input[36] > 32.50000000000001:
                        if input[43] > 28.500000000000004:
                            var13 = -0.32415143112694866
                        else:
                            var13 = 0.6464094849733206
                    else:
                        var13 = -0.663971047544921
                else:
                    var13 = -0.6845266865968935
        else:
            if input[27] > 0.01049999985843897:
                if input[18] > 20.500000000000004:
                    var13 = -0.11649569720029831
                else:
                    var13 = -0.8318119267814593
            else:
                var13 = -1.0172882948307633
    if input[41] > 57.50000000000001:
        if input[33] > 7.500000000000001:
            if input[3] > 0.000000000000000000000000000000000010000000180025095:
                if input[32] > 3.5000000000000004:
                    var14 = 1.105729458598316
                else:
                    if input[4] > 3.5000000000000004:
                        if input[33] > 19.500000000000004:
                            var14 = 0.909210050912177
                        else:
                            var14 = 0.678404897042562
                    else:
                        if input[2] > 31102.500000000004:
                            var14 = -0.3826349458948244
                        else:
                            var14 = 0.5460897240189383
            else:
                if input[25] > 39.50000000000001:
                    var14 = -0.26754421850420396
                else:
                    if input[25] > 10.500000000000002:
                        var14 = 0.7911591420355051
                    else:
                        var14 = 0.036870906579083415
        else:
            if input[33] > 2.5000000000000004:
                if input[12] > 0.000000000000000000000000000000000010000000180025095:
                    var14 = 1.5097927665710449
                else:
                    if input[3] > 1.5000000000000002:
                        if input[14] > 0.000000000000000000000000000000000010000000180025095:
                            var14 = 0.8830025935995169
                        else:
                            if input[21] > 0.07149999961256982:
                                if input[43] > 60.50000000000001:
                                    if input[22] > 3.5000000000000004:
                                        var14 = 1.0320500518068856
                                    else:
                                        var14 = 0.4618928986552515
                                else:
                                    if input[27] > 0.10649999976158143:
                                        var14 = -0.27644748580761447
                                    else:
                                        var14 = 0.40245779993043085
                            else:
                                var14 = 0.19574424273475877
                    else:
                        if input[2] > 9639.500000000002:
                            var14 = -0.2559063387243715
                        else:
                            var14 = 0.21982239765213363
            else:
                if input[36] > 46.50000000000001:
                    if input[30] > 1.5000000000000002:
                        var14 = -0.3057774727648877
                    else:
                        if input[27] > 0.023500000126659874:
                            if input[21] > 0.06049999967217446:
                                if input[2] > 6005.500000000001:
                                    var14 = 0.3537750154267997
                                else:
                                    var14 = -0.019799260812803265
                            else:
                                var14 = -0.24635304090094895
                        else:
                            var14 = 0.40719766152227765
                else:
                    if input[43] > 46.50000000000001:
                        var14 = -0.3851960540569704
                    else:
                        var14 = 0.23550637994987378
    else:
        if input[32] > 0.000000000000000000000000000000000010000000180025095:
            if input[27] > 0.029499999247491363:
                if input[2] > 6985.500000000001:
                    if input[36] > 40.50000000000001:
                        var14 = -0.30053707041245487
                    else:
                        var14 = 0.5647932589054108
                else:
                    if input[18] > 0.000000000000000000000000000000000010000000180025095:
                        if input[36] > 36.50000000000001:
                            var14 = -0.47062782350666366
                        else:
                            var14 = 0.23828418689469497
                    else:
                        var14 = -0.856732300059362
            else:
                var14 = -0.5664937122080395
        else:
            var14 = -0.854774523395853
    if input[41] > 32.50000000000001:
        if input[33] > 3.5000000000000004:
            if input[3] > 0.000000000000000000000000000000000010000000180025095:
                if input[4] > 4.500000000000001:
                    if input[33] > 16.500000000000004:
                        var15 = 0.9464785008894259
                    else:
                        var15 = 0.6578443605345163
                else:
                    if input[3] > 61.50000000000001:
                        if input[27] > 0.061499999836087234:
                            var15 = 0.2392396230073202
                        else:
                            var15 = -0.7860760047383931
                    else:
                        if input[33] > 7.500000000000001:
                            var15 = 0.6167038108311093
                        else:
                            if input[27] > 0.10549999773502351:
                                var15 = -0.0029066060718737153
                            else:
                                if input[1] > 93.50000000000001:
                                    var15 = 1.1010226541095312
                                else:
                                    if input[1] > 39.50000000000001:
                                        var15 = 0.13643976239172714
                                    else:
                                        if input[27] > 0.023500000126659874:
                                            var15 = 0.6014520322164281
                                        else:
                                            var15 = -0.1415231248310634
            else:
                if input[43] > 65.50000000000001:
                    var15 = 0.4416704854216632
                else:
                    if input[27] > 0.0834999978542328:
                        var15 = 0.47541500236839057
                    else:
                        var15 = -0.23596519585801753
        else:
            if input[18] > 0.000000000000000000000000000000000010000000180025095:
                if input[24] > 2.5000000000000004:
                    var15 = 0.48644217078605395
                else:
                    if input[37] > 44.00000000000001:
                        if input[12] > 0.000000000000000000000000000000000010000000180025095:
                            var15 = 0.8846215237270703
                        else:
                            if input[33] > 1.5000000000000002:
                                if input[16] > 0.000000000000000000000000000000000010000000180025095:
                                    if input[21] > 0.01650000084191561:
                                        var15 = 0.2820916811375733
                                    else:
                                        var15 = -0.26782032611235135
                                else:
                                    if input[2] > 2083.5000000000005:
                                        if input[11] > 0.000000000000000000000000000000000010000000180025095:
                                            var15 = 0.05740880696150252
                                        else:
                                            var15 = -0.4076413522079362
                                    else:
                                        var15 = 0.7358587563037873
                            else:
                                var15 = -0.10990901846196477
                    else:
                        var15 = 0.7162615553359502
            else:
                var15 = -0.42202191714932963
    else:
        if input[2] > 734.0000000000001:
            if input[28] > 965.5000000000001:
                if input[27] > 0.007500000298023225:
                    if input[19] > 0.15500000119209292:
                        var15 = -0.5678103193285919
                    else:
                        if input[43] > 28.500000000000004:
                            if input[16] > 0.000000000000000000000000000000000010000000180025095:
                                var15 = 0.06964278328418731
                            else:
                                var15 = -0.444579179779523
                        else:
                            if input[18] > 10.500000000000002:
                                var15 = 1.0069704097509384
                            else:
                                var15 = -0.0993185809502999
                else:
                    var15 = -0.6629362612897367
            else:
                var15 = -0.6628085973090609
        else:
            var15 = -0.9085192169818946
    if input[41] > 32.50000000000001:
        if input[33] > 3.5000000000000004:
            if input[3] > 0.000000000000000000000000000000000010000000180025095:
                if input[4] > 4.500000000000001:
                    if input[33] > 18.500000000000004:
                        var16 = 0.9214767907873581
                    else:
                        if input[41] > 77.50000000000001:
                            var16 = 1.0158033164161624
                        else:
                            var16 = 0.601444348817159
                else:
                    if input[3] > 61.50000000000001:
                        if input[27] > 0.061499999836087234:
                            var16 = 0.22727764557514873
                        else:
                            var16 = -0.7467722086802774
                    else:
                        if input[33] > 7.500000000000001:
                            var16 = 0.5858686200626549
                        else:
                            if input[21] > 0.21149999648332599:
                                var16 = 0.6304372463706467
                            else:
                                var16 = 0.2616802094350184
            else:
                if input[21] > 0.2625000029802323:
                    var16 = 0.37243367602656546
                else:
                    if input[16] > 0.000000000000000000000000000000000010000000180025095:
                        var16 = 0.4025384303596285
                    else:
                        var16 = -0.25038827535528574
        else:
            if input[18] > 0.000000000000000000000000000000000010000000180025095:
                if input[24] > 2.5000000000000004:
                    var16 = 0.46212006691801416
                else:
                    if input[37] > 44.00000000000001:
                        if input[41] > 77.50000000000001:
                            if input[1] > 8.500000000000002:
                                var16 = 0.9606120874141825
                            else:
                                var16 = 0.017021134625310484
                        else:
                            if input[33] > 1.5000000000000002:
                                if input[16] > 0.000000000000000000000000000000000010000000180025095:
                                    if input[21] > 0.01650000084191561:
                                        var16 = 0.2555489839735226
                                    else:
                                        var16 = -0.2544293149462286
                                else:
                                    if input[1] > 50.50000000000001:
                                        var16 = -0.5932818403610817
                                    else:
                                        if input[11] > 0.000000000000000000000000000000000010000000180025095:
                                            var16 = 0.18905155477779254
                                        else:
                                            var16 = -0.27714058511117673
                            else:
                                if input[21] > 0.21149999648332599:
                                    var16 = 0.09545650918510079
                                else:
                                    var16 = -0.17264683210264858
                    else:
                        var16 = 0.6804484742565546
            else:
                var16 = -0.40092082373845356
    else:
        if input[32] > 0.000000000000000000000000000000000010000000180025095:
            if input[18] > 8.500000000000002:
                if input[29] > 5.500000000000001:
                    if input[21] > 0.014500000048428776:
                        var16 = -0.410010128234114
                    else:
                        var16 = -0.8286708735816536
                else:
                    if input[27] > 0.07850000262260438:
                        var16 = -0.475543585810505
                    else:
                        if input[37] > 49.50000000000001:
                            var16 = -0.20167089430615306
                        else:
                            var16 = 0.6652723268820689
            else:
                var16 = -0.5871208738210222
        else:
            if input[18] > 1.5000000000000002:
                var16 = -0.667187570707254
            else:
                var16 = -0.8661894329023362
    if input[41] > 32.50000000000001:
        if input[33] > 3.5000000000000004:
            if input[3] > 0.000000000000000000000000000000000010000000180025095:
                if input[33] > 11.500000000000002:
                    if input[38] > 44.50000000000001:
                        if input[21] > 0.058499999344348914:
                            var17 = 0.8185297475072336
                        else:
                            if input[3] > 37.50000000000001:
                                var17 = 0.24089114017395388
                            else:
                                var17 = 0.7128906871889021
                    else:
                        if input[3] > 38.50000000000001:
                            var17 = -0.46734251109036534
                        else:
                            var17 = 0.5627615390000521
                else:
                    if input[21] > 0.12150000035762788:
                        if input[43] > 62.50000000000001:
                            var17 = 0.786215751386922
                        else:
                            var17 = 0.439956637782779
                    else:
                        if input[14] > 0.000000000000000000000000000000000010000000180025095:
                            var17 = 0.796181260850632
                        else:
                            var17 = 0.2955694736826713
            else:
                if input[43] > 65.50000000000001:
                    var17 = 0.40554938077831304
                else:
                    if input[27] > 0.0834999978542328:
                        var17 = 0.43594205104745926
                    else:
                        var17 = -0.219045680061559
        else:
            if input[18] > 0.000000000000000000000000000000000010000000180025095:
                if input[14] > 0.000000000000000000000000000000000010000000180025095:
                    var17 = 0.5604895034006664
                else:
                    if input[12] > 0.000000000000000000000000000000000010000000180025095:
                        var17 = 0.8924000708953195
                    else:
                        if input[37] > 44.00000000000001:
                            if input[36] > 46.50000000000001:
                                if input[27] > 0.023500000126659874:
                                    if input[37] > 69.50000000000001:
                                        if input[21] > 0.01350000035017729:
                                            var17 = -0.007452290269220072
                                        else:
                                            var17 = -0.6411978069586414
                                    else:
                                        var17 = 0.3291273212002725
                                else:
                                    var17 = 0.2815993172072229
                            else:
                                if input[43] > 46.50000000000001:
                                    var17 = -0.30204203858191203
                                else:
                                    var17 = 0.15197622128269253
                        else:
                            var17 = 0.5636596703376526
            else:
                var17 = -0.3808747809475205
    else:
        if input[2] > 734.0000000000001:
            if input[18] > 19.500000000000004:
                if input[37] > 38.00000000000001:
                    if input[21] > 0.004500000039115549:
                        var17 = -0.11259409189907783
                    else:
                        var17 = -0.7505395817068907
                else:
                    var17 = 0.39062226947683554
            else:
                if input[32] > 0.000000000000000000000000000000000010000000180025095:
                    if input[22] > 1.5000000000000002:
                        var17 = -0.5957232357316117
                    else:
                        if input[22] > 0.000000000000000000000000000000000010000000180025095:
                            var17 = 0.027740241471049074
                        else:
                            if input[16] > 0.000000000000000000000000000000000010000000180025095:
                                var17 = -0.10605909759933885
                            else:
                                var17 = -0.6735291390286552
                else:
                    var17 = -0.6763227893085015
        else:
            var17 = -0.823509355781594
    if input[33] > 1.5000000000000002:
        if input[33] > 8.500000000000002:
            if input[3] > 0.000000000000000000000000000000000010000000180025095:
                if input[21] > 0.058499999344348914:
                    if input[32] > 3.5000000000000004:
                        var18 = 0.946241339549509
                    else:
                        var18 = 0.6522939590501525
                else:
                    if input[3] > 32.50000000000001:
                        if input[0] > 5.500000000000001:
                            var18 = 0.45125570299369955
                        else:
                            var18 = -0.12879952843468345
                    else:
                        var18 = 0.5783511286973954
            else:
                if input[30] > 0.000000000000000000000000000000000010000000180025095:
                    var18 = -0.03003847286268905
                else:
                    var18 = 0.6167663174016136
        else:
            if input[40] > 30.000000000000004:
                if input[36] > 41.50000000000001:
                    if input[4] > 4.500000000000001:
                        var18 = 0.44998783355193406
                    else:
                        if input[21] > 0.21450000256299975:
                            if input[43] > 61.50000000000001:
                                var18 = 0.9002722202179334
                            else:
                                if input[1] > 24.500000000000004:
                                    var18 = -0.017674377292507527
                                else:
                                    var18 = 0.6501920808174394
                        else:
                            if input[1] > 15.500000000000002:
                                if input[1] > 40.50000000000001:
                                    if input[18] > 67.50000000000001:
                                        var18 = 0.4644680787147819
                                    else:
                                        var18 = -0.01520495178973731
                                else:
                                    var18 = 0.427096386815806
                            else:
                                var18 = -0.06486157052201667
                else:
                    var18 = -0.6136483900249005
            else:
                if input[28] > 374.50000000000006:
                    if input[24] > 0.000000000000000000000000000000000010000000180025095:
                        var18 = 0.5148938315384316
                    else:
                        var18 = -0.1296494797913618
                else:
                    var18 = 0.7966881307773293
    else:
        if input[32] > 1.5000000000000002:
            if input[18] > 1.5000000000000002:
                if input[37] > 44.00000000000001:
                    var18 = -0.06033968208565467
                else:
                    var18 = 0.7410499818623066
            else:
                var18 = -0.38887647381850654
        else:
            if input[2] > 3089.0000000000005:
                if input[36] > 32.50000000000001:
                    if input[43] > 28.500000000000004:
                        if input[16] > 0.000000000000000000000000000000000010000000180025095:
                            var18 = -0.08186830859165639
                        else:
                            var18 = -0.4313713349306749
                    else:
                        var18 = 0.549199131903825
                else:
                    var18 = -0.5805562885241076
            else:
                if input[18] > 0.000000000000000000000000000000000010000000180025095:
                    if input[37] > 40.50000000000001:
                        var18 = -0.6288956608522841
                    else:
                        if input[35] > 32.50000000000001:
                            if input[36] > 33.50000000000001:
                                var18 = -0.21958765132086622
                            else:
                                var18 = 0.8708771359920502
                        else:
                            var18 = -0.4420991244682899
                else:
                    var18 = -0.7928036352992058
    if input[33] > 1.5000000000000002:
        if input[33] > 8.500000000000002:
            if input[3] > 0.000000000000000000000000000000000010000000180025095:
                if input[21] > 0.09849999845027925:
                    if input[24] > 0.000000000000000000000000000000000010000000180025095:
                        var19 = 0.8364935116342136
                    else:
                        var19 = 0.5948731491365645
                else:
                    if input[3] > 54.50000000000001:
                        if input[38] > 69.00000000000001:
                            var19 = 0.6906289162735145
                        else:
                            var19 = -0.1352690280734182
                    else:
                        var19 = 0.5215606422710514
            else:
                if input[25] > 39.50000000000001:
                    var19 = -0.2372108194563124
                else:
                    if input[25] > 11.500000000000002:
                        var19 = 0.8515018867219196
                    else:
                        var19 = 0.06917727084623443
        else:
            if input[40] > 30.000000000000004:
                if input[21] > 0.06850000098347665:
                    if input[43] > 61.50000000000001:
                        if input[29] > 15.500000000000002:
                            if input[36] > 59.50000000000001:
                                var19 = -0.3360045978689895
                            else:
                                var19 = 0.5320947645391737
                        else:
                            var19 = 0.6192773522903221
                    else:
                        if input[1] > 48.50000000000001:
                            if input[33] > 3.5000000000000004:
                                if input[40] > 60.00000000000001:
                                    var19 = -0.3987541280962803
                                else:
                                    var19 = 0.323974790876029
                            else:
                                var19 = -0.6389982197682063
                        else:
                            if input[24] > 1.5000000000000002:
                                var19 = 0.7416357044023103
                            else:
                                var19 = 0.2712742070545849
                else:
                    var19 = 0.14469137951770827
            else:
                if input[28] > 374.50000000000006:
                    if input[24] > 0.000000000000000000000000000000000010000000180025095:
                        var19 = 0.4891491373605801
                    else:
                        var19 = -0.12316700632944302
                else:
                    var19 = 0.7568537192419171
    else:
        if input[32] > 1.5000000000000002:
            if input[18] > 1.5000000000000002:
                if input[37] > 44.00000000000001:
                    var19 = -0.05732269767987154
                else:
                    var19 = 0.7039974961429835
            else:
                var19 = -0.3694326593726873
        else:
            if input[2] > 734.0000000000001:
                if input[18] > 19.500000000000004:
                    if input[37] > 38.00000000000001:
                        if input[21] > 0.004500000039115549:
                            var19 = -0.09054875260031005
                        else:
                            var19 = -0.6899685044701283
                    else:
                        var19 = 0.37031805417858643
                else:
                    if input[32] > 0.000000000000000000000000000000000010000000180025095:
                        if input[22] > 1.5000000000000002:
                            var19 = -0.5396266691092826
                        else:
                            if input[22] > 0.000000000000000000000000000000000010000000180025095:
                                var19 = 0.03946826651498869
                            else:
                                var19 = -0.51837503487064
                    else:
                        var19 = -0.6117155671684325
            else:
                var19 = -0.7477226876037222
    if input[33] > 1.5000000000000002:
        if input[33] > 8.500000000000002:
            if input[3] > 0.000000000000000000000000000000000010000000180025095:
                if input[32] > 3.5000000000000004:
                    var20 = 0.8468727610006775
                else:
                    if input[21] > 0.09149999916553499:
                        if input[3] > 6.500000000000001:
                            var20 = 0.6861143364105374
                        else:
                            var20 = 0.35900328185023933
                    else:
                        if input[1] > 114.50000000000001:
                            if input[38] > 69.00000000000001:
                                var20 = 0.6365863540049257
                            else:
                                var20 = -0.08167908806353807
                        else:
                            var20 = 0.4702818088493375
            else:
                if input[30] > 0.000000000000000000000000000000000010000000180025095:
                    var20 = -0.032998887441315496
                else:
                    var20 = 0.569391453124228
        else:
            if input[12] > 0.000000000000000000000000000000000010000000180025095:
                var20 = 1.2148173952102663
            else:
                if input[40] > 30.000000000000004:
                    if input[36] > 41.50000000000001:
                        if input[3] > 48.50000000000001:
                            var20 = -0.5213185875312142
                        else:
                            if input[11] > 0.000000000000000000000000000000000010000000180025095:
                                if input[27] > 0.1435000002384186:
                                    var20 = -0.41930954217910765
                                else:
                                    if input[19] > 0.12499999627470972:
                                        if input[1] > 51.50000000000001:
                                            var20 = -0.2661976034718531
                                        else:
                                            var20 = 0.33289963647827403
                                    else:
                                        if input[21] > 0.05650000087916852:
                                            var20 = 0.5467988802211056
                                        else:
                                            var20 = 0.199504147982494
                            else:
                                if input[29] > 26.500000000000004:
                                    var20 = 0.7737916479508082
                                else:
                                    if input[38] > 47.50000000000001:
                                        if input[4] > 2.5000000000000004:
                                            var20 = 0.4302493696177707
                                        else:
                                            var20 = -0.17764790009545245
                                    else:
                                        if input[16] > 0.000000000000000000000000000000000010000000180025095:
                                            var20 = 0.1816075432452966
                                        else:
                                            var20 = -0.2560178915823787
                    else:
                        var20 = -0.5934175148606301
                else:
                    if input[25] > 37.50000000000001:
                        var20 = -0.35731221524805856
                    else:
                        if input[18] > 0.000000000000000000000000000000000010000000180025095:
                            var20 = 0.10817374857720397
                        else:
                            var20 = -0.34474086723020003
    else:
        if input[32] > 1.5000000000000002:
            if input[18] > 1.5000000000000002:
                if input[37] > 44.00000000000001:
                    var20 = -0.054456562233821115
                else:
                    var20 = 0.6687976103276014
            else:
                var20 = -0.35096102444188937
        else:
            if input[2] > 734.0000000000001:
                if input[28] > 965.5000000000001:
                    if input[27] > 0.007500000298023225:
                        var20 = -0.16850084280140543
                    else:
                        var20 = -0.52634825838501
                else:
                    var20 = -0.5145041821025679
            else:
                var20 = -0.710336560015574
    if input[33] > 1.5000000000000002:
        if input[33] > 8.500000000000002:
            if input[33] > 24.500000000000004:
                var21 = 0.7057521038596899
            else:
                if input[3] > 40.50000000000001:
                    if input[36] > 50.50000000000001:
                        if input[0] > 5.500000000000001:
                            var21 = 0.5694430125256379
                        else:
                            var21 = -0.030717345863580704
                    else:
                        var21 = -0.650631900809028
                else:
                    if input[3] > 0.000000000000000000000000000000000010000000180025095:
                        var21 = 0.5262246382961931
                    else:
                        if input[25] > 39.50000000000001:
                            var21 = -0.2363358120585597
                        else:
                            if input[18] > 12.500000000000002:
                                var21 = 0.9088286170959473
                            else:
                                var21 = 0.1342326402141337
        else:
            if input[12] > 0.000000000000000000000000000000000010000000180025095:
                var21 = 1.1540765382349492
            else:
                if input[40] > 30.000000000000004:
                    if input[36] > 41.50000000000001:
                        if input[3] > 48.50000000000001:
                            var21 = -0.4952526504578798
                        else:
                            if input[11] > 0.000000000000000000000000000000000010000000180025095:
                                if input[27] > 0.1435000002384186:
                                    var21 = -0.39834406495094304
                                else:
                                    if input[19] > 0.12499999627470972:
                                        if input[1] > 51.50000000000001:
                                            var21 = -0.25288772475388316
                                        else:
                                            var21 = 0.3162546537347607
                                    else:
                                        if input[21] > 0.05650000087916852:
                                            var21 = 0.5194589365609423
                                        else:
                                            var21 = 0.18952893828542505
                            else:
                                var21 = 0.15086566808649848
                    else:
                        var21 = -0.5637466318160296
                else:
                    if input[30] > 2.5000000000000004:
                        var21 = -0.31525774025449566
                    else:
                        var21 = 0.03263808192527125
    else:
        if input[32] > 1.5000000000000002:
            if input[18] > 1.5000000000000002:
                if input[37] > 44.00000000000001:
                    if input[24] > 3.5000000000000004:
                        var21 = 0.5278799632787704
                    else:
                        if input[21] > 0.06850000098347665:
                            var21 = 0.029750416889558286
                        else:
                            var21 = -0.20840984024464515
                else:
                    var21 = 0.6353577379137278
            else:
                if input[27] > 0.020499999634921554:
                    if input[37] > 49.50000000000001:
                        var21 = 0.013443546891212464
                    else:
                        var21 = -0.765098760956735
                else:
                    var21 = -0.052953288810593746
        else:
            if input[32] > 0.000000000000000000000000000000000010000000180025095:
                if input[27] > 0.024500000290572647:
                    if input[43] > 28.500000000000004:
                        var21 = -0.2868989872309981
                    else:
                        var21 = 0.3660856213639765
                else:
                    var21 = -0.4442539164137633
            else:
                if input[27] > 0.01049999985843897:
                    var21 = -0.5224967135276732
                else:
                    var21 = -0.7042482691315505
    if input[33] > 1.5000000000000002:
        if input[33] > 8.500000000000002:
            if input[12] > 0.000000000000000000000000000000000010000000180025095:
                var22 = 1.0090198112071538
            else:
                if input[4] > 3.5000000000000004:
                    if input[3] > 5.500000000000001:
                        if input[21] > 0.027500000782310966:
                            var22 = 0.5816691777209341
                        else:
                            var22 = 0.18576011695876354
                    else:
                        if input[25] > 39.50000000000001:
                            var22 = -0.06616987953893841
                        else:
                            if input[38] > 44.50000000000001:
                                var22 = 0.6367219587842238
                            else:
                                var22 = 0.0813479877387484
                else:
                    if input[27] > 0.04450000077486039:
                        var22 = 0.37631611804766907
                    else:
                        var22 = -0.4255397352028866
        else:
            if input[12] > 0.000000000000000000000000000000000010000000180025095:
                var22 = 1.0963726866245271
            else:
                if input[3] > 1.5000000000000002:
                    if input[21] > 0.06850000098347665:
                        if input[19] > 0.22500000149011615:
                            var22 = -0.06046231948782371
                        else:
                            if input[27] > 0.10649999976158143:
                                var22 = 0.059162992434304895
                            else:
                                var22 = 0.42739441675186474
                    else:
                        if input[17] > 0.000000000000000000000000000000000010000000180025095:
                            var22 = 0.24923162193072534
                        else:
                            var22 = -0.02092135278657079
                else:
                    if input[18] > 39.50000000000001:
                        var22 = -0.35089672587596643
                    else:
                        if input[38] > 47.50000000000001:
                            var22 = 0.28727997931168425
                        else:
                            var22 = -0.061837424802032706
    else:
        if input[32] > 1.5000000000000002:
            if input[18] > 1.5000000000000002:
                if input[37] > 44.00000000000001:
                    var22 = -0.049147047485735784
                else:
                    var22 = 0.6035898491740227
            else:
                var22 = -0.31674232072063857
        else:
            if input[2] > 3089.0000000000005:
                if input[36] > 32.50000000000001:
                    if input[43] > 28.500000000000004:
                        if input[16] > 0.000000000000000000000000000000000010000000180025095:
                            if input[37] > 73.00000000000001:
                                var22 = -0.16167548163954557
                            else:
                                var22 = 0.45413635522127155
                        else:
                            if input[2] > 7273.500000000001:
                                var22 = -0.03430251982850088
                            else:
                                var22 = -0.5082572968749257
                    else:
                        var22 = 0.5177815979277647
                else:
                    var22 = -0.48273830415511676
            else:
                if input[22] > 0.000000000000000000000000000000000010000000180025095:
                    if input[37] > 40.50000000000001:
                        var22 = -0.5155964860153245
                    else:
                        if input[27] > 0.052500000223517425:
                            var22 = -0.4469905982017517
                        else:
                            if input[35] > 31.500000000000004:
                                var22 = 0.8093519517190514
                            else:
                                var22 = -0.3607397258281708
                else:
                    var22 = -0.6564333736285245
    if input[33] > 1.5000000000000002:
        if input[33] > 8.500000000000002:
            if input[12] > 0.000000000000000000000000000000000010000000180025095:
                var23 = 0.958568823337555
            else:
                if input[4] > 3.5000000000000004:
                    if input[3] > 5.500000000000001:
                        if input[21] > 0.09549999982118608:
                            var23 = 0.6247108761204206
                        else:
                            var23 = 0.4181620081929305
                    else:
                        if input[21] > 0.29449999332427984:
                            var23 = 0.5461782411493437
                        else:
                            if input[25] > 39.50000000000001:
                                var23 = -0.26375773036689093
                            else:
                                var23 = 0.2926179354737202
                else:
                    if input[27] > 0.04450000077486039:
                        var23 = 0.3575003128584432
                    else:
                        var23 = -0.4042627473266757
        else:
            if input[12] > 0.000000000000000000000000000000000010000000180025095:
                var23 = 1.0415540523529054
            else:
                if input[40] > 30.000000000000004:
                    if input[36] > 41.50000000000001:
                        if input[3] > 48.50000000000001:
                            var23 = -0.47985986237940587
                        else:
                            if input[33] > 3.5000000000000004:
                                if input[4] > 2.5000000000000004:
                                    var23 = 0.34568959801267607
                                else:
                                    var23 = -0.03511775775175346
                            else:
                                if input[25] > 6.500000000000001:
                                    var23 = 0.08939612916785765
                                else:
                                    var23 = 0.5014915440616937
                    else:
                        var23 = -0.5450312533974648
                else:
                    var23 = -0.04713559534585646
    else:
        if input[32] > 1.5000000000000002:
            if input[19] > 0.34499999880790716:
                var23 = -0.3296102417816018
            else:
                if input[18] > 1.5000000000000002:
                    if input[37] > 64.50000000000001:
                        if input[19] > 0.034999999217689044:
                            if input[17] > 0.000000000000000000000000000000000010000000180025095:
                                var23 = 0.35568027133686525
                            else:
                                var23 = -0.10096771256965505
                        else:
                            if input[21] > 0.09950000047683717:
                                if input[3] > 3.5000000000000004:
                                    var23 = 0.7079301553693685
                                else:
                                    var23 = -0.032467454340722825
                            else:
                                if input[29] > 19.500000000000004:
                                    var23 = 0.30886579492817756
                                else:
                                    var23 = -0.42346567761748144
                    else:
                        if input[19] > 0.014999999664723875:
                            var23 = 0.0853002621481816
                        else:
                            var23 = 1.0014460162869816
                else:
                    if input[27] > 0.011500000022351744:
                        var23 = -0.5076258261344936
                    else:
                        var23 = 0.23475396324087075
        else:
            if input[2] > 734.0000000000001:
                if input[27] > 0.024500000290572647:
                    if input[2] > 7273.500000000001:
                        var23 = 0.08480381017813043
                    else:
                        var23 = -0.3342318568061962
                else:
                    var23 = -0.4461048746173026
            else:
                var23 = -0.6156105156608964
    if input[33] > 1.5000000000000002:
        if input[33] > 8.500000000000002:
            if input[24] > 0.000000000000000000000000000000000010000000180025095:
                if input[21] > 0.09849999845027925:
                    var24 = 0.6725439101620451
                else:
                    var24 = 0.4045185174793005
            else:
                if input[30] > 0.000000000000000000000000000000000010000000180025095:
                    if input[3] > 4.500000000000001:
                        var24 = 0.3337437085498054
                    else:
                        var24 = -0.08036476771240353
                else:
                    if input[4] > 3.5000000000000004:
                        var24 = 0.5214990445313418
                    else:
                        var24 = 0.1889216588022783
        else:
            if input[12] > 0.000000000000000000000000000000000010000000180025095:
                var24 = 0.9894763660430907
            else:
                if input[3] > 1.5000000000000002:
                    if input[21] > 0.06850000098347665:
                        if input[19] > 0.22500000149011615:
                            var24 = -0.0689190899316646
                        else:
                            if input[27] > 0.10649999976158143:
                                var24 = 0.04527192155568346
                            else:
                                var24 = 0.39382366093898746
                    else:
                        if input[17] > 0.000000000000000000000000000000000010000000180025095:
                            if input[2] > 7171.500000000001:
                                if input[2] > 19463.500000000004:
                                    if input[19] > 0.000000000000000000000000000000000010000000180025095:
                                        var24 = -0.19578576785498772
                                    else:
                                        var24 = 0.6066533918802937
                                else:
                                    var24 = 0.5317622037901395
                            else:
                                var24 = -0.13214687873278894
                        else:
                            var24 = -0.027477245024591687
                else:
