"""Auto-generated Tier 2 scorer for structure.

Generated by m2cgen from LightGBM model.
Pure Python -- zero runtime dependencies.
"""
import math


def score(input):
    if input[37] > 33.50000000000001:
        if input[37] > 56.50000000000001:
            if input[37] > 86.00000000000001:
                if input[18] > 15.500000000000002:
                    var0 = 82.76489779170649
                else:
                    var0 = 82.63090821066635
            else:
                if input[2] > 1313.0000000000002:
                    if input[36] > 47.50000000000001:
                        var0 = 82.49740135160044
                    else:
                        if input[43] > 74.50000000000001:
                            var0 = 82.473987047046
                        else:
                            if input[2] > 15072.000000000002:
                                var0 = 81.85461984716896
                            else:
                                var0 = 82.30851339453396
                else:
                    if input[35] > 34.50000000000001:
                        if input[37] > 66.50000000000001:
                            var0 = 82.31983724514458
                        else:
                            var0 = 81.89710997107039
                    else:
                        var0 = 81.63977394925637
        else:
            if input[28] > 374.50000000000006:
                if input[19] > 0.09500000253319742:
                    var0 = 82.04114720338221
                else:
                    if input[21] > 0.004500000039115549:
                        if input[4] > 2.5000000000000004:
                            var0 = 82.03973520216303
                        else:
                            var0 = 81.46150389006377
                    else:
                        if input[27] > 0.07649999856948854:
                            var0 = 80.29483717389768
                        else:
                            var0 = 81.35252953234425
            else:
                if input[37] > 48.50000000000001:
                    if input[2] > 343.00000000000006:
                        var0 = 81.62242344518219
                    else:
                        var0 = 80.60733720428702
                else:
                    if input[35] > 30.500000000000004:
                        if input[18] > 4.500000000000001:
                            var0 = 80.01983717080907
                        else:
                            var0 = 80.76567053374605
                    else:
                        var0 = 80.1240038458204
    else:
        if input[28] > 156.50000000000003:
            if input[2] > 4909.500000000001:
                if input[27] > 0.09349999949336053:
                    var0 = 80.81983720776395
                else:
                    var0 = 81.7238912888012
            else:
                if input[27] > 0.052500000223517425:
                    if input[1] > 1.5000000000000002:
                        var0 = 80.58055147687409
                    else:
                        if input[21] > 0.01049999985843897:
                            var0 = 79.49014968019681
                        else:
                            var0 = 80.16552683200361
                else:
                    if input[36] > 27.500000000000004:
                        if input[2] > 1490.5000000000002:
                            if input[27] > 0.028500000014901165:
                                var0 = 80.649003853569
                            else:
                                var0 = 81.33460995752388
                        else:
                            var0 = 80.6073371902137
                    else:
                        if input[2] > 1573.0000000000002:
                            var0 = 80.57608723160581
                        else:
                            var0 = 79.69256445583657
        else:
            if input[28] > 117.50000000000001:
                var0 = 79.54483717980654
            else:
                var0 = 78.755529102158
    if input[37] > 33.50000000000001:
        if input[37] > 56.50000000000001:
            if input[37] > 86.00000000000001:
                if input[25] > 16.500000000000004:
                    var1 = 0.5820978607506697
                else:
                    var1 = 0.4551859429970829
            else:
                if input[2] > 1313.0000000000002:
                    if input[27] > 0.04450000077486039:
                        var1 = 0.34844611052778207
                    else:
                        if input[2] > 18674.000000000004:
                            if input[19] > 0.2549999952316285:
                                var1 = -0.6544626372201102
                            else:
                                var1 = 0.03044248508735442
                        else:
                            if input[18] > 8.500000000000002:
                                var1 = 0.2869643604275824
                            else:
                                var1 = 0.11049527301464553
                else:
                    if input[35] > 34.50000000000001:
                        if input[37] > 66.50000000000001:
                            var1 = 0.1590081364767892
                        else:
                            var1 = -0.24258277199485084
                    else:
                        var1 = -0.48705199768271634
        else:
            if input[28] > 374.50000000000006:
                if input[19] > 0.05499999970197678:
                    var1 = -0.1449451448832765
                else:
                    if input[21] > 0.004500000039115549:
                        if input[2] > 3866.0000000000005:
                            if input[18] > 3.5000000000000004:
                                var1 = 0.15870863185988535
                            else:
                                var1 = -0.4996167721286897
                        else:
                            var1 = -0.7252293796009488
                    else:
                        if input[27] > 0.07349999994039537:
                            var1 = -1.8298861265182496
                        else:
                            var1 = -0.9312628615986217
            else:
                if input[37] > 48.50000000000001:
                    if input[2] > 343.00000000000006:
                        if input[27] > 0.04749999940395356:
                            var1 = -0.05731164273761568
                        else:
                            var1 = -0.7567968481295818
                    else:
                        var1 = -1.4678668919950724
                else:
                    var1 = -1.6799204386078885
    else:
        if input[28] > 156.50000000000003:
            if input[2] > 4909.500000000001:
                if input[27] > 0.09349999949336053:
                    var1 = -1.2659918460249902
                else:
                    var1 = -0.40714052625604585
            else:
                if input[27] > 0.052500000223517425:
                    if input[1] > 1.5000000000000002:
                        var1 = -1.493313275916236
                    else:
                        var1 = -2.2241681178573702
                else:
                    if input[36] > 27.500000000000004:
                        if input[2] > 1490.5000000000002:
                            if input[27] > 0.028500000014901165:
                                var1 = -1.4282834842801095
                            else:
                                var1 = -0.7769577719948509
                        else:
                            var1 = -1.467866888559527
                    else:
                        if input[2] > 1573.0000000000002:
                            var1 = -1.4975543881456057
                        else:
                            var1 = -2.3369010058316317
        else:
            if input[28] > 117.50000000000001:
                var1 = -2.477241897583008
            else:
                var1 = -3.227084670876557
    if input[37] > 33.50000000000001:
        if input[37] > 56.50000000000001:
            if input[37] > 86.00000000000001:
                if input[18] > 15.500000000000002:
                    var2 = 0.5527387076147192
                else:
                    var2 = 0.4317662531693568
            else:
                if input[2] > 1313.0000000000002:
                    if input[3] > 1.5000000000000002:
                        if input[30] > 4.500000000000001:
                            var2 = -0.0014381924742146543
                        else:
                            var2 = 0.3620910591543006
                    else:
                        var2 = 0.1943135030736835
                else:
                    if input[35] > 34.50000000000001:
                        if input[37] > 66.50000000000001:
                            var2 = 0.15105772750718255
                        else:
                            var2 = -0.23045364076440988
                    else:
                        var2 = -0.4626993892313559
        else:
            if input[28] > 374.50000000000006:
                if input[19] > 0.09500000253319742:
                    var2 = -0.0985001412704862
                else:
                    if input[21] > 0.004500000039115549:
                        if input[2] > 7848.000000000001:
                            if input[18] > 3.5000000000000004:
                                var2 = 0.27713560838448376
                            else:
                                var2 = -0.3548144517036585
                        else:
                            if input[38] > 30.500000000000004:
                                var2 = 0.057166811823844914
                            else:
                                var2 = -0.6769551873207093
                    else:
                        if input[27] > 0.07649999856948854:
                            var2 = -1.684735762395642
                        else:
                            var2 = -0.7283485484428895
            else:
                if input[37] > 48.50000000000001:
                    if input[2] > 343.00000000000006:
                        var2 = -0.47835822989200727
                    else:
                        var2 = -1.3944734995563826
                else:
                    if input[35] > 30.500000000000004:
                        if input[18] > 4.500000000000001:
                            var2 = -1.9419958126544952
                        else:
                            var2 = -1.2334541881084444
                    else:
                        var2 = -1.8430375397205354
    else:
        if input[2] > 734.0000000000001:
            if input[2] > 4909.500000000001:
                if input[27] > 0.09349999949336053:
                    var2 = -1.202692239060998
                else:
                    var2 = -0.38678348418828606
            else:
                if input[27] > 0.06350000202655794:
                    if input[37] > 24.000000000000004:
                        var2 = -1.5662678227342408
                    else:
                        var2 = -2.310034210541669
                else:
                    if input[36] > 27.500000000000004:
                        if input[35] > 31.500000000000004:
                            var2 = -1.339471942153242
                        else:
                            if input[4] > 1.5000000000000002:
                                var2 = -1.2297773200732012
                            else:
                                var2 = -0.31674624085426334
                    else:
                        if input[2] > 1573.0000000000002:
                            var2 = -1.4226766320566337
                        else:
                            var2 = -2.2052831649780273
        else:
            if input[28] > 117.50000000000001:
                var2 = -2.2426416556040447
            else:
                var2 = -3.0657303660170836
    if input[37] > 33.50000000000001:
        if input[37] > 56.50000000000001:
            if input[37] > 86.00000000000001:
                if input[25] > 16.500000000000004:
                    var3 = 0.5253560059732202
                else:
                    var3 = 0.4107753996731246
            else:
                if input[2] > 1313.0000000000002:
                    if input[36] > 47.50000000000001:
                        var3 = 0.2978867985384587
                    else:
                        if input[43] > 74.50000000000001:
                            var3 = 0.2839167513345417
                        else:
                            if input[2] > 15072.000000000002:
                                var3 = -0.29686523028042006
                            else:
                                var3 = 0.12620094912839927
                else:
                    if input[35] > 34.50000000000001:
                        if input[37] > 66.50000000000001:
                            var3 = 0.14350484269005911
                        else:
                            var3 = -0.21893094608729538
                    else:
                        var3 = -0.4395644215843346
        else:
            if input[28] > 374.50000000000006:
                if input[19] > 0.05499999970197678:
                    var3 = -0.1293278497034385
                else:
                    if input[21] > 0.004500000039115549:
                        if input[2] > 3866.0000000000005:
                            if input[43] > 37.50000000000001:
                                var3 = 0.12129313595154707
                            else:
                                var3 = -0.5442189149856568
                        else:
                            var3 = -0.6616456788612737
                    else:
                        if input[27] > 0.07349999994039537:
                            var3 = -1.6565460073947909
                        else:
                            var3 = -0.8482822655276818
            else:
                if input[37] > 48.50000000000001:
                    if input[2] > 317.50000000000006:
                        if input[27] > 0.049499999731779105:
                            var3 = -0.008483293056488038
                        else:
                            var3 = -0.6990592835843563
                    else:
                        var3 = -1.3645225259390745
                else:
                    var3 = -1.5161282168967385
    else:
        if input[2] > 734.0000000000001:
            if input[2] > 4909.500000000001:
                if input[27] > 0.09349999949336053:
                    var3 = -1.142557661533356
                else:
                    var3 = -0.3674443072563893
            else:
                if input[27] > 0.06350000202655794:
                    if input[37] > 24.000000000000004:
                        var3 = -1.4879544377326965
                    else:
                        var3 = -2.194532538862789
                else:
                    if input[36] > 27.500000000000004:
                        if input[35] > 31.500000000000004:
                            if input[21] > 0.01049999985843897:
                                var3 = -0.9300188737385201
                            else:
                                var3 = -1.470775956438299
                        else:
                            if input[4] > 1.5000000000000002:
                                var3 = -1.1682884548719112
                            else:
                                var3 = -0.3009089231491089
                    else:
                        if input[2] > 1573.0000000000002:
                            var3 = -1.3515428205331168
                        else:
                            var3 = -2.0950189685821536
        else:
            if input[28] > 117.50000000000001:
                var3 = -2.1305095638547624
            else:
                var3 = -2.912443933546918
    if input[37] > 33.50000000000001:
        if input[37] > 55.50000000000001:
            if input[37] > 86.00000000000001:
                if input[7] > 18.500000000000004:
                    var4 = 0.502207476210149
                else:
                    var4 = 0.39601724982192676
            else:
                if input[2] > 1313.0000000000002:
                    if input[3] > 1.5000000000000002:
                        if input[30] > 4.500000000000001:
                            var4 = -0.01154902530343909
                        else:
                            var4 = 0.32998021680772593
                    else:
                        var4 = 0.17269725286520568
                else:
                    if input[35] > 34.50000000000001:
                        if input[37] > 66.50000000000001:
                            var4 = 0.13632960285459247
                        else:
                            var4 = -0.20673402489887344
                    else:
                        if input[27] > 0.03150000050663949:
                            var4 = -0.16949964522622352
                        else:
                            var4 = -0.7139117836124367
        else:
            if input[28] > 374.50000000000006:
                if input[19] > 0.05499999970197678:
                    var4 = -0.12098198285013993
                else:
                    if input[21] > 0.004500000039115549:
                        if input[28] > 936.5000000000001:
                            if input[18] > 3.5000000000000004:
                                var4 = 0.14731257305197096
                            else:
                                var4 = -0.4544876316562295
                        else:
                            var4 = -0.6742352279169219
                    else:
                        if input[27] > 0.07349999994039537:
                            var4 = -1.5737186390161515
                        else:
                            var4 = -0.805868132818829
            else:
                if input[37] > 48.50000000000001:
                    if input[2] > 317.50000000000006:
                        if input[27] > 0.049499999731779105:
                            var4 = -0.008059114813804627
                        else:
                            var4 = -0.6815344396692056
                    else:
                        var4 = -1.3428332289059959
                else:
                    if input[35] > 30.500000000000004:
                        if input[18] > 4.500000000000001:
                            var4 = -1.7690896713733673
                        else:
                            var4 = -1.095975039501985
                    else:
                        var4 = -1.6750792587672672
    else:
        if input[2] > 734.0000000000001:
            if input[2] > 4909.500000000001:
                if input[27] > 0.09349999949336053:
                    var4 = -1.0854297661781311
                else:
                    var4 = -0.3490720907578597
            else:
                if input[27] > 0.06350000202655794:
                    if input[37] > 24.000000000000004:
                        var4 = -1.4135566962047899
                    else:
                        var4 = -2.084805837799521
                else:
                    if input[36] > 27.500000000000004:
                        if input[35] > 31.500000000000004:
                            var4 = -1.2088734304242665
                        else:
                            if input[4] > 1.5000000000000002:
                                var4 = -1.109874044587979
                            else:
                                var4 = -0.2858634869257609
                    else:
                        var4 = -1.6050122456117109
        else:
            if input[28] > 117.50000000000001:
                var4 = -2.023984060968672
            else:
                var4 = -2.7668216801289494
    var5 = var0 + var1 + var2 + var3 + var4
    if input[37] > 33.50000000000001:
        if input[37] > 55.50000000000001:
            if input[37] > 86.00000000000001:
                if input[18] > 15.500000000000002:
                    var6 = 0.4744179863730793
                else:
                    var6 = 0.36895920689488215
            else:
                if input[2] > 1367.0000000000002:
                    if input[27] > 0.04450000077486039:
                        var6 = 0.28770824542781653
                    else:
                        if input[2] > 18674.000000000004:
                            if input[19] > 0.2549999952316285:
                                var6 = -0.6493091827347165
                            else:
                                var6 = 0.0017014516911036531
                        else:
                            var6 = 0.1896613340408465
                else:
                    if input[35] > 34.50000000000001:
                        if input[37] > 66.50000000000001:
                            var6 = 0.14056879648196152
                        else:
                            var6 = -0.19270519918721657
                    else:
                        var6 = -0.4088619160897484
        else:
            if input[28] > 374.50000000000006:
                if input[32] > 1.5000000000000002:
                    if input[29] > 2.5000000000000004:
                        var6 = 0.294791099970991
                    else:
                        if input[38] > 19.000000000000004:
                            var6 = -0.6845930685167727
                        else:
                            var6 = -0.03722044063396141
                else:
                    if input[25] > 5.500000000000001:
                        if input[27] > 0.06750000268220903:
                            var6 = -1.3824046701192856
                        else:
                            var6 = -0.43682142734527596
                    else:
                        if input[19] > 0.0449999999254942:
                            var6 = -0.1501724688095205
                        else:
                            var6 = -0.5978577027813746
            else:
                if input[37] > 48.50000000000001:
                    if input[2] > 415.00000000000006:
                        var6 = -0.3316159096748933
                    else:
                        var6 = -1.0864460026516634
                else:
                    var6 = -1.368305693098477
    else:
        if input[28] > 156.50000000000003:
            if input[2] > 5006.500000000001:
                if input[27] > 0.09349999949336053:
                    var6 = -1.0311582639813424
                else:
                    var6 = -0.29995825984648294
            else:
                if input[27] > 0.10549999773502351:
                    var6 = -2.0625859022140505
                else:
                    if input[2] > 1440.5000000000002:
                        if input[1] > 1.5000000000000002:
                            var6 = -0.383822345449811
                        else:
                            if input[26] > 0.9850000143051149:
                                if input[27] > 0.03549999929964543:
                                    var6 = -1.3841109372474052
                                else:
                                    var6 = -0.5282428411146005
                            else:
                                var6 = -1.5771777491415702
                    else:
                        if input[21] > 0.13250000029802325:
                            var6 = -2.121735917197334
                        else:
                            if input[36] > 33.50000000000001:
                                var6 = -1.5537404708142553
                            else:
                                var6 = -0.8856728527996991
        else:
            if input[2] > 343.00000000000006:
                var6 = -2.273861751556397
            else:
                var6 = -2.6599608947726563
    if input[37] > 33.50000000000001:
        if input[37] > 55.50000000000001:
            if input[37] > 86.00000000000001:
                if input[7] > 12.500000000000002:
                    var7 = 0.4494037645508237
                else:
                    var7 = 0.3453990819578334
            else:
                if input[2] > 1313.0000000000002:
                    if input[3] > 1.5000000000000002:
                        if input[30] > 4.500000000000001:
                            var7 = -0.01818005050483503
                        else:
                            var7 = 0.30098007353584166
                    else:
                        var7 = 0.15361078926080826
                else:
                    if input[35] > 34.50000000000001:
                        if input[37] > 66.50000000000001:
                            var7 = 0.12248468399047852
                        else:
                            var7 = -0.1867620520459281
                    else:
                        if input[27] > 0.03150000050663949:
                            var7 = -0.1405815686250842
                        else:
                            var7 = -0.6577731064624257
        else:
            if input[28] > 374.50000000000006:
                if input[32] > 1.5000000000000002:
                    if input[29] > 2.5000000000000004:
                        var7 = 0.280051543766802
                    else:
                        if input[38] > 19.000000000000004:
                            var7 = -0.6503634106853734
                        else:
                            var7 = -0.035359420737282175
                else:
                    if input[25] > 5.500000000000001:
                        if input[21] > 0.0054999999701976785:
                            var7 = -0.49364937411414256
                        else:
                            var7 = -1.4116590288969189
                    else:
                        if input[19] > 0.0449999999254942:
                            var7 = -0.1426638430291239
                        else:
                            var7 = -0.5679648118664493
            else:
                if input[37] > 48.50000000000001:
                    if input[27] > 0.052500000223517425:
                        var7 = 0.011394315958023073
                    else:
                        if input[36] > 35.50000000000001:
                            var7 = -1.1371296864567382
                        else:
                            var7 = -0.4550529080408591
                else:
                    var7 = -1.299890428526061
    else:
        if input[2] > 734.0000000000001:
            if input[2] > 5006.500000000001:
                if input[27] > 0.09349999949336053:
                    var7 = -0.9796003574877977
                else:
                    var7 = -0.28496034136840276
            else:
                if input[27] > 0.10549999773502351:
                    var7 = -1.9385497839554497
                else:
                    if input[36] > 27.500000000000004:
                        if input[36] > 32.50000000000001:
                            if input[36] > 45.50000000000001:
                                var7 = -0.5409841182082892
                            else:
                                var7 = -1.2520247474020603
                        else:
                            var7 = -0.68391698565748
                    else:
                        if input[15] > 0.000000000000000000000000000000000010000000180025095:
                            var7 = -0.9756136193275453
                        else:
                            var7 = -1.9847773252813905
        else:
            if input[28] > 117.50000000000001:
                var7 = -1.8318566526685442
            else:
                if input[2] > 129.00000000000003:
                    var7 = -2.4165396177821226
                else:
                    var7 = -2.7006799634996352
    if input[37] > 33.50000000000001:
        if input[37] > 55.50000000000001:
            if input[37] > 86.00000000000001:
                var8 = 0.40006704453214187
            else:
                if input[2] > 1367.0000000000002:
                    if input[3] > 1.5000000000000002:
                        if input[30] > 4.500000000000001:
                            if input[27] > 0.03949999995529652:
                                var8 = 0.1664814687242695
                            else:
                                var8 = -0.39212619137763977
                        else:
                            var8 = 0.2859308850691008
                    else:
                        if input[2] > 22892.500000000004:
                            var8 = -0.24402178345304548
                        else:
                            var8 = 0.15876432511100835
                else:
                    if input[35] > 34.50000000000001:
                        if input[37] > 66.50000000000001:
                            var8 = 0.1272357293593338
                        else:
                            var8 = -0.17410180824606314
                    else:
                        var8 = -0.37057491562715394
        else:
            if input[28] > 374.50000000000006:
                if input[32] > 1.5000000000000002:
                    if input[29] > 2.5000000000000004:
                        var8 = 0.26604896155270663
                    else:
                        if input[38] > 19.000000000000004:
                            var8 = -0.6178452292214269
                        else:
                            var8 = -0.03359144921185541
                else:
                    if input[25] > 5.500000000000001:
                        if input[27] > 0.06750000268220903:
                            var8 = -1.2584797672927381
                        else:
                            var8 = -0.3826478006442388
                    else:
                        if input[19] > 0.0449999999254942:
                            var8 = -0.13553065880913945
                        else:
                            var8 = -0.5395665741812151
            else:
                if input[37] > 48.50000000000001:
                    if input[2] > 317.50000000000006:
                        var8 = -0.38137128757218186
                    else:
                        var8 = -1.1716059043293907
                else:
                    if input[35] > 30.500000000000004:
                        if input[18] > 4.500000000000001:
                            var8 = -1.5472253727912904
                        else:
                            var8 = -0.9077664663394294
                    else:
                        var8 = -1.4579154338936011
    else:
        if input[2] > 734.0000000000001:
            if input[2] > 5006.500000000001:
                if input[27] > 0.09349999949336053:
                    var8 = -0.9306203672289849
                else:
                    var8 = -0.2707123339176178
            else:
                if input[27] > 0.10549999773502351:
                    var8 = -1.8416222904039465
                else:
                    if input[36] > 27.500000000000004:
                        if input[36] > 34.50000000000001:
                            if input[36] > 45.50000000000001:
                                var8 = -0.5139349133893848
                            else:
                                var8 = -1.2750432366132738
                        else:
                            var8 = -0.7158247209693256
                    else:
                        if input[15] > 0.000000000000000000000000000000000010000000180025095:
                            var8 = -0.9268329186439515
                        else:
                            var8 = -1.8855383864155524
        else:
            if input[28] > 117.50000000000001:
                var8 = -1.7402638304801217
            else:
                var8 = -2.3729575936899248
    if input[37] > 33.50000000000001:
        if input[37] > 56.50000000000001:
            if input[37] > 86.00000000000001:
                if input[43] > 70.50000000000001:
                    var9 = 0.30276222333053093
                else:
                    var9 = 0.4052214691617495
            else:
                if input[2] > 1367.0000000000002:
                    if input[27] > 0.04450000077486039:
                        var9 = 0.25045253924844046
                    else:
                        if input[28] > 3199.0000000000005:
                            if input[19] > 0.2950000017881394:
                                var9 = -0.44833132578776436
                            else:
                                var9 = 0.013674416352549327
                        else:
                            if input[18] > 8.500000000000002:
                                var9 = 0.2406023873673454
                            else:
                                var9 = 0.0587096800727229
                else:
                    if input[35] > 36.50000000000001:
                        var9 = 0.07535802787224923
                    else:
                        if input[18] > 5.500000000000001:
                            var9 = -0.6669399162897697
                        else:
                            var9 = -0.1596787348848123
        else:
            if input[28] > 374.50000000000006:
                if input[32] > 1.5000000000000002:
                    if input[29] > 2.5000000000000004:
                        var9 = 0.2527465186335824
                    else:
                        if input[38] > 19.000000000000004:
                            var9 = -0.5569613967090845
                        else:
                            var9 = -0.031911880168758455
                else:
                    if input[25] > 5.500000000000001:
                        if input[21] > 0.0054999999701976785:
                            var9 = -0.43645375602775155
                        else:
                            var9 = -1.2865735842631414
                    else:
                        if input[19] > 0.0449999999254942:
                            var9 = -0.1341773958234062
                        else:
                            var9 = -0.48937963905199516
            else:
                if input[37] > 48.50000000000001:
                    if input[27] > 0.052500000223517425:
                        var9 = 0.033844333440065384
                    else:
                        if input[19] > 0.014999999664723875:
                            var9 = -0.5078023206896898
                        else:
                            var9 = -1.182561681384132
                else:
                    var9 = -1.1731510940194132
    else:
        if input[2] > 734.0000000000001:
            if input[2] > 4909.500000000001:
                if input[32] > 1.5000000000000002:
                    var9 = 0.0047949523798057015
                else:
                    var9 = -0.586990302485047
            else:
                if input[27] > 0.06350000202655794:
                    if input[37] > 24.000000000000004:
                        var9 = -1.1397932743204051
                    else:
                        var9 = -1.7452305036432603
                else:
                    if input[36] > 29.500000000000004:
                        if input[35] > 31.500000000000004:
                            var9 = -0.9886773884379201
                        else:
                            var9 = -0.41213173583149915
                    else:
                        if input[15] > 0.000000000000000000000000000000000010000000180025095:
                            var9 = -0.8874811922128384
                        else:
                            var9 = -1.6111019296305522
        else:
            if input[28] > 117.50000000000001:
                var9 = -1.653250625587645
            else:
                var9 = -2.2543098029850412
    if input[37] > 33.50000000000001:
        if input[37] > 55.50000000000001:
            if input[37] > 88.50000000000001:
                if input[7] > 18.500000000000004:
                    var10 = 0.39159994061616066
                else:
                    var10 = 0.301261793038784
            else:
                if input[28] > 342.50000000000006:
                    if input[36] > 47.50000000000001:
                        var10 = 0.22389947669466934
                    else:
                        if input[43] > 74.50000000000001:
                            var10 = 0.22789947339880323
                        else:
                            if input[2] > 12771.000000000002:
                                var10 = -0.24343923470005394
                            else:
                                var10 = 0.0849613661185289
                else:
                    if input[35] > 34.50000000000001:
                        if input[37] > 66.50000000000001:
                            var10 = 0.12412051079794764
                        else:
                            var10 = -0.16308493610957397
                    else:
                        if input[27] > 0.03150000050663949:
                            var10 = -0.10644997760306958
                        else:
                            var10 = -0.5995416237757757
        else:
            if input[28] > 529.5000000000001:
                if input[35] > 31.500000000000004:
                    var10 = 0.016653637638906153
                else:
                    if input[25] > 5.500000000000001:
                        var10 = -0.8960602033138276
                    else:
                        if input[19] > 0.05499999970197678:
                            var10 = -0.08834802887092034
                        else:
                            if input[29] > 0.000000000000000000000000000000000010000000180025095:
                                var10 = -0.24310961587314242
                            else:
                                var10 = -0.8817322755401785
            else:
                if input[2] > 369.50000000000006:
                    if input[37] > 44.00000000000001:
                        var10 = -0.36968235294024154
                    else:
                        if input[19] > 0.31499999761581426:
                            var10 = -0.457952539737408
                        else:
                            var10 = -1.0131436604958075
                else:
                    if input[37] > 44.00000000000001:
                        var10 = -0.9498117904618102
                    else:
                        var10 = -1.5531358694036803
    else:
        if input[2] > 734.0000000000001:
            if input[2] > 4909.500000000001:
                if input[32] > 1.5000000000000002:
                    var10 = 0.004555200253214155
                else:
                    if input[43] > 29.500000000000004:
                        var10 = -0.8658362763899344
                    else:
                        var10 = -0.344274683487721
            else:
                if input[27] > 0.06350000202655794:
                    if input[37] > 24.000000000000004:
                        var10 = -1.0828036078091328
                    else:
                        var10 = -1.6579689502716066
                else:
                    if input[31] > 0.023500000126659874:
                        var10 = -1.2724023952716736
                    else:
                        if input[0] > 0.000000000000000000000000000000000010000000180025095:
                            var10 = -0.5357749360141816
                        else:
                            var10 = -1.0840280053742004
        else:
            if input[28] > 136.50000000000003:
                var10 = -1.5057708196780262
            else:
                if input[2] > 129.00000000000003:
                    var10 = -2.056918145037712
                else:
                    var10 = -2.334282487303346
    if input[37] > 33.50000000000001:
        if input[37] > 55.50000000000001:
            if input[37] > 86.00000000000001:
                if input[18] > 15.500000000000002:
                    var11 = 0.36975595357986224
                else:
                    var11 = 0.27919334784522165
            else:
                if input[41] > 15.000000000000002:
                    if input[3] > 1.5000000000000002:
                        if input[30] > 4.500000000000001:
                            if input[27] > 0.03949999995529652:
                                var11 = 0.13779683159846887
                            else:
                                var11 = -0.37474636125564575
                        else:
                            var11 = 0.25515367612387235
                    else:
                        if input[2] > 22892.500000000004:
                            var11 = -0.2545853555202484
                        else:
                            var11 = 0.1325593627539346
                else:
                    if input[37] > 73.00000000000001:
                        var11 = 0.13583393553020182
                    else:
                        if input[36] > 30.500000000000004:
                            if input[37] > 64.50000000000001:
                                var11 = -0.017062552250523607
                            else:
                                if input[2] > 679.5000000000001:
                                    var11 = -0.039501420035958294
                                else:
                                    var11 = -0.7198363413810731
                        else:
                            var11 = -0.6246747647271013
        else:
            if input[2] > 2083.5000000000005:
                if input[35] > 31.500000000000004:
                    var11 = 0.01582095188338582
                else:
                    if input[27] > 0.05949999950826169:
                        var11 = -0.7996706049565389
                    else:
                        var11 = -0.1893401171758537
            else:
                if input[38] > 15.000000000000002:
                    if input[37] > 45.50000000000001:
                        if input[27] > 0.052500000223517425:
                            var11 = 0.07710186870768666
                        else:
                            var11 = -0.503671705060535
                    else:
                        if input[18] > 6.500000000000001:
                            var11 = -1.2422027561664581
                        else:
                            if input[28] > 374.50000000000006:
                                var11 = -0.2781222373247147
                            else:
                                if input[4] > 1.5000000000000002:
                                    var11 = -0.5926824949681759
                                else:
                                    var11 = -1.1288083229746138
                else:
                    var11 = -1.2107125515590855
    else:
        if input[2] > 734.0000000000001:
            if input[2] > 4909.500000000001:
                if input[2] > 13249.000000000002:
                    var11 = 0.012532424721224556
                else:
                    var11 = -0.5416361713409424
            else:
                if input[1] > 2.5000000000000004:
                    var11 = -0.27633557945489884
                else:
                    if input[27] > 0.05049999989569188:
                        var11 = -1.3938975869706185
                    else:
                        if input[31] > 0.023500000126659874:
                            var11 = -1.2971750874777097
                        else:
                            if input[0] > 0.000000000000000000000000000000000010000000180025095:
                                var11 = -0.5420693760628209
                            else:
                                var11 = -1.0307867510510345
        else:
            if input[28] > 117.50000000000001:
                var11 = -1.490050516809736
            else:
                var11 = -2.0347797849643157
    if input[37] > 33.50000000000001:
        if input[37] > 55.50000000000001:
            if input[37] > 86.00000000000001:
                var12 = 0.325871623656008
            else:
                if input[2] > 1313.0000000000002:
                    if input[36] > 47.50000000000001:
                        var12 = 0.20304195910773304
                    else:
                        if input[43] > 74.50000000000001:
                            var12 = 0.21007849841947981
                        else:
                            if input[2] > 16754.000000000004:
                                var12 = -0.32321629163466004
                            else:
                                var12 = 0.060641360269707546
                else:
                    if input[37] > 78.50000000000001:
                        var12 = 0.18582276239323972
                    else:
                        if input[35] > 40.50000000000001:
                            var12 = 0.08346535840578247
                        else:
                            var12 = -0.22127000947860448
        else:
            if input[28] > 529.5000000000001:
                if input[38] > 34.00000000000001:
                    var12 = 0.26433129516514864
                else:
                    if input[25] > 2.5000000000000004:
                        if input[21] > 0.029499999247491363:
                            var12 = -0.1139121440740732
                        else:
                            if input[2] > 6985.500000000001:
                                var12 = -0.3913200054604274
                            else:
                                var12 = -1.0088873707150159
                    else:
                        if input[21] > 0.27850000560283666:
                            var12 = -0.523876909069393
                        else:
                            if input[35] > 28.500000000000004:
                                var12 = 0.06759977600404195
                            else:
                                if input[2] > 7710.500000000001:
                                    var12 = -0.8462818752229215
                                else:
                                    var12 = -0.06827248692375805
            else:
                if input[2] > 369.50000000000006:
                    if input[37] > 44.00000000000001:
                        var12 = -0.3321401504278183
                    else:
                        if input[19] > 0.31499999761581426:
                            var12 = -0.402540488426502
                        else:
                            var12 = -0.9176950940257543
                else:
                    if input[37] > 44.00000000000001:
                        var12 = -0.8515810568377656
                    else:
                        var12 = -1.415739679336548
    else:
        if input[28] > 156.50000000000003:
            if input[2] > 4909.500000000001:
                if input[2] > 13249.000000000002:
                    var12 = 0.011905813319929716
                else:
                    var12 = -0.5145543434069707
            else:
                if input[1] > 2.5000000000000004:
                    var12 = -0.2625187909603119
                else:
                    if input[27] > 0.04849999956786633:
                        if input[21] > 0.058499999344348914:
                            var12 = -1.7197144840074623
                        else:
                            var12 = -1.1715533570007042
                    else:
                        if input[31] > 0.023500000126659874:
                            var12 = -1.267073591292969
                        else:
                            if input[2] > 1490.5000000000002:
                                var12 = -0.5216968427916042
                            else:
                                var12 = -0.9579936141371728
        else:
            if input[2] > 151.50000000000003:
                var12 = -1.818573314970706
            else:
                var12 = -2.09333580688194
    if input[37] > 33.50000000000001:
        if input[37] > 55.50000000000001:
            if input[37] > 88.50000000000001:
                var13 = 0.3099048143720386
            else:
                if input[41] > 15.000000000000002:
                    if input[3] > 1.5000000000000002:
                        if input[30] > 4.500000000000001:
                            var13 = -0.03583856468137942
                        else:
                            var13 = 0.23308078968410562
                    else:
                        var13 = 0.10901808432794342
                else:
                    if input[37] > 73.00000000000001:
                        var13 = 0.12340945373998574
                    else:
                        if input[19] > 0.000000000000000000000000000000000010000000180025095:
                            var13 = 0.03906364785972983
                        else:
                            if input[27] > 0.01049999985843897:
                                var13 = -0.19805390002286954
                            else:
                                var13 = -0.6342267311908104
        else:
            if input[28] > 374.50000000000006:
                if input[38] > 34.00000000000001:
                    var13 = 0.19460319954840866
                else:
                    if input[25] > 2.5000000000000004:
                        if input[21] > 0.029499999247491363:
                            var13 = -0.1884775389943804
                        else:
                            if input[2] > 6985.500000000001:
                                var13 = -0.3717540182459813
                            else:
                                var13 = -1.0328023132614115
                    else:
                        var13 = -0.09995088400846383
            else:
                if input[35] > 35.50000000000001:
                    var13 = -0.3622540652629782
                else:
                    if input[37] > 44.00000000000001:
                        if input[1] > 0.000000000000000000000000000000000010000000180025095:
                            var13 = -1.1395766156060356
                        else:
                            var13 = -0.49465454169640355
                    else:
                        var13 = -1.1477127883626126
    else:
        if input[2] > 734.0000000000001:
            if input[2] > 5006.500000000001:
                if input[27] > 0.09349999949336053:
                    var13 = -0.7960829776525498
                else:
                    if input[4] > 3.5000000000000004:
                        var13 = -0.6181352376937866
                    else:
                        if input[21] > 0.01350000035017729:
                            var13 = 0.30334816002845766
                        else:
                            var13 = -0.3329569780826569
            else:
                if input[27] > 0.10549999773502351:
                    var13 = -1.4778911061908888
                else:
                    if input[36] > 27.500000000000004:
                        if input[4] > 0.000000000000000000000000000000000010000000180025095:
                            if input[2] > 1931.5000000000002:
                                if input[26] > 0.9950000047683717:
                                    if input[27] > 0.04450000077486039:
                                        var13 = -0.7678527971972591
                                    else:
                                        var13 = -0.09044329794744652
                                else:
                                    var13 = -1.0837631127238274
                            else:
                                var13 = -0.959524329633611
                        else:
                            var13 = -0.22744960103716172
                    else:
                        if input[15] > 0.000000000000000000000000000000000010000000180025095:
                            var13 = -0.6848659398555756
                        else:
                            var13 = -1.5679629533379167
        else:
            if input[28] > 101.50000000000001:
                var13 = -1.4200739202896755
            else:
                var13 = -1.8513599309921265
    if input[37] > 33.50000000000001:
        if input[37] > 53.50000000000001:
            if input[37] > 86.00000000000001:
                var14 = 0.294105008175153
            else:
                if input[41] > 15.000000000000002:
                    if input[3] > 1.5000000000000002:
                        if input[30] > 4.500000000000001:
                            var14 = -0.03404664005103864
                        else:
                            var14 = 0.22148371500356887
                    else:
                        if input[2] > 22892.500000000004:
                            var14 = -0.28925882848826323
                        else:
                            var14 = 0.11140927882396855
                else:
                    if input[37] > 73.00000000000001:
                        var14 = 0.11616386327187758
                    else:
                        if input[27] > 0.002500000060535968:
                            if input[37] > 64.50000000000001:
                                var14 = -0.02276186011731625
                            else:
                                if input[2] > 734.0000000000001:
                                    var14 = -0.08237471516476945
                                else:
                                    var14 = -0.6406580191466116
                        else:
                            var14 = -0.5158957596706307
        else:
            if input[28] > 374.50000000000006:
                if input[19] > 0.05499999970197678:
                    var14 = -0.07327788180209227
                else:
                    if input[21] > 0.01949999947100878:
                        if input[27] > 0.023500000126659874:
                            if input[2] > 5587.000000000001:
                                var14 = 0.2853256044564424
                            else:
                                var14 = -0.42430133762813754
                        else:
                            var14 = -0.6203134190756828
                    else:
                        if input[27] > 0.07649999856948854:
                            var14 = -1.0919801452885503
                        else:
                            var14 = -0.48683598133233885
            else:
                if input[1] > 2.5000000000000004:
                    var14 = -0.14936358228325844
                else:
                    if input[37] > 44.00000000000001:
                        if input[38] > 15.000000000000002:
                            var14 = -0.4377546849350135
                        else:
                            var14 = -0.9321491448318258
                    else:
                        if input[28] > 126.00000000000001:
                            if input[2] > 1177.0000000000002:
                                var14 = -1.2737000620365144
                            else:
                                var14 = -0.6310304227471352
                        else:
                            var14 = -1.2672048368105076
    else:
        if input[28] > 156.50000000000003:
            if input[2] > 4909.500000000001:
                if input[32] > 1.5000000000000002:
                    var14 = 0.046530147854770935
                else:
                    var14 = -0.4720010310863003
            else:
                if input[1] > 2.5000000000000004:
                    var14 = -0.21123942077159882
                else:
                    if input[27] > 0.04849999956786633:
                        var14 = -1.2128194252778959
                    else:
                        if input[31] > 0.023500000126659874:
                            var14 = -1.1535074170998165
                        else:
                            if input[2] > 1490.5000000000002:
                                var14 = -0.4667939865412038
                            else:
                                var14 = -0.860416761159897
        else:
            if input[4] > 0.000000000000000000000000000000000010000000180025095:
                var14 = -1.4302566771413767
            else:
                var14 = -1.7721510907842053
    if input[37] > 33.50000000000001:
        if input[37] > 53.50000000000001:
            if input[37] > 88.50000000000001:
                if input[43] > 70.50000000000001:
                    var15 = 0.21024628149455438
                else:
                    var15 = 0.30212976399398617
            else:
                if input[41] > 15.000000000000002:
                    if input[36] > 48.50000000000001:
                        var15 = 0.18065141909165405
                    else:
                        var15 = 0.07848726400574874
                else:
                    if input[37] > 73.00000000000001:
                        var15 = 0.1112540221914945
                    else:
                        if input[27] > 0.002500000060535968:
                            if input[37] > 64.50000000000001:
                                var15 = -0.021623771907541695
                            else:
                                if input[2] > 734.0000000000001:
                                    var15 = -0.07825597812770867
                                else:
                                    var15 = -0.6086251143230906
                        else:
                            if input[39] > 82.50000000000001:
                                var15 = -0.15919438834701266
                            else:
                                var15 = -0.7680625047683716
        else:
            if input[2] > 1886.5000000000002:
                if input[27] > 0.08049999922513963:
                    if input[21] > 0.020499999634921554:
                        var15 = -0.26355055627368745
                    else:
                        var15 = -0.9142135757666369
                else:
                    if input[27] > 0.009499999694526197:
                        var15 = -0.028940097942836304
                    else:
                        var15 = -0.355599959471669
            else:
                if input[38] > 15.000000000000002:
                    if input[37] > 45.50000000000001:
                        var15 = -0.21515409205204403
                    else:
                        var15 = -0.7255112423162375
                else:
                    var15 = -1.0447707463987173
    else:
        if input[28] > 136.50000000000003:
            if input[32] > 0.000000000000000000000000000000000010000000180025095:
                if input[39] > 46.00000000000001:
                    if input[27] > 0.07649999856948854:
                        var15 = -1.2083885656935829
                    else:
                        if input[4] > 0.000000000000000000000000000000000010000000180025095:
                            if input[0] > 0.000000000000000000000000000000000010000000180025095:
                                if input[26] > 0.9950000047683717:
                                    var15 = -0.3436353383095641
                                else:
                                    var15 = -0.891774908874346
                            else:
                                var15 = -1.0030811816453935
                        else:
                            var15 = -0.1695915172249079
                else:
                    if input[32] > 1.5000000000000002:
                        var15 = 0.011913915847738585
                    else:
                        if input[21] > 0.033500000834465034:
                            var15 = -0.7943923007874263
                        else:
                            if input[43] > 27.500000000000004:
                                var15 = -0.5602573553721111
                            else:
                                var15 = 0.09804727335770926
            else:
                if input[21] > 0.0665000006556511:
                    var15 = -1.312520595126682
                else:
                    if input[38] > 17.000000000000004:
                        if input[36] > 35.50000000000001:
                            var15 = -0.8657985118719248
                        else:
                            var15 = -0.2709112380445004
                    else:
                        var15 = -1.439151590211051
        else:
            var15 = -1.6540831760394792
    if input[37] > 33.50000000000001:
        if input[37] > 55.50000000000001:
            if input[37] > 88.50000000000001:
                var16 = 0.26571911213786836
            else:
                if input[2] > 1313.0000000000002:
                    if input[27] > 0.04250000044703484:
                        if input[38] > 34.00000000000001:
                            var16 = 0.2125322883673475
                        else:
                            var16 = 0.08401409077671279
                    else:
                        if input[28] > 3322.5000000000005:
                            if input[19] > 0.2950000017881394:
                                var16 = -0.5624898073219118
                            else:
                                var16 = -0.02256309817545116
                        else:
                            if input[18] > 8.500000000000002:
                                var16 = 0.18228669224519436
                            else:
                                var16 = 0.012874394549135252
                else:
                    if input[37] > 78.50000000000001:
                        var16 = 0.15749805768330893
                    else:
                        var16 = -0.1323883706180394
        else:
            if input[28] > 529.5000000000001:
                if input[38] > 34.00000000000001:
                    var16 = 0.24276517751542004
                else:
                    if input[25] > 2.5000000000000004:
                        if input[21] > 0.004500000039115549:
                            var16 = -0.2600377038121224
                        else:
                            var16 = -0.7650478219985962
                    else:
                        if input[21] > 0.27850000560283666:
                            var16 = -0.48238546122675363
                        else:
                            var16 = -0.0372908260327068
            else:
                if input[28] > 136.50000000000003:
                    if input[18] > 7.500000000000001:
                        var16 = -0.9554827136022074
                    else:
                        if input[37] > 48.50000000000001:
                            var16 = -0.07965385548093103
                        else:
                            if input[21] > 0.17549999803304675:
                                var16 = -0.8371462456111249
                            else:
                                if input[36] > 32.50000000000001:
                                    var16 = -0.595331996679306
                                else:
                                    var16 = -0.01173006240968351
                else:
                    if input[27] > 0.024500000290572647:
                        var16 = -0.5962489503401297
                    else:
                        var16 = -1.0723957063506047
    else:
        if input[28] > 136.50000000000003:
            if input[32] > 0.000000000000000000000000000000000010000000180025095:
                if input[39] > 46.00000000000001:
                    if input[21] > 0.9790000021457673:
                        var16 = -1.2265394460071217
                    else:
                        if input[4] > 0.000000000000000000000000000000000010000000180025095:
                            var16 = -0.6927685680175291
                        else:
                            var16 = -0.16111193876713514
                else:
                    var16 = -0.24741962651766483
            else:
                if input[21] > 0.0665000006556511:
                    var16 = -1.2468945581383177
                else:
                    if input[38] > 17.000000000000004:
                        if input[36] > 39.50000000000001:
                            var16 = -0.8690450552738075
                        else:
                            var16 = -0.3287177705134337
                    else:
                        var16 = -1.3671940076918832
        else:
            if input[2] > 129.00000000000003:
                var16 = -1.5028992959286305
            else:
                var16 = -1.7482222399868808
    if input[37] > 33.50000000000001:
        if input[37] > 53.50000000000001:
            if input[37] > 86.00000000000001:
                if input[7] > 12.500000000000002:
                    var17 = 0.27569060481540947
                else:
                    var17 = 0.18920581155428703
            else:
                if input[41] > 15.000000000000002:
                    if input[3] > 1.5000000000000002:
                        if input[30] > 4.500000000000001:
                            if input[27] > 0.03949999995529652:
                                var17 = 0.10980591990199745
                            else:
                                var17 = -0.35862281918525696
                        else:
                            var17 = 0.19410126362485258
                    else:
                        if input[2] > 22892.500000000004:
                            var17 = -0.2790921744072076
                        else:
                            var17 = 0.09466997103001042
                else:
                    if input[37] > 65.50000000000001:
                        var17 = 0.04634009443529665
                    else:
                        var17 = -0.23313374579630117
        else:
            if input[28] > 374.50000000000006:
                if input[19] > 0.05499999970197678:
                    var17 = -0.05621912133964625
                else:
                    if input[21] > 0.01949999947100878:
                        if input[27] > 0.023500000126659874:
                            if input[2] > 5587.000000000001:
                                var17 = 0.2790039121000855
                            else:
                                var17 = -0.3708076431637719
                        else:
                            var17 = -0.5662474354729057
                    else:
                        var17 = -0.6869051580526392
            else:
                if input[35] > 35.50000000000001:
                    var17 = -0.33020237243693806
                else:
                    if input[37] > 44.00000000000001:
                        if input[2] > 343.00000000000006:
                            var17 = -0.20560481786727905
                        else:
                            var17 = -0.7680870841992529
                    else:
                        var17 = -0.9584398249442551
    else:
        if input[28] > 136.50000000000003:
            if input[32] > 0.000000000000000000000000000000000010000000180025095:
                if input[39] > 46.00000000000001:
                    if input[27] > 0.07649999856948854:
                        var17 = -1.1057054198213987
                    else:
                        if input[4] > 0.000000000000000000000000000000000010000000180025095:
                            if input[0] > 0.000000000000000000000000000000000010000000180025095:
                                if input[26] > 0.9950000047683717:
                                    var17 = -0.2890058201786719
                                else:
                                    var17 = -0.8044251286465189
                            else:
                                var17 = -0.9160646427008841
                        else:
                            var17 = -0.15305633768439295
                else:
                    if input[32] > 1.5000000000000002:
                        var17 = 0.0236892053236564
                    else:
                        if input[21] > 0.033500000834465034:
                            var17 = -0.7423017024993896
                        else:
                            var17 = -0.2071788028193017
            else:
                if input[21] > 0.0665000006556511:
                    var17 = -1.1845498228502565
                else:
                    if input[38] > 17.000000000000004:
                        if input[27] > 0.03549999929964543:
                            var17 = -0.8451883550613157
                        else:
                            var17 = -0.3272518673113414
                    else:
                        var17 = -1.2988342716580346
        else:
            var17 = -1.4928100669310869
    if input[37] > 33.50000000000001:
        if input[37] > 56.50000000000001:
            if input[37] > 84.50000000000001:
                if input[18] > 18.500000000000004:
                    var18 = 0.2645299229544616
                else:
                    var18 = 0.17985944491385425
            else:
                if input[1] > 2.5000000000000004:
                    if input[28] > 3636.5000000000005:
                        if input[27] > 0.03150000050663949:
                            var18 = 0.11203658577110356
                        else:
                            if input[21] > 0.08150000125169755:
                                var18 = -0.4823716816099893
                            else:
                                var18 = 0.035864464313753196
                    else:
                        var18 = 0.16600491913602358
                else:
                    if input[38] > 22.500000000000004:
                        var18 = 0.030089208410189302
                    else:
                        if input[36] > 30.500000000000004:
                            var18 = -0.08584510642329501
                        else:
                            if input[2] > 1251.5000000000002:
                                var18 = -0.6772096460828414
                            else:
                                var18 = -0.028907636664807796
        else:
            if input[28] > 374.50000000000006:
                if input[36] > 43.50000000000001:
                    var18 = 0.04532105058837587
                else:
                    if input[27] > 0.07649999856948854:
                        var18 = -0.7407370229830614
                    else:
                        if input[21] > 0.05150000005960465:
                            var18 = -0.38150993136435074
                        else:
                            var18 = -0.0780863321382193
            else:
                if input[37] > 44.00000000000001:
                    if input[28] > 136.50000000000003:
                        var18 = -0.15952846797145145
                    else:
                        var18 = -0.5857351509125336
                else:
                    if input[28] > 126.00000000000001:
                        if input[2] > 1217.5000000000002:
                            var18 = -1.0410058093070984
                        else:
                            var18 = -0.46815165160667327
                    else:
                        var18 = -1.0649684713976015
    else:
        if input[28] > 136.50000000000003:
            if input[32] > 0.000000000000000000000000000000000010000000180025095:
                if input[39] > 46.00000000000001:
                    if input[21] > 0.9790000021457673:
                        var18 = -1.1234378511255438
                    else:
                        if input[4] > 0.000000000000000000000000000000000010000000180025095:
                            if input[21] > 0.0705000013113022:
                                var18 = -0.2937068634563022
                            else:
                                if input[0] > 0.000000000000000000000000000000000010000000180025095:
                                    if input[37] > 24.000000000000004:
                                        var18 = -0.3041539045395675
                                    else:
                                        var18 = -0.876832819968462
                                else:
                                    var18 = -1.082178349296252
                        else:
                            var18 = -0.14540351655334235
                else:
                    var18 = -0.22329620518854687
            else:
                if input[21] > 0.0665000006556511:
                    var18 = -1.125322353541851
                else:
                    if input[38] > 17.000000000000004:
                        if input[36] > 35.50000000000001:
                            var18 = -0.750249583598895
                        else:
                            var18 = -0.21679815977811812
                    else:
                        var18 = -1.2338925864015309
        else:
            var18 = -1.4181695400937204
    if input[37] > 33.50000000000001:
        if input[37] > 53.50000000000001:
            if input[37] > 84.50000000000001:
                if input[43] > 70.50000000000001:
                    var19 = 0.16305834004828512
                else:
                    var19 = 0.24803058318219473
            else:
                if input[41] > 57.50000000000001:
                    if input[28] > 2962.5000000000005:
                        if input[3] > 7.500000000000001:
                            var19 = 0.1784218856734451
                        else:
                            if input[29] > 9.500000000000002:
                                if input[38] > 47.50000000000001:
                                    var19 = 0.10776982380535885
                                else:
                                    var19 = -0.25236057801680134
                            else:
                                if input[31] > 0.006500000134110452:
                                    var19 = -0.13805330914234923
                                else:
                                    var19 = -0.6720298670805418
                    else:
                        var19 = 0.17759367664701736
                else:
                    if input[19] > 0.000000000000000000000000000000000010000000180025095:
                        var19 = 0.01176920927129686
                    else:
                        var19 = -0.1501398445880959
        else:
            if input[28] > 374.50000000000006:
                if input[19] > 0.05499999970197678:
                    var19 = -0.04920773749480714
                else:
                    if input[21] > 0.01949999947100878:
                        if input[27] > 0.023500000126659874:
                            if input[2] > 5587.000000000001:
                                var19 = 0.2684225129860419
                            else:
                                var19 = -0.33918649140922796
                        else:
                            var19 = -0.5294985130429268
                    else:
                        var19 = -0.6339056720691069
            else:
                if input[1] > 2.5000000000000004:
                    var19 = -0.06702259898185729
                else:
                    if input[37] > 38.00000000000001:
                        if input[38] > 15.000000000000002:
                            var19 = -0.46715318890178903
                        else:
                            var19 = -0.8508608728769373
                    else:
                        var19 = -1.0429563145637513
    else:
        if input[28] > 136.50000000000003:
            if input[32] > 0.000000000000000000000000000000000010000000180025095:
                if input[0] > 0.000000000000000000000000000000000010000000180025095:
                    if input[1] > 5.500000000000001:
                        var19 = 0.19124813318252565
                    else:
                        if input[43] > 35.50000000000001:
                            if input[27] > 0.024500000290572647:
                                var19 = -0.7498814607659976
                            else:
                                var19 = -0.2680831783428425
                        else:
                            var19 = -0.21793278539792085
                else:
                    if input[35] > 37.50000000000001:
                        var19 = -1.1653305856081155
                    else:
                        var19 = -0.4894745941547787
            else:
                if input[21] > 0.0665000006556511:
                    var19 = -1.0690562300549613
                else:
                    if input[38] > 17.000000000000004:
                        if input[36] > 39.50000000000001:
                            var19 = -0.7560226835987786
                        else:
                            var19 = -0.2679678075588667
                    else:
                        var19 = -1.1721979481478533
        else:
            if input[2] > 129.00000000000003:
                var19 = -1.2822053291442548
            else:
                var19 = -1.515262026315207
    if input[37] > 25.500000000000004:
        if input[37] > 53.50000000000001:
            if input[37] > 84.50000000000001:
                if input[18] > 8.500000000000002:
                    var20 = 0.2283940246602157
                else:
                    var20 = 0.1308477687254685
            else:
                if input[41] > 57.50000000000001:
                    if input[28] > 3636.5000000000005:
                        if input[1] > 16.500000000000004:
                            if input[27] > 0.052500000223517425:
                                var20 = 0.1597617450642259
                            else:
                                var20 = -0.03405519075557051
                        else:
                            var20 = -0.3322163791773287
                    else:
                        var20 = 0.1597858333209073
                else:
                    if input[19] > 0.000000000000000000000000000000000010000000180025095:
                        var20 = 0.011180748479531669
                    else:
                        var20 = -0.14263285351654806
        else:
            if input[2] > 1886.5000000000002:
                if input[27] > 0.1005000025033951:
                    var20 = -0.7968178947766622
                else:
                    if input[38] > 34.00000000000001:
                        var20 = 0.3694439632552011
                    else:
                        if input[25] > 2.5000000000000004:
                            var20 = -0.4337682300806046
                        else:
                            if input[30] > 3.5000000000000004:
                                var20 = -0.35557966812660824
                            else:
                                var20 = -0.010868102806830125
            else:
                if input[1] > 2.5000000000000004:
                    var20 = -0.051300781187803846
                else:
                    if input[21] > 0.17549999803304675:
                        var20 = -0.8340300033800304
                    else:
                        if input[21] > 0.09050000086426736:
                            var20 = -0.10430252262524196
                        else:
                            if input[0] > 0.000000000000000000000000000000000010000000180025095:
                                if input[2] > 415.00000000000006:
                                    var20 = -0.3236958134298524
                                else:
                                    var20 = -0.8130399892435355
                            else:
                                var20 = -1.078729379971822
    else:
        if input[2] > 734.0000000000001:
            if input[2] > 13249.000000000002:
                var20 = 0.23074802332199537
            else:
                if input[27] > 0.10350000113248826:
                    var20 = -1.1532209292054176
                else:
                    if input[1] > 2.5000000000000004:
                        var20 = -0.03187570869922638
                    else:
                        if input[38] > 17.000000000000004:
                            if input[27] > 0.06350000202655794:
                                var20 = -1.0317547876988689
                            else:
                                if input[31] > 0.023500000126659874:
                                    var20 = -0.892876964973079
                                else:
                                    if input[36] > 38.50000000000001:
                                        var20 = -0.8366071083780492
                                    else:
                                        if input[36] > 27.500000000000004:
                                            if input[21] > 0.04450000077486039:
                                                var20 = 0.13395921804688193
                                            else:
                                                var20 = -0.39720694034507403
                                        else:
                                            var20 = -0.6816434166828791
                        else:
                            var20 = -0.18679092193758765
        else:
            if input[28] > 101.50000000000001:
                var20 = -0.9951854779251985
            else:
                var20 = -1.3067590705172383
    if input[37] > 25.500000000000004:
        if input[37] > 55.50000000000001:
            if input[3] > 1.5000000000000002:
                if input[16] > 0.000000000000000000000000000000000010000000180025095:
                    var21 = 0.22131798814038392
                else:
                    if input[38] > 34.00000000000001:
                        var21 = 0.17164297199575512
                    else:
                        if input[0] > 4.500000000000001:
                            var21 = -0.36865324339805505
                        else:
                            var21 = 0.05887465828694172
            else:
                if input[37] > 65.50000000000001:
                    var21 = 0.1021322414202063
                else:
                    var21 = -0.045213660125160454
        else:
            if input[28] > 529.5000000000001:
                if input[35] > 31.500000000000004:
                    if input[27] > 0.01750000007450581:
                        var21 = 0.10964112349153897
                    else:
                        var21 = -0.18864712779936585
                else:
                    if input[25] > 5.500000000000001:
                        var21 = -0.6179931002110243
                    else:
                        if input[2] > 10449.000000000002:
                            var21 = -0.5100471544478621
                        else:
                            var21 = -0.05313223995141347
            else:
                if input[36] > 49.50000000000001:
                    var21 = 0.018618323491967244
                else:
                    if input[28] > 136.50000000000003:
                        if input[18] > 7.500000000000001:
                            var21 = -0.8006200951558573
                        else:
                            if input[21] > 0.17549999803304675:
                                var21 = -0.6521257587174393
                            else:
                                if input[36] > 32.50000000000001:
                                    var21 = -0.47021271213889126
                                else:
                                    var21 = -0.040416690289974216
                    else:
                        if input[27] > 0.024500000290572647:
                            if input[1] > 0.000000000000000000000000000000000010000000180025095:
                                var21 = -0.7953820935704492
                            else:
                                var21 = -0.22371050908609674
                        else:
                            var21 = -0.8597164210819064
    else:
        if input[2] > 734.0000000000001:
            if input[2] > 13249.000000000002:
                var21 = 0.21921061965135427
            else:
                if input[27] > 0.10350000113248826:
                    var21 = -1.0955598890781404
                else:
                    if input[1] > 2.5000000000000004:
                        var21 = -0.030281925201416017
                    else:
                        if input[38] > 17.000000000000004:
                            if input[27] > 0.06350000202655794:
                                var21 = -0.9801670396760587
                            else:
                                if input[31] > 0.023500000126659874:
                                    var21 = -0.8482331214472651
                                else:
                                    if input[36] > 38.50000000000001:
                                        var21 = -0.7947767494302808
                                    else:
                                        if input[36] > 27.500000000000004:
                                            if input[35] > 31.500000000000004:
                                                var21 = -0.42862020615608465
                                            else:
                                                var21 = 0.060269070108389035
                                        else:
                                            var21 = -0.6475612312555313
                        else:
                            var21 = -0.1774513832358427
        else:
            if input[28] > 101.50000000000001:
                var21 = -0.9454262063439404
            else:
                var21 = -1.2414211262356152
    if input[37] > 25.500000000000004:
        if input[37] > 53.50000000000001:
            if input[3] > 1.5000000000000002:
                if input[16] > 0.000000000000000000000000000000000010000000180025095:
                    var22 = 0.21025208023200126
                else:
                    if input[38] > 34.00000000000001:
                        var22 = 0.1628135569660044
                    else:
                        if input[0] > 4.500000000000001:
                            var22 = -0.33446167126297954
                        else:
                            var22 = 0.05584597450458199
            else:
                if input[37] > 65.50000000000001:
                    var22 = 0.0970256293876972
                else:
                    if input[2] > 679.5000000000001:
                        if input[25] > 2.5000000000000004:
                            if input[38] > 34.00000000000001:
                                var22 = 0.027198241132589965
                            else:
                                var22 = -0.2646162298133318
                        else:
                            if input[19] > 0.18500000238418582:
                                var22 = -0.14834332332736064
                            else:
                                var22 = 0.22913305523494878
                    else:
                        var22 = -0.2254583494685521
        else:
            if input[2] > 1886.5000000000002:
                if input[27] > 0.1005000025033951:
                    var22 = -0.7445350601559594
                else:
                    if input[38] > 34.00000000000001:
                        var22 = 0.35203083244019323
                    else:
                        if input[25] > 2.5000000000000004:
                            var22 = -0.39584616280519047
                        else:
                            if input[30] > 3.5000000000000004:
                                var22 = -0.33283383136517125
                            else:
                                var22 = -0.007932509054897332
            else:
                if input[1] > 2.5000000000000004:
                    var22 = -0.04390674907228221
                else:
                    if input[21] > 0.17549999803304675:
                        var22 = -0.7571712537785061
                    else:
                        if input[11] > 0.000000000000000000000000000000000010000000180025095:
                            var22 = 0.0934250083565712
                        else:
                            var22 = -0.5781555394605389
    else:
        if input[2] > 734.0000000000001:
            if input[2] > 13249.000000000002:
                var22 = 0.20825008847392523
            else:
                if input[27] > 0.10350000113248826:
                    var22 = -1.0407819114625454
                else:
                    if input[1] > 2.5000000000000004:
                        var22 = -0.028767823179562887
                    else:
                        if input[38] > 17.000000000000004:
                            if input[27] > 0.06350000202655794:
                                var22 = -0.9311586906833034
                            else:
                                if input[31] > 0.023500000126659874:
                                    var22 = -0.8058214669891944
                                else:
                                    if input[36] > 38.50000000000001:
                                        var22 = -0.7550379151760629
                                    else:
                                        if input[36] > 27.500000000000004:
                                            if input[21] > 0.04450000077486039:
                                                var22 = 0.1375811446796764
                                            else:
                                                var22 = -0.3681378233687658
                                        else:
                                            var22 = -0.6151831710338593
                        else:
                            var22 = -0.1685788029848143
        else:
            if input[2] > 151.50000000000003:
                var22 = -1.0647444828371613
            else:
                var22 = -1.2935300111770631
    if input[37] > 25.500000000000004:
        if input[37] > 53.50000000000001:
            if input[41] > 57.50000000000001:
                if input[37] > 82.50000000000001:
                    var23 = 0.19649795999337294
                else:
                    if input[28] > 2962.5000000000005:
                        if input[3] > 7.500000000000001:
                            var23 = 0.14771562777843672
                        else:
                            if input[38] > 55.50000000000001:
                                var23 = 0.06743235571548725
                            else:
                                if input[2] > 19775.500000000004:
                                    var23 = -0.6951414677500725
                                else:
                                    if input[29] > 5.500000000000001:
                                        var23 = -0.0376081562185862
                                    else:
                                        var23 = -0.5728426870974628
                    else:
                        var23 = 0.1503154135548852
            else:
                if input[37] > 78.50000000000001:
                    var23 = 0.10942417884300047
                else:
                    if input[19] > 0.000000000000000000000000000000000010000000180025095:
                        var23 = 0.004673980232231164
                    else:
                        if input[25] > 17.500000000000004:
                            var23 = 0.214874122813344
                        else:
                            if input[25] > 5.500000000000001:
                                if input[29] > 5.500000000000001:
                                    var23 = -0.1424392072054056
                                else:
                                    var23 = -0.7365705086787542
                            else:
                                var23 = -0.12051572598757283
        else:
            if input[2] > 1886.5000000000002:
                if input[27] > 0.1005000025033951:
                    var23 = -0.7073083009038653
                else:
                    if input[38] > 34.00000000000001:
                        var23 = 0.334429286633219
                    else:
                        if input[25] > 5.500000000000001:
                            var23 = -0.5320269739627838
                        else:
                            if input[27] > 0.009499999694526197:
                                var23 = -0.001914238589613334
                            else:
                                if input[21] > 0.020499999634921554:
                                    var23 = -0.4796730454058149
                                else:
                                    var23 = -0.043144309073686604
            else:
                if input[1] > 2.5000000000000004:
                    var23 = -0.04171140232811804
                else:
                    if input[21] > 0.17549999803304675:
                        var23 = -0.7193126869387925
                    else:
                        var23 = -0.46244483452264956
    else:
        if input[28] > 136.50000000000003:
            if input[2] > 13249.000000000002:
                var23 = 0.19783758847759322
            else:
                if input[27] > 0.10350000113248826:
                    var23 = -1.0001275026437009
                else:
                    if input[2] > 1440.5000000000002:
                        if input[31] > 0.01949999947100878:
                            var23 = -0.6545008426123277
                        else:
                            var23 = -0.2623988101258874
                    else:
                        if input[21] > 0.1995000019669533:
                            var23 = -1.2280328875496274
                        else:
                            if input[36] > 33.50000000000001:
                                var23 = -0.6937175820458611
                            else:
                                if input[2] > 734.0000000000001:
                                    var23 = -0.05918072403773017
                                else:
                                    var23 = -0.6023652678186244
        else:
            var23 = -1.1081684643420104
    if input[37] > 25.500000000000004:
        if input[37] > 53.50000000000001:
            if input[41] > 57.50000000000001:
                if input[37] > 82.50000000000001:
                    var24 = 0.1866730633118324
                else:
                    if input[2] > 14911.500000000002:
                        if input[1] > 15.500000000000002:
                            if input[27] > 0.052500000223517425:
                                var24 = 0.13036484664379483
                            else:
                                if input[40] > 60.00000000000001:
                                    var24 = -0.3788152023598
                                else:
                                    if input[19] > 0.11499999836087228:
                                        var24 = -0.22080295599997043
                                    else:
                                        var24 = 0.10550943899139958
                        else:
                            var24 = -0.38152705862053804
                    else:
                        var24 = 0.13326336851131612
            else:
                if input[37] > 65.50000000000001:
                    if input[18] > 8.500000000000002:
                        var24 = 0.1442007722430315
                    else:
                        var24 = 0.01877345803786408
                else:
                    if input[25] > 2.5000000000000004:
                        var24 = -0.17900259069276855
                    else:
                        if input[2] > 734.0000000000001:
                            var24 = 0.17006414153809668
                        else:
                            var24 = -0.3706760823726654
        else:
            if input[2] > 1886.5000000000002:
                if input[27] > 0.1005000025033951:
                    var24 = -0.671942896218527
                else:
                    if input[35] > 31.500000000000004:
                        var24 = 0.05845161070179496
                    else:
                        if input[37] > 38.00000000000001:
                            var24 = -0.3764266266487539
                        else:
                            if input[2] > 7848.000000000001:
                                var24 = -0.4301151536978209
                            else:
                                var24 = 0.0370523206762269
            else:
                if input[1] > 2.5000000000000004:
                    var24 = -0.03962583632572838
                else:
                    if input[0] > 0.000000000000000000000000000000000010000000180025095:
                        if input[22] > 0.000000000000000000000000000000000010000000180025095:
                            var24 = -0.18569752174728324
                        else:
                            var24 = -0.5825735817849637
                    else:
                        var24 = -0.6649586838693956
    else:
        if input[2] > 734.0000000000001:
            if input[2] > 13249.000000000002:
                var24 = 0.18794570344571884
            else:
                if input[27] > 0.10350000113248826:
                    var24 = -0.9387364357709885
                else:
                    if input[1] > 2.5000000000000004:
                        var24 = -0.01257572819789251
                    else:
                        if input[38] > 17.000000000000004:
                            if input[27] > 0.06350000202655794:
                                var24 = -0.8602075071104113
                            else:
                                if input[36] > 21.500000000000004:
                                    if input[1] > 0.000000000000000000000000000000000010000000180025095:
                                        var24 = -0.644701533732207
                                    else:
                                        var24 = -0.3026940668677236
                                else:
                                    var24 = -0.8215341469103641
                        else:
                            var24 = -0.14248727906581968
        else:
            if input[2] > 176.00000000000003:
                var24 = -0.9485132181056413
            else:
                var24 = -1.154404278901907
    if input[37] > 25.500000000000004:
        if input[37] > 53.50000000000001:
            if input[3] > 1.5000000000000002:
                if input[16] > 0.000000000000000000000000000000000010000000180025095:
                    var25 = 0.1813546709369814
                else:
                    if input[38] > 34.00000000000001:
                        var25 = 0.14375311992307668
                    else:
                        if input[0] > 4.500000000000001:
                            var25 = -0.32120920933783054
                        else:
                            var25 = 0.04220102731984086
            else:
                if input[37] > 84.50000000000001:
                    var25 = 0.12029429159126015
                else:
                    if input[38] > 22.500000000000004:
                        if input[2] > 23965.000000000004:
                            var25 = -0.41764700144529343
                        else:
                            var25 = 0.06463018619875995
                    else:
                        if input[25] > 6.500000000000001:
