"""Auto-generated Tier 2 scorer for examples.

Generated by m2cgen from LightGBM model.
Pure Python -- zero runtime dependencies.
"""
import math


def score(input):
    if input[3] > 1.5000000000000002:
        if input[3] > 2.5000000000000004:
            if input[3] > 12.500000000000002:
                if input[27] > 0.06350000202655794:
                    var0 = 51.51132826846347
                else:
                    var0 = 51.30396482281436
            else:
                if input[16] > 0.000000000000000000000000000000000010000000180025095:
                    var0 = 51.26858799928073
                else:
                    if input[35] > 57.50000000000001:
                        var0 = 50.19774687199718
                    else:
                        var0 = 51.02382331299037
        else:
            if input[38] > 17.000000000000004:
                if input[16] > 0.000000000000000000000000000000000010000000180025095:
                    if input[18] > 17.500000000000004:
                        var0 = 50.7455214246848
                    else:
                        if input[25] > 7.500000000000001:
                            if input[27] > 0.011500000022351744:
                                var0 = 50.02444101136599
                            else:
                                var0 = 49.222222388803296
                        else:
                            var0 = 50.79021482137231
                else:
                    if input[43] > 49.50000000000001:
                        var0 = 50.227109982143496
                    else:
                        var0 = 49.50063148695726
            else:
                var0 = 49.21635729192054
    else:
        if input[3] > 0.000000000000000000000000000000000010000000180025095:
            if input[37] > 69.50000000000001:
                if input[37] > 86.00000000000001:
                    if input[21] > 0.09349999949336053:
                        if input[36] > 51.50000000000001:
                            var0 = 49.568687043263395
                        else:
                            var0 = 50.38295130835819
                    else:
                        var0 = 49.36357008129901
                else:
                    if input[21] > 0.1944999992847443:
                        var0 = 49.43134854131837
                    else:
                        var0 = 48.80293964210367
            else:
                if input[38] > 25.500000000000004:
                    var0 = 50.762844133505276
                else:
                    var0 = 49.17503624968829
        else:
            if input[28] > 1762.5000000000002:
                if input[27] > 0.03849999979138375:
                    if input[21] > 0.1944999992847443:
                        var0 = 48.29872046172041
                    else:
                        if input[18] > 19.500000000000004:
                            if input[2] > 15797.000000000002:
                                var0 = 48.87828300281119
                            else:
                                var0 = 48.23282845865711
                        else:
                            var0 = 49.35942778435735
                else:
                    if input[2] > 11253.500000000002:
                        if input[19] > 0.15500000119209292:
                            var0 = 47.82939165242874
                        else:
                            var0 = 48.524616082662895
                    else:
                        var0 = 47.95507726300961
            else:
                if input[1] > 8.500000000000002:
                    if input[2] > 1677.0000000000002:
                        var0 = 48.126165677657525
                    else:
                        if input[1] > 13.500000000000002:
                            var0 = 49.46789339345369
                        else:
                            var0 = 48.35740232316045
                else:
                    if input[18] > 3.5000000000000004:
                        var0 = 47.9861825649357
                    else:
                        var0 = 47.74845803770864
    if input[3] > 1.5000000000000002:
        if input[3] > 2.5000000000000004:
            if input[3] > 12.500000000000002:
                if input[27] > 0.05450000055134297:
                    var1 = 1.7720739942573385
                else:
                    if input[30] > 3.5000000000000004:
                        var1 = 0.96337317943573
                    else:
                        var1 = 1.6068314110288526
            else:
                if input[16] > 0.000000000000000000000000000000000010000000180025095:
                    var1 = 1.5586937573392736
                else:
                    if input[35] > 57.50000000000001:
                        var1 = 0.5413947160427387
                    else:
                        var1 = 1.3261673459466898
        else:
            if input[38] > 17.000000000000004:
                if input[16] > 0.000000000000000000000000000000000010000000180025095:
                    if input[18] > 17.500000000000004:
                        var1 = 1.0617805268404619
                    else:
                        if input[25] > 7.500000000000001:
                            if input[27] > 0.012500000186264517:
                                var1 = 0.3813080810369498
                            else:
                                var1 = -0.374055572128033
                        else:
                            var1 = 1.1042392717301845
                else:
                    if input[27] > 0.024500000290572647:
                        if input[43] > 49.50000000000001:
                            var1 = 0.8908183925501678
                        else:
                            var1 = 0.004619592999996141
                    else:
                        var1 = -0.543051287829876
            else:
                var1 = -0.39092541253694923
    else:
        if input[3] > 0.000000000000000000000000000000000010000000180025095:
            if input[37] > 69.50000000000001:
                if input[37] > 86.00000000000001:
                    var1 = 0.031205235402795337
                else:
                    if input[21] > 0.1944999992847443:
                        var1 = -0.18668371106303017
                    else:
                        var1 = -0.7836721826800339
            else:
                if input[38] > 30.500000000000004:
                    var1 = 1.104714938572475
                else:
                    var1 = -0.3887188556226524
        else:
            if input[28] > 1762.5000000000002:
                if input[27] > 0.03849999979138375:
                    if input[21] > 0.1944999992847443:
                        var1 = -1.2626804209741436
                    else:
                        if input[18] > 19.500000000000004:
                            var1 = -1.0186868967793206
                        else:
                            var1 = -0.25500844717025756
                else:
                    if input[2] > 11253.500000000002:
                        if input[19] > 0.15500000119209292:
                            var1 = -1.7085427447063168
                        else:
                            var1 = -1.0480795513682004
                    else:
                        var1 = -1.5891414642333985
            else:
                if input[1] > 8.500000000000002:
                    if input[2] > 1677.0000000000002:
                        var1 = -1.426607465845907
                    else:
                        if input[1] > 13.500000000000002:
                            var1 = -0.1519660900036494
                        else:
                            var1 = -1.206932631134987
                else:
                    if input[28] > 374.50000000000006:
                        if input[19] > 0.37500000000000006:
                            var1 = -1.8510908327347193
                        else:
                            var1 = -1.5061909779091203
                    else:
                        var1 = -1.8034293412927338
    if input[3] > 1.5000000000000002:
        if input[3] > 2.5000000000000004:
            if input[3] > 10.500000000000002:
                if input[27] > 0.05949999950826169:
                    var2 = 1.687383556969424
                else:
                    var2 = 1.4738537714659394
            else:
                if input[29] > 8.500000000000002:
                    if input[2] > 3148.5000000000005:
                        var2 = 1.2130610548567728
                    else:
                        var2 = 0.35733463530955106
                else:
                    if input[2] > 5503.500000000001:
                        var2 = 1.5938565018360433
                    else:
                        var2 = 1.293287355475819
        else:
            if input[38] > 17.000000000000004:
                if input[16] > 0.000000000000000000000000000000000010000000180025095:
                    if input[18] > 17.500000000000004:
                        var2 = 1.0086915209608258
                    else:
                        if input[25] > 7.500000000000001:
                            if input[27] > 0.011500000022351744:
                                var2 = 0.3581383625311511
                            else:
                                var2 = -0.36665077570712934
                        else:
                            var2 = 1.0490272626280785
                else:
                    if input[27] > 0.024500000290572647:
                        if input[43] > 49.50000000000001:
                            var2 = 0.8462775217450184
                        else:
                            var2 = 0.0043886130805625475
                    else:
                        var2 = -0.5158987406889598
            else:
                var2 = -0.3713791180682439
    else:
        if input[3] > 0.000000000000000000000000000000000010000000180025095:
            if input[37] > 69.50000000000001:
                if input[37] > 86.00000000000001:
                    if input[21] > 0.09349999949336053:
                        if input[36] > 51.50000000000001:
                            var2 = -0.05777239018016392
                        else:
                            var2 = 0.7157786610964183
                    else:
                        var2 = -0.25263350574593796
                else:
                    if input[21] > 0.1944999992847443:
                        var2 = -0.17734952797723372
                    else:
                        var2 = -0.7444885664706608
            else:
                if input[38] > 25.500000000000004:
                    var2 = 1.0255762494843583
                else:
                    var2 = -0.41074444157736645
        else:
            if input[28] > 2230.0000000000005:
                if input[19] > 0.17500000447034839:
                    var2 = -1.488493578589481
                else:
                    if input[22] > 1.5000000000000002:
                        if input[18] > 43.50000000000001:
                            var2 = -0.6644303878148397
                        else:
                            var2 = -1.2792231994635852
                    else:
                        var2 = -0.6221700239394393
            else:
                if input[1] > 8.500000000000002:
                    if input[19] > 0.3849999904632569:
                        var2 = -1.6877897478499504
                    else:
                        if input[25] > 6.500000000000001:
                            var2 = -1.2731121543262687
                        else:
                            if input[38] > 22.500000000000004:
                                var2 = -0.43185398507377376
                            else:
                                var2 = -1.1537122381039155
                else:
                    if input[18] > 3.5000000000000004:
                        var2 = -1.486684495603166
                    else:
                        var2 = -1.6995239514632514
    if input[3] > 1.5000000000000002:
        if input[3] > 2.5000000000000004:
            if input[3] > 12.500000000000002:
                if input[27] > 0.024500000290572647:
                    var3 = 1.561951836258899
                else:
                    var3 = 1.0686426486609117
            else:
                if input[29] > 7.500000000000001:
                    if input[43] > 37.50000000000001:
                        if input[27] > 0.0705000013113022:
                            var3 = 1.3842390253105943
                        else:
                            var3 = 1.0994855960560266
                    else:
                        var3 = 0.4533987677866413
                else:
                    var3 = 1.437078435341361
        else:
            if input[38] > 17.000000000000004:
                if input[16] > 0.000000000000000000000000000000000010000000180025095:
                    if input[18] > 17.500000000000004:
                        var3 = 0.9582569025597483
                    else:
                        if input[25] > 7.500000000000001:
                            if input[27] > 0.011500000022351744:
                                var3 = 0.34023143550979773
                            else:
                                var3 = -0.3483182235197588
                        else:
                            var3 = 0.9965759277343751
                else:
                    if input[27] > 0.024500000290572647:
                        var3 = 0.17293313547558742
                    else:
                        var3 = -0.490103778441747
            else:
                var3 = -0.3528101469880791
    else:
        if input[3] > 0.000000000000000000000000000000000010000000180025095:
            if input[37] > 69.50000000000001:
                if input[37] > 86.00000000000001:
                    if input[21] > 0.09349999949336053:
                        if input[36] > 51.50000000000001:
                            var3 = -0.054883772134780885
                        else:
                            var3 = 0.6799897429105398
                    else:
                        var3 = -0.24000181273410193
                else:
                    if input[21] > 0.1944999992847443:
                        var3 = -0.16848205515118533
                    else:
                        var3 = -0.707264120458699
            else:
                if input[38] > 30.500000000000004:
                    var3 = 0.9982003880398613
                else:
                    var3 = -0.3526276205037091
        else:
            if input[28] > 1762.5000000000002:
                if input[27] > 0.03849999979138375:
                    if input[21] > 0.1944999992847443:
                        var3 = -1.139214547594687
                    else:
                        if input[18] > 19.500000000000004:
                            var3 = -0.9172920630194924
                        else:
                            var3 = -0.1870509187380473
                else:
                    if input[2] > 11253.500000000002:
                        if input[19] > 0.15500000119209292:
                            var3 = -1.5489461183547975
                        else:
                            var3 = -0.947888155043626
                    else:
                        var3 = -1.4418463686436558
            else:
                if input[1] > 11.500000000000002:
                    if input[2] > 1677.0000000000002:
                        var3 = -1.2403962747935944
                    else:
                        var3 = -0.4591863787943317
                else:
                    if input[28] > 156.50000000000003:
                        if input[19] > 0.37500000000000006:
                            var3 = -1.6727186909929637
                        else:
                            var3 = -1.4220095584374224
                    else:
                        var3 = -1.6757858074597412
    if input[3] > 1.5000000000000002:
        if input[3] > 2.5000000000000004:
            if input[3] > 9.500000000000002:
                if input[27] > 0.05949999950826169:
                    if input[21] > 0.04849999956786633:
                        if input[4] > 2.5000000000000004:
                            var4 = 1.4905617552699995
                        else:
                            if input[36] > 52.50000000000001:
                                var4 = 1.3753515025547574
                            else:
                                var4 = 0.4678515070960636
                    else:
                        var4 = 1.6580206756140197
                else:
                    var4 = 1.3193932017225143
            else:
                if input[16] > 0.000000000000000000000000000000000010000000180025095:
                    var4 = 1.330694968359811
                else:
                    if input[2] > 3148.5000000000005:
                        var4 = 1.0863764888696326
                    else:
                        var4 = 0.3498276197910309
        else:
            if input[38] > 17.000000000000004:
                if input[38] > 19.000000000000004:
                    if input[16] > 0.000000000000000000000000000000000010000000180025095:
                        if input[18] > 17.500000000000004:
                            var4 = 0.90263364979854
                        else:
                            if input[25] > 6.500000000000001:
                                var4 = 0.0936862339662469
                            else:
                                var4 = 0.9418860091103447
                    else:
                        if input[1] > 32.50000000000001:
                            var4 = 0.46255407687780026
                        else:
                            var4 = -0.19000542273326798
                else:
                    var4 = 1.2326163256168368
            else:
                var4 = -0.33516964938050964
    else:
        if input[3] > 0.000000000000000000000000000000000010000000180025095:
            if input[37] > 69.50000000000001:
                if input[37] > 86.00000000000001:
                    if input[21] > 0.09349999949336053:
                        var4 = 0.2628702138982168
                    else:
                        var4 = -0.2280017275559275
                else:
                    if input[21] > 0.1814999952912331:
                        var4 = -0.18236156575223234
                    else:
                        var4 = -0.6871543662238668
            else:
                if input[38] > 25.500000000000004:
                    var4 = 0.9267164181018699
                else:
                    var4 = -0.3725758411203112
        else:
            if input[28] > 2230.0000000000005:
                if input[19] > 0.17500000447034839:
                    var4 = -1.354093311575876
                else:
                    if input[22] > 1.5000000000000002:
                        if input[18] > 43.50000000000001:
                            var4 = -0.5812234314661178
                        else:
                            var4 = -1.1589347440062219
                    else:
                        var4 = -0.5474961064755917
            else:
                if input[1] > 8.500000000000002:
                    if input[27] > 0.07649999856948854:
                        if input[25] > 6.500000000000001:
                            var4 = -1.0736074734337722
                        else:
                            if input[38] > 25.500000000000004:
                                var4 = 0.11773953487475713
                            else:
                                var4 = -0.953930790496595
                    else:
                        var4 = -1.2359965545709055
                else:
                    if input[18] > 3.5000000000000004:
                        var4 = -1.3402205162804304
                    else:
                        var4 = -1.5360754623509094
    var5 = var0 + var1 + var2 + var3 + var4
    if input[3] > 1.5000000000000002:
        if input[3] > 2.5000000000000004:
            if input[3] > 12.500000000000002:
                if input[27] > 0.024500000290572647:
                    var6 = 1.4110452701733096
                else:
                    var6 = 0.949240860174287
            else:
                if input[29] > 7.500000000000001:
                    if input[43] > 37.50000000000001:
                        if input[27] > 0.0705000013113022:
                            var6 = 1.2505961487731154
                        else:
                            var6 = 0.9845839368614332
                    else:
                        var6 = 0.3900138683857457
                else:
                    var6 = 1.3018195947167448
        else:
            if input[38] > 17.000000000000004:
                if input[38] > 19.000000000000004:
                    if input[16] > 0.000000000000000000000000000000000010000000180025095:
                        if input[18] > 17.500000000000004:
                            var6 = 0.8575019657611848
                        else:
                            if input[25] > 6.500000000000001:
                                if input[38] > 30.500000000000004:
                                    if input[19] > 0.014999999664723875:
                                        var6 = 0.5701444620988807
                                    else:
                                        var6 = -0.23246513903141022
                                else:
                                    var6 = -0.28863560670898075
                            else:
                                var6 = 0.8947917398341277
                    else:
                        if input[1] > 32.50000000000001:
                            var6 = 0.4394263637226981
                        else:
                            var6 = -0.18050514763715317
                else:
                    var6 = 1.170985506772995
            else:
                var6 = -0.3184111736154044
    else:
        if input[3] > 0.000000000000000000000000000000000010000000180025095:
            if input[37] > 69.50000000000001:
                if input[37] > 86.00000000000001:
                    var6 = 0.02541685617422756
                else:
                    if input[33] > 8.500000000000002:
                        var6 = 0.3212666702270508
                    else:
                        var6 = -0.5279345582171184
            else:
                if input[43] > 45.50000000000001:
                    var6 = -0.48622516023701634
                else:
                    var6 = 0.8246009262278676
        else:
            if input[28] > 1762.5000000000002:
                if input[27] > 0.03849999979138375:
                    if input[21] > 0.1944999992847443:
                        var6 = -1.0281775683388674
                    else:
                        if input[18] > 19.500000000000004:
                            if input[2] > 15797.000000000002:
                                var6 = -0.5280133507468484
                            else:
                                var6 = -1.1243676666779951
                        else:
                            var6 = -0.1266451003374877
                else:
                    var6 = -1.1734558561468513
            else:
                if input[1] > 3.5000000000000004:
                    if input[19] > 0.37500000000000006:
                        var6 = -1.4980749167894063
                    else:
                        var6 = -1.069959733090793
                else:
                    if input[28] > 374.50000000000006:
                        if input[19] > 0.3849999904632569:
                            var6 = -1.5204204823956433
                        else:
                            if input[37] > 21.500000000000004:
                                var6 = -1.1613398435078268
                            else:
                                var6 = -1.5150648561949582
                    else:
                        var6 = -1.4910180661014114
    if input[3] > 1.5000000000000002:
        if input[3] > 2.5000000000000004:
            if input[3] > 9.500000000000002:
                if input[27] > 0.06350000202655794:
                    if input[21] > 0.04849999956786633:
                        if input[4] > 2.5000000000000004:
                            var7 = 1.3514248363442825
                        else:
                            if input[36] > 52.50000000000001:
                                var7 = 1.2430932740954792
                            else:
                                var7 = 0.3144610691070557
                    else:
                        var7 = 1.5259282998808201
                else:
                    var7 = 1.1980392193715304
            else:
                if input[29] > 9.500000000000002:
                    if input[1] > 9.500000000000002:
                        var7 = 0.9653391032966216
                    else:
                        var7 = 0.3768657465775808
                else:
                    if input[2] > 2262.0000000000005:
                        var7 = 1.2373054583148755
                    else:
                        var7 = 0.7523825820886865
        else:
            if input[38] > 17.000000000000004:
                if input[38] > 22.500000000000004:
                    if input[18] > 10.500000000000002:
                        if input[16] > 0.000000000000000000000000000000000010000000180025095:
                            var7 = 0.6890148253904449
                        else:
                            var7 = 0.04636751166705427
                    else:
                        var7 = -0.022711732544338527
                else:
                    var7 = 0.8663963424532037
            else:
                var7 = -0.3024906314829345
    else:
        if input[3] > 0.000000000000000000000000000000000010000000180025095:
            if input[37] > 69.50000000000001:
                if input[37] > 86.00000000000001:
                    if input[21] > 0.09349999949336053:
                        var7 = 0.2484558544507841
                    else:
                        var7 = -0.21787248787127045
                else:
                    if input[21] > 0.1944999992847443:
                        var7 = -0.13392386713693308
                    else:
                        var7 = -0.6129045827783269
            else:
                if input[38] > 25.500000000000004:
                    var7 = 0.8448006629943848
                else:
                    var7 = -0.35023447053773066
        else:
            if input[28] > 2230.0000000000005:
                if input[19] > 0.17500000447034839:
                    var7 = -1.2360926325554433
                else:
                    if input[43] > 28.500000000000004:
                        if input[21] > 0.018499999307096008:
                            if input[21] > 0.0705000013113022:
                                var7 = -0.8686576623429535
                            else:
                                if input[27] > 0.030499999411404136:
                                    var7 = 0.5003557572762172
                                else:
                                    var7 = -0.798691533912312
                        else:
                            var7 = -1.1647120750680262
                    else:
                        var7 = -0.07907478727143387
            else:
                if input[1] > 13.500000000000002:
                    if input[2] > 1677.0000000000002:
                        var7 = -0.98190220815475
                    else:
                        var7 = -0.01014893168494815
                else:
                    if input[18] > 4.500000000000001:
                        if input[19] > 0.07499999925494195:
                            var7 = -1.342915394923291
                        else:
                            var7 = -1.1046820612586274
                    else:
                        var7 = -1.370319415078395
    if input[3] > 1.5000000000000002:
        if input[3] > 2.5000000000000004:
            if input[3] > 21.500000000000004:
                var8 = 1.3268549776369072
            else:
                if input[16] > 0.000000000000000000000000000000000010000000180025095:
                    if input[4] > 2.5000000000000004:
                        if input[29] > 16.500000000000004:
                            var8 = 0.8954390038013736
                        else:
                            var8 = 1.2466778327987396
                    else:
                        if input[25] > 57.50000000000001:
                            var8 = 0.1371980980038643
                        else:
                            var8 = 1.0548746762104517
                else:
                    if input[2] > 3148.5000000000005:
                        if input[27] > 0.05949999950826169:
                            var8 = 1.1227628430465655
                        else:
                            if input[29] > 12.500000000000002:
                                var8 = 0.7205797979903352
                            else:
                                var8 = 1.0200389537608847
                    else:
                        var8 = 0.2500875965241463
        else:
            if input[38] > 17.000000000000004:
                if input[38] > 19.000000000000004:
                    if input[16] > 0.000000000000000000000000000000000010000000180025095:
                        if input[18] > 17.500000000000004:
                            var8 = 0.7800055746848766
                        else:
                            if input[25] > 6.500000000000001:
                                var8 = 0.07191848204187726
                            else:
                                var8 = 0.8337332420878941
                    else:
                        if input[1] > 32.50000000000001:
                            var8 = 0.41551007636495546
                        else:
                            var8 = -0.1731547619007072
                else:
                    var8 = 1.069116404056549
            else:
                var8 = -0.28736606720955143
    else:
        if input[3] > 0.000000000000000000000000000000000010000000180025095:
            if input[37] > 69.50000000000001:
                if input[43] > 52.50000000000001:
                    if input[28] > 506.50000000000006:
                        var8 = 0.1995895249999862
                    else:
                        var8 = -0.3079009394049645
                else:
                    if input[27] > 0.026500000618398193:
                        var8 = -0.3111327911727131
                    else:
                        var8 = -0.8327146698649113
            else:
                if input[43] > 51.50000000000001:
                    var8 = -0.47663312256336215
                else:
                    var8 = 0.7422915034110731
        else:
            if input[2] > 1313.0000000000002:
                if input[19] > 0.37500000000000006:
                    var8 = -1.3716442569469414
                else:
                    if input[28] > 3636.5000000000005:
                        if input[38] > 22.500000000000004:
                            if input[27] > 0.055500000715255744:
                                if input[21] > 0.24049999564886096:
                                    var8 = -0.9099130170345306
                                else:
                                    var8 = 0.022995565487788278
                            else:
                                var8 = -0.9909263365246632
                        else:
                            var8 = -0.23908441017071405
                    else:
                        if input[27] > 0.04150000028312207:
                            if input[21] > 0.004500000039115549:
                                var8 = -0.8325841864833885
                            else:
                                var8 = -1.344185860397915
                        else:
                            var8 = -1.1015078453306195
            else:
                var8 = -1.3221534642227901
    if input[3] > 1.5000000000000002:
        if input[3] > 2.5000000000000004:
            if input[3] > 10.500000000000002:
                if input[27] > 0.06350000202655794:
                    if input[21] > 0.04849999956786633:
                        if input[4] > 2.5000000000000004:
                            var9 = 1.2265087427379109
                        else:
                            if input[36] > 53.50000000000001:
                                var9 = 1.1985818301809246
                            else:
                                var9 = 0.29133364506389786
                    else:
                        var9 = 1.3990166630500402
                else:
                    var9 = 1.0845076195209156
            else:
                if input[16] > 0.000000000000000000000000000000000010000000180025095:
                    var9 = 1.097471359817322
                else:
                    if input[35] > 57.50000000000001:
                        var9 = 0.2884467614002717
                    else:
                        var9 = 0.8902049979527483
        else:
            if input[38] > 17.000000000000004:
                if input[38] > 19.000000000000004:
                    if input[16] > 0.000000000000000000000000000000000010000000180025095:
                        if input[38] > 30.500000000000004:
                            if input[2] > 2701.0000000000005:
                                var9 = 0.765510898451262
                            else:
                                var9 = 0.144903322129414
                        else:
                            if input[27] > 0.023500000126659874:
                                var9 = 0.4991630055687645
                            else:
                                var9 = -0.34533469221421653
                    else:
                        var9 = -0.011226143086398091
                else:
                    var9 = 1.0156606176495553
            else:
                var9 = -0.2729977802563739
    else:
        if input[3] > 0.000000000000000000000000000000000010000000180025095:
            if input[37] > 69.50000000000001:
                if input[37] > 86.00000000000001:
                    var9 = 0.0248842174588125
                else:
                    if input[33] > 8.500000000000002:
                        var9 = 0.32099280789494516
                    else:
                        var9 = -0.4594649193054292
            else:
                if input[29] > 2.5000000000000004:
                    var9 = 0.8349691737156649
                else:
                    var9 = -0.25025212430372473
        else:
            if input[28] > 2230.0000000000005:
                if input[19] > 0.17500000447034839:
                    var9 = -1.1219422344307322
                else:
                    if input[43] > 28.500000000000004:
                        if input[21] > 0.018499999307096008:
                            if input[21] > 0.0705000013113022:
                                var9 = -0.78417978733778
                            else:
                                if input[27] > 0.030499999411404136:
                                    var9 = 0.5062947650750478
                                else:
                                    var9 = -0.7111953098665584
                        else:
                            var9 = -1.0601475307527852
                    else:
                        var9 = -0.03550264198204567
            else:
                if input[1] > 8.500000000000002:
                    if input[19] > 0.3849999904632569:
                        var9 = -1.2847517949230267
                    else:
                        var9 = -0.7909501494724968
                else:
                    if input[28] > 374.50000000000006:
                        if input[19] > 0.37500000000000006:
                            var9 = -1.3108310198664066
                        else:
                            var9 = -1.055067153043466
                    else:
                        var9 = -1.2700940552251092
    if input[3] > 1.5000000000000002:
        if input[3] > 2.5000000000000004:
            if input[3] > 21.500000000000004:
                var10 = 1.20032630329342
            else:
                if input[16] > 0.000000000000000000000000000000000010000000180025095:
                    if input[4] > 2.5000000000000004:
                        if input[29] > 16.500000000000004:
                            var10 = 0.7930931807121384
                        else:
                            var10 = 1.1271235428403574
                    else:
                        if input[25] > 57.50000000000001:
                            var10 = 0.09564807012677193
                        else:
                            var10 = 0.9456385236633711
                else:
                    if input[35] > 58.50000000000001:
                        var10 = 0.2511008381843567
                    else:
                        if input[27] > 0.05949999950826169:
                            var10 = 1.0257645013381025
                        else:
                            var10 = 0.7831386153617174
        else:
            if input[38] > 17.000000000000004:
                if input[4] > 4.500000000000001:
                    if input[27] > 0.01750000007450581:
                        var10 = 0.1974839253085
                    else:
                        var10 = -0.32106650994748487
                else:
                    if input[19] > 0.000000000000000000000000000000000010000000180025095:
                        var10 = 0.5345843860867971
                    else:
                        if input[35] > 55.50000000000001:
                            var10 = -0.40129367113113407
                        else:
                            var10 = 0.31215149398360936
            else:
                var10 = -0.2593478787329889
    else:
        if input[3] > 0.000000000000000000000000000000000010000000180025095:
            if input[37] > 69.50000000000001:
                if input[43] > 52.50000000000001:
                    if input[28] > 506.50000000000006:
                        var10 = 0.191437353787169
                    else:
                        var10 = -0.2818835464715958
                else:
                    if input[21] > 0.17650000005960467:
                        if input[31] > 0.007500000298023225:
                            var10 = 0.15733875867567565
                        else:
                            var10 = -0.49081748939898556
                    else:
                        var10 = -0.6628878355026245
            else:
                if input[43] > 51.50000000000001:
                    var10 = -0.44610253231866026
                else:
                    var10 = 0.676785040818728
        else:
            if input[28] > 2230.0000000000005:
                if input[19] > 0.17500000447034839:
                    var10 = -1.0658451202986896
                else:
                    if input[22] > 1.5000000000000002:
                        if input[18] > 43.50000000000001:
                            var10 = -0.3900693901474514
                        else:
                            var10 = -0.9167129931844844
                    else:
                        var10 = -0.3840142708604357
            else:
                if input[1] > 13.500000000000002:
                    if input[2] > 1677.0000000000002:
                        var10 = -0.8413558906495151
                    else:
                        var10 = 0.0786569981347947
                else:
                    if input[37] > 21.500000000000004:
                        if input[20] > 0.37500000000000006:
                            var10 = -1.247327813712918
                        else:
                            if input[28] > 374.50000000000006:
                                var10 = -0.9613346902914786
                            else:
                                var10 = -1.1504767745492532
                    else:
                        var10 = -1.2654197858225915
    if input[3] > 1.5000000000000002:
        if input[3] > 2.5000000000000004:
            if input[3] > 20.500000000000004:
                var11 = 1.1311083110762232
            else:
                if input[29] > 8.500000000000002:
                    if input[1] > 9.500000000000002:
                        var11 = 0.86986288485308
                    else:
                        var11 = 0.2701385447452235
                else:
                    if input[2] > 5503.500000000001:
                        if input[27] > 0.033500000834465034:
                            if input[21] > 0.10549999773502351:
                                var11 = 1.0410316323125086
                            else:
                                var11 = 1.304132551736519
                        else:
                            var11 = 0.8398825666483711
                    else:
                        var11 = 0.8233656477346654
        else:
            if input[38] > 17.000000000000004:
                if input[38] > 19.000000000000004:
                    if input[16] > 0.000000000000000000000000000000000010000000180025095:
                        if input[18] > 17.500000000000004:
                            var11 = 0.6872842213282219
                        else:
                            if input[19] > 0.10500000044703485:
                                var11 = 0.7225490506490072
                            else:
                                var11 = 0.04113284225708672
                    else:
                        if input[1] > 32.50000000000001:
                            var11 = 0.38024644078435127
                        else:
                            var11 = -0.17126579731702807
                else:
                    var11 = 0.9412154302001
            else:
                var11 = -0.24638047577232444
    else:
        if input[3] > 0.000000000000000000000000000000000010000000180025095:
            if input[22] > 1.5000000000000002:
                if input[21] > 0.27349999547004705:
                    if input[43] > 42.50000000000001:
                        if input[35] > 55.50000000000001:
                            var11 = 0.7199956971545552
                        else:
                            var11 = 0.09140499203155439
                    else:
                        var11 = -0.5678471501171589
                else:
                    if input[37] > 84.50000000000001:
                        var11 = -0.016183408669063024
                    else:
                        var11 = -0.4996166808540757
            else:
                if input[25] > 1.5000000000000002:
                    var11 = 1.0724315970032305
                else:
                    var11 = -0.20519021481275557
        else:
            if input[28] > 2230.0000000000005:
                if input[27] > 0.04450000077486039:
                    if input[1] > 24.500000000000004:
                        var11 = -0.7267962822596804
                    else:
                        if input[21] > 0.01750000007450581:
                            var11 = 0.42447084784507755
                        else:
                            var11 = -0.7374429712976729
                else:
                    if input[19] > 0.17500000447034839:
                        var11 = -1.1587136573102101
                    else:
                        var11 = -0.7717438549591056
            else:
                if input[1] > 8.500000000000002:
                    if input[27] > 0.09449999779462816:
                        if input[25] > 7.500000000000001:
                            var11 = -0.8398035439405036
                        else:
                            var11 = -0.14647489669530286
                    else:
                        var11 = -0.8856201853780519
                else:
                    if input[18] > 3.5000000000000004:
                        var11 = -0.9833453551879745
                    else:
                        var11 = -1.1349779519058714
    if input[3] > 1.5000000000000002:
        if input[3] > 2.5000000000000004:
            if input[16] > 0.000000000000000000000000000000000010000000180025095:
                if input[27] > 0.024500000290572647:
                    if input[28] > 543.5000000000001:
                        if input[21] > 0.08650000020861627:
                            var12 = 0.9782676017431279
                        else:
                            var12 = 1.106072177865353
                    else:
                        var12 = 0.5452124462571255
                else:
                    var12 = 0.7445782231193193
            else:
                if input[3] > 7.500000000000001:
                    var12 = 0.9182731244017589
                else:
                    if input[22] > 2.5000000000000004:
                        if input[2] > 3148.5000000000005:
                            var12 = 0.6475200642046391
                        else:
                            var12 = -0.1369142252465953
                    else:
                        var12 = 1.0680268866116884
        else:
            if input[38] > 17.000000000000004:
                if input[4] > 4.500000000000001:
                    var12 = -0.0354419680578368
                else:
                    if input[19] > 0.000000000000000000000000000000000010000000180025095:
                        var12 = 0.4907616424079267
                    else:
                        if input[35] > 55.50000000000001:
                            var12 = -0.3789258904316846
                        else:
                            var12 = 0.2872687713730903
            else:
                var12 = -0.23406146777573456
    else:
        if input[3] > 0.000000000000000000000000000000000010000000180025095:
            if input[27] > 0.02550000045448542:
                if input[38] > 55.50000000000001:
                    var12 = -0.3737860231101513
                else:
                    if input[2] > 1832.0000000000002:
                        if input[2] > 8857.500000000002:
                            var12 = -0.3097443227414732
                        else:
                            if input[1] > 2.5000000000000004:
                                if input[16] > 0.000000000000000000000000000000000010000000180025095:
                                    var12 = 0.5305498735979199
                                else:
                                    if input[11] > 0.000000000000000000000000000000000010000000180025095:
                                        var12 = 0.37385137460448525
                                    else:
                                        var12 = -0.8838550710678101
                            else:
                                var12 = 0.7992442859977973
                    else:
                        var12 = -0.25365439506677484
            else:
                if input[16] > 0.000000000000000000000000000000000010000000180025095:
                    var12 = -0.19238747221728167
                else:
                    if input[19] > 0.12499999627470972:
                        var12 = -1.1327957530816397
                    else:
                        var12 = -0.3678926813191381
        else:
            if input[2] > 1313.0000000000002:
                if input[19] > 0.37500000000000006:
                    var12 = -1.1283878480808605
                else:
                    if input[28] > 3636.5000000000005:
                        if input[31] > 0.012500000186264517:
                            var12 = -0.7779206396734462
                        else:
                            var12 = -0.3434375377866415
                    else:
                        if input[21] > 0.004500000039115549:
                            if input[27] > 0.04450000077486039:
                                var12 = -0.6522871005099053
                            else:
                                var12 = -0.8760687373425873
                        else:
                            var12 = -1.0029730478405126
            else:
                if input[1] > 3.5000000000000004:
                    var12 = -0.761586287362235
                else:
                    var12 = -1.103114775207629
    if input[3] > 1.5000000000000002:
        if input[3] > 2.5000000000000004:
            if input[3] > 21.500000000000004:
                var13 = 1.0320918817417886
            else:
                if input[2] > 2223.5000000000005:
                    if input[29] > 8.500000000000002:
                        if input[3] > 3.5000000000000004:
                            if input[25] > 58.50000000000001:
                                var13 = 0.6388099919403754
                            else:
                                var13 = 0.856985539154152
                        else:
                            var13 = 0.45398997709359207
                    else:
                        var13 = 0.9560067992607147
                else:
                    var13 = 0.3835859549045563
        else:
            if input[38] > 17.000000000000004:
                if input[38] > 22.500000000000004:
                    if input[38] > 25.500000000000004:
                        if input[16] > 0.000000000000000000000000000000000010000000180025095:
                            if input[2] > 2701.0000000000005:
                                var13 = 0.6648438823751257
                            else:
                                var13 = 0.10238231135121847
                        else:
                            var13 = -0.014726980463151011
                    else:
                        var13 = -0.2471081847743112
                else:
                    var13 = 0.6811818315794594
            else:
                var13 = -0.22235840674369567
    else:
        if input[3] > 0.000000000000000000000000000000000010000000180025095:
            if input[22] > 1.5000000000000002:
                if input[21] > 0.27349999547004705:
                    if input[43] > 42.50000000000001:
                        var13 = 0.35601799088520014
                    else:
                        var13 = -0.5207076281309128
                else:
                    if input[37] > 84.50000000000001:
                        var13 = -0.011810070648789407
                    else:
                        var13 = -0.45650516316697404
            else:
                if input[25] > 1.5000000000000002:
                    var13 = 0.9926255369627918
                else:
                    var13 = -0.20199571639299393
        else:
            if input[2] > 5006.500000000001:
                if input[27] > 0.04450000077486039:
                    if input[22] > 0.000000000000000000000000000000000010000000180025095:
                        if input[4] > 2.5000000000000004:
                            if input[21] > 0.09349999949336053:
                                if input[27] > 0.07149999961256982:
                                    var13 = -0.35742771909995513
                                else:
                                    var13 = -0.8231828062242903
                            else:
                                if input[21] > 0.018499999307096008:
                                    var13 = 0.6256585115478153
                                else:
                                    var13 = -0.4523006313750821
                        else:
                            var13 = -0.988167311191559
                    else:
                        var13 = -0.053207643247312975
                else:
                    if input[19] > 0.2549999952316285:
                        var13 = -1.066580508373402
                    else:
                        if input[36] > 31.500000000000004:
                            if input[25] > 8.500000000000002:
                                var13 = -0.7657114860318726
                            else:
                                var13 = -0.34521390289852494
                        else:
                            var13 = -0.9482193775601306
            else:
                if input[29] > 2.5000000000000004:
                    if input[12] > 0.000000000000000000000000000000000010000000180025095:
                        var13 = -0.08711392134428025
                    else:
                        var13 = -0.854774874879481
                else:
                    var13 = -1.0214485035692493
    if input[3] > 1.5000000000000002:
        if input[3] > 2.5000000000000004:
            if input[16] > 0.000000000000000000000000000000000010000000180025095:
                if input[27] > 0.08850000053644182:
                    var14 = 1.0339918781754758
                else:
                    if input[28] > 543.5000000000001:
                        if input[27] > 0.024500000290572647:
                            var14 = 0.9059046388596528
                        else:
                            var14 = 0.6635759434439767
                    else:
                        var14 = 0.2905659088721642
            else:
                if input[2] > 3148.5000000000005:
                    if input[27] > 0.05949999950826169:
                        if input[21] > 0.29850000143051153:
                            var14 = 0.575911208729685
                        else:
                            var14 = 0.9032545051682535
                    else:
                        var14 = 0.6415641566707516
                else:
                    var14 = 0.10538948389791675
        else:
            if input[38] > 17.000000000000004:
                if input[38] > 19.000000000000004:
                    if input[15] > 0.000000000000000000000000000000000010000000180025095:
                        if input[16] > 0.000000000000000000000000000000000010000000180025095:
                            var14 = 0.22941080360956817
                        else:
                            var14 = -0.16113656271775867
                    else:
                        if input[18] > 17.500000000000004:
                            var14 = 0.8578274827450514
                        else:
                            var14 = 0.1660951804492693
                else:
                    var14 = 0.8389079210162163
            else:
                var14 = -0.2112404807921379
    else:
        if input[3] > 0.000000000000000000000000000000000010000000180025095:
            if input[27] > 0.02550000045448542:
                if input[38] > 55.50000000000001:
                    var14 = -0.345003619628648
                else:
                    if input[2] > 1067.5000000000002:
                        if input[1] > 2.5000000000000004:
                            if input[16] > 0.000000000000000000000000000000000010000000180025095:
                                var14 = 0.3920785842971368
                            else:
                                if input[11] > 0.000000000000000000000000000000000010000000180025095:
                                    var14 = 0.16032127771431057
                                else:
                                    var14 = -0.7357415104734487
                        else:
                            if input[38] > 34.00000000000001:
                                var14 = 0.8202153478349958
                            else:
                                var14 = 0.06965781125155363
                    else:
                        var14 = -0.4000050149465862
            else:
                if input[19] > 0.2950000017881394:
                    var14 = -0.9096814827485519
                else:
                    var14 = -0.23720917303041117
        else:
            if input[2] > 1313.0000000000002:
                if input[19] > 0.37500000000000006:
                    var14 = -1.0239168490593633
                else:
                    if input[28] > 3636.5000000000005:
                        if input[38] > 22.500000000000004:
                            if input[27] > 0.055500000715255744:
                                if input[21] > 0.24049999564886096:
                                    var14 = -0.6909347400665284
                                else:
                                    var14 = 0.1614526247748962
                            else:
                                var14 = -0.7543368860113401
                        else:
                            var14 = -0.10525844171643257
                    else:
                        if input[27] > 0.002500000060535968:
                            var14 = -0.7249558031710812
                        else:
                            var14 = -0.9355536713028834
            else:
                var14 = -0.9753139625064183
    if input[3] > 1.5000000000000002:
        if input[3] > 2.5000000000000004:
            if input[16] > 0.000000000000000000000000000000000010000000180025095:
                if input[27] > 0.08850000053644182:
                    var15 = 0.9822922695570114
                else:
                    if input[4] > 2.5000000000000004:
                        var15 = 0.8481937664605322
                    else:
                        var15 = 0.5654133737624228
            else:
                if input[3] > 7.500000000000001:
                    var15 = 0.7889487694460011
                else:
                    if input[22] > 2.5000000000000004:
                        if input[2] > 3148.5000000000005:
                            var15 = 0.5400847295335696
                        else:
                            var15 = -0.1639174813809602
                    else:
                        var15 = 0.9379851493679109
        else:
            if input[4] > 3.5000000000000004:
                if input[27] > 0.01650000084191561:
                    var15 = 0.18325028260587717
                else:
                    var15 = -0.25217744871264414
            else:
                if input[19] > 0.014999999664723875:
                    var15 = 0.4881718277552371
                else:
                    var15 = -0.06157786584592291
    else:
        if input[3] > 0.000000000000000000000000000000000010000000180025095:
            if input[22] > 1.5000000000000002:
                if input[21] > 0.27349999547004705:
                    if input[43] > 42.50000000000001:
                        var15 = 0.3242602846759198
                    else:
                        var15 = -0.4775571244955063
                else:
                    if input[43] > 52.50000000000001:
                        if input[28] > 506.50000000000006:
                            var15 = 0.1659613553057896
                        else:
                            var15 = -0.2893231666817957
                    else:
                        var15 = -0.49319232796098444
            else:
                if input[25] > 1.5000000000000002:
                    var15 = 0.9155487578224254
                else:
                    var15 = -0.1870008224248886
        else:
            if input[2] > 5006.500000000001:
                if input[27] > 0.04450000077486039:
                    if input[22] > 0.000000000000000000000000000000000010000000180025095:
                        if input[4] > 2.5000000000000004:
                            if input[21] > 0.09349999949336053:
                                if input[24] > 0.000000000000000000000000000000000010000000180025095:
                                    var15 = -0.034315957936147855
                                else:
                                    var15 = -0.6719978011038996
                            else:
                                if input[21] > 0.018499999307096008:
                                    var15 = 0.6199354239872524
                                else:
                                    var15 = -0.40415413994942945
                        else:
                            var15 = -0.9049376852512361
                    else:
                        var15 = -0.019524113999472726
                else:
                    if input[19] > 0.2549999952316285:
                        var15 = -0.9682346424350032
                    else:
                        if input[36] > 31.500000000000004:
                            if input[17] > 0.000000000000000000000000000000000010000000180025095:
                                var15 = -0.658890381764691
                            else:
                                var15 = -0.17390026754803128
                        else:
                            var15 = -0.8606900866085527
            else:
                if input[29] > 2.5000000000000004:
                    if input[12] > 0.000000000000000000000000000000000010000000180025095:
                        var15 = -0.04420565485954285
                    else:
                        var15 = -0.7699704547042716
                else:
                    var15 = -0.9245072059429461
    if input[3] > 1.5000000000000002:
        if input[3] > 2.5000000000000004:
            if input[3] > 21.500000000000004:
                var16 = 0.890141219860174
            else:
                if input[29] > 8.500000000000002:
                    if input[1] > 9.500000000000002:
                        if input[25] > 58.50000000000001:
                            var16 = 0.509046631070026
                        else:
                            var16 = 0.7226519453762817
                    else:
                        var16 = 0.1405907227549442
                else:
                    if input[2] > 5503.500000000001:
                        if input[27] > 0.033500000834465034:
                            var16 = 0.928394563474517
                        else:
                            var16 = 0.6376263212898503
                    else:
                        if input[18] > 2.5000000000000004:
                            var16 = 0.6860513646094526
                        else:
                            var16 = 0.08675283599983563
        else:
            if input[38] > 17.000000000000004:
                if input[38] > 22.500000000000004:
                    if input[38] > 25.500000000000004:
                        if input[43] > 62.50000000000001:
                            var16 = 0.5193324730934008
                        else:
                            if input[16] > 0.000000000000000000000000000000000010000000180025095:
                                if input[15] > 0.000000000000000000000000000000000010000000180025095:
                                    var16 = 0.81060217111199
                                else:
                                    var16 = 0.07371037111562842
                            else:
                                var16 = -0.10516419051296039
                    else:
                        var16 = -0.23807440763529467
                else:
                    var16 = 0.6083731808160482
            else:
                var16 = -0.19474569495006275
    else:
        if input[3] > 0.000000000000000000000000000000000010000000180025095:
            if input[27] > 0.02550000045448542:
                if input[38] > 55.50000000000001:
                    var16 = -0.31635976245005926
                else:
                    if input[2] > 1067.5000000000002:
                        if input[1] > 2.5000000000000004:
                            if input[16] > 0.000000000000000000000000000000000010000000180025095:
                                var16 = 0.3664921086620201
                            else:
                                if input[11] > 0.000000000000000000000000000000000010000000180025095:
                                    var16 = 0.1622074230741232
                                else:
                                    var16 = -0.6848479835123852
                        else:
                            var16 = 0.5429295108351909
                    else:
                        var16 = -0.3707279101798409
            else:
                if input[16] > 0.000000000000000000000000000000000010000000180025095:
                    var16 = -0.15836264250179133
                else:
                    var16 = -0.6136117190720056
        else:
            if input[28] > 3636.5000000000005:
                if input[38] > 22.500000000000004:
                    if input[27] > 0.055500000715255744:
                        if input[21] > 0.24049999564886096:
                            var16 = -0.6261483244895936
                        else:
                            var16 = 0.17590937941120222
                    else:
                        var16 = -0.6896892342242328
                else:
                    var16 = -0.07738033720913033
            else:
                if input[27] > 0.002500000060535968:
                    if input[19] > 0.3849999904632569:
                        var16 = -0.9302856916253517
                    else:
                        if input[2] > 1313.0000000000002:
                            var16 = -0.6524229941618204
                        else:
                            var16 = -0.8266376464244198
                else:
                    var16 = -0.9138436913316268
    if input[3] > 1.5000000000000002:
        if input[3] > 2.5000000000000004:
            if input[3] > 12.500000000000002:
                if input[30] > 2.5000000000000004:
                    if input[1] > 53.50000000000001:
                        var17 = 0.672703185117026
                    else:
                        var17 = -0.010709757804870606
                else:
                    var17 = 0.8228433405793301
            else:
                if input[29] > 7.500000000000001:
                    if input[1] > 9.500000000000002:
                        if input[18] > 79.50000000000001:
                            var17 = 0.02970448678190058
                        else:
                            var17 = 0.6149929113000449
                    else:
                        var17 = 0.222718430709626
                else:
                    var17 = 0.7573799945340878
        else:
            if input[25] > 4.500000000000001:
                if input[38] > 17.000000000000004:
                    var17 = 0.13227012377977374
                else:
                    var17 = -0.25972730804892147
            else:
                var17 = 0.6149820294231176
    else:
        if input[3] > 0.000000000000000000000000000000000010000000180025095:
            if input[27] > 0.02550000045448542:
                if input[38] > 55.50000000000001:
                    var17 = -0.3005417674779892
                else:
                    if input[2] > 1832.0000000000002:
                        if input[2] > 8857.500000000002:
                            var17 = -0.2746012127233876
                        else:
                            if input[21] > 0.04250000044703484:
                                if input[28] > 487.50000000000006:
                                    var17 = 0.12767052731427708
                                else:
                                    var17 = 0.6251246522030524
                            else:
                                var17 = 0.9336930108070374
                    else:
                        if input[37] > 70.50000000000001:
                            var17 = 0.020835288763046265
                        else:
                            var17 = -0.5964189131259918
            else:
                if input[19] > 0.2950000017881394:
                    var17 = -0.8179533275690946
                else:
                    var17 = -0.20499151060419366
        else:
            if input[2] > 1367.0000000000002:
                if input[19] > 0.37500000000000006:
                    var17 = -0.882993242443127
                else:
                    if input[28] > 3636.5000000000005:
                        if input[31] > 0.012500000186264517:
                            var17 = -0.6156634602140874
                        else:
                            var17 = -0.23258657138300154
                    else:
                        if input[21] > 0.004500000039115549:
                            if input[27] > 0.052500000223517425:
                                if input[38] > 44.50000000000001:
                                    var17 = -0.6933391635041488
                                else:
                                    if input[35] > 55.50000000000001:
                                        var17 = 0.17116931780524877
                                    else:
                                        if input[21] > 0.6329999864101411:
                                            var17 = -0.8384057345061466
                                        else:
                                            if input[22] > 0.000000000000000000000000000000000010000000180025095:
                                                var17 = -0.45982284279483737
                                            else:
                                                var17 = 0.32598013540972837
                            else:
                                var17 = -0.666354273987892
                        else:
                            var17 = -0.7858552054982436
            else:
                if input[1] > 3.5000000000000004:
                    var17 = -0.5308059901783341
                else:
                    var17 = -0.8620750545711134
    if input[3] > 1.5000000000000002:
        if input[3] > 2.5000000000000004:
            if input[16] > 0.000000000000000000000000000000000010000000180025095:
                if input[27] > 0.08850000053644182:
                    var18 = 0.8524207528295188
                else:
                    var18 = 0.7067048893167874
            else:
                if input[35] > 53.50000000000001:
                    var18 = 0.21376409597361268
                else:
                    if input[27] > 0.058499999344348914:
                        var18 = 0.709119195305597
                    else:
                        var18 = 0.5070193623854087
        else:
            if input[4] > 4.500000000000001:
                if input[27] > 0.01750000007450581:
                    var18 = 0.17573563637155476
                else:
                    var18 = -0.3435957010199384
            else:
                if input[2] > 1490.5000000000002:
                    var18 = 0.24157786166383044
                else:
                    var18 = -0.4491491709066474
    else:
        if input[3] > 0.000000000000000000000000000000000010000000180025095:
            if input[22] > 1.5000000000000002:
                if input[21] > 0.27349999547004705:
                    if input[43] > 42.50000000000001:
                        var18 = 0.2900949304493574
                    else:
                        var18 = -0.4268075290322304
                else:
                    if input[43] > 52.50000000000001:
                        if input[2] > 5153.000000000001:
                            var18 = 0.36370790256903723
                        else:
                            var18 = -0.1676714139713629
                    else:
                        var18 = -0.4410887533500222
            else:
                if input[25] > 1.5000000000000002:
                    var18 = 0.8276354714676186
                else:
                    var18 = -0.18683657586574554
        else:
            if input[2] > 5006.500000000001:
                if input[19] > 0.28499999642372137:
                    var18 = -0.8342409647949811
                else:
                    if input[36] > 31.500000000000004:
                        if input[36] > 35.50000000000001:
                            if input[35] > 27.500000000000004:
                                if input[4] > 3.5000000000000004:
                                    if input[21] > 0.033500000834465034:
                                        var18 = -0.5489098319661951
                                    else:
                                        var18 = 0.150694015622139
                                else:
                                    var18 = -0.08542868799941485
                            else:
                                var18 = -0.8356409708811686
                        else:
                            if input[2] > 11932.500000000002:
                                var18 = 0.5772047471255064
                            else:
                                if input[35] > 29.500000000000004:
                                    var18 = -0.7473905194688727
                                else:
                                    var18 = 0.09735348507761955
                    else:
                        var18 = -0.7394335461283723
            else:
                if input[1] > 13.500000000000002:
                    if input[2] > 1677.0000000000002:
                        if input[25] > 5.500000000000001:
                            var18 = -0.7748305187225343
                        else:
                            if input[1] > 20.500000000000004:
                                var18 = 0.2761734687763712
                            else:
                                var18 = -0.8422915202379226
                    else:
                        var18 = 0.26419255336125697
                else:
                    if input[37] > 83.50000000000001:
                        var18 = -0.6232848884243715
                    else:
                        var18 = -0.7921695807119895
    if input[3] > 1.5000000000000002:
        if input[3] > 2.5000000000000004:
            if input[3] > 20.500000000000004:
                var19 = 0.7606551891445745
            else:
                if input[29] > 15.500000000000002:
                    if input[27] > 0.02550000045448542:
                        if input[33] > 9.500000000000002:
                            var19 = 0.6697858842442165
                        else:
                            var19 = 0.40572751425548437
                    else:
                        var19 = -0.13675379971308368
                else:
                    if input[2] > 2223.5000000000005:
                        if input[27] > 0.04150000028312207:
                            if input[21] > 0.04749999940395356:
                                if input[28] > 5523.500000000001:
                                    var19 = 0.4068490215446338
                                else:
                                    if input[43] > 64.50000000000001:
                                        var19 = 0.8232116038137129
                                    else:
                                        if input[19] > 0.0449999999254942:
                                            var19 = 0.7251577842837432
                                        else:
                                            var19 = 0.41850109242967193
                            else:
                                var19 = 0.8920706663893748
                        else:
                            var19 = 0.5583648477172567
                    else:
                        var19 = 0.21723440845807393
        else:
            if input[22] > 1.5000000000000002:
                if input[38] > 17.000000000000004:
                    var19 = 0.12785973285441984
                else:
                    var19 = -0.24661429094713788
            else:
                var19 = 0.6880231250416149
    else:
        if input[3] > 0.000000000000000000000000000000000010000000180025095:
            if input[27] > 0.02550000045448542:
                if input[38] > 55.50000000000001:
                    var19 = -0.27560391522323097
                else:
                    if input[2] > 1832.0000000000002:
                        if input[2] > 8438.500000000002:
                            var19 = -0.22529590353369713
                        else:
                            if input[21] > 0.04250000044703484:
                                var19 = 0.23984769120872992
                            else:
                                var19 = 0.8641457135677337
                    else:
                        var19 = -0.20191627869239223
            else:
                if input[19] > 0.2950000017881394:
                    var19 = -0.7586945073171095
                else:
                    var19 = -0.18767124778584932
        else:
            if input[28] > 3636.5000000000005:
                if input[38] > 22.500000000000004:
                    if input[27] > 0.055500000715255744:
                        if input[21] > 0.24049999564886096:
                            var19 = -0.5463522849082947
                        else:
                            var19 = 0.20332069961497418
                    else:
                        var19 = -0.6053421546705068
                else:
                    if input[43] > 44.50000000000001:
                        var19 = 0.40787208378314976
                    else:
                        var19 = -0.35456517692655326
            else:
                if input[27] > 0.002500000060535968:
                    if input[12] > 0.000000000000000000000000000000000010000000180025095:
                        var19 = 0.027580604634501717
                    else:
                        if input[19] > 0.3849999904632569:
                            var19 = -0.8009628322893392
                        else:
                            if input[2] > 2527.0000000000005:
                                var19 = -0.5337579956364377
                            else:
                                var19 = -0.6868965159497792
                else:
                    var19 = -0.788986749739325
    if input[3] > 1.5000000000000002:
        if input[3] > 2.5000000000000004:
            if input[16] > 0.000000000000000000000000000000000010000000180025095:
                if input[27] > 0.0705000013113022:
                    if input[0] > 1.5000000000000002:
                        if input[22] > 3.5000000000000004:
                            if input[1] > 62.50000000000001:
                                var20 = 0.7327909766896371
                            else:
                                if input[18] > 58.50000000000001:
                                    var20 = -0.3180796958782055
                                else:
                                    var20 = 0.7873865636495444
                        else:
                            var20 = 0.8095836189625756
                    else:
                        var20 = 0.15624930739402773
                else:
                    var20 = 0.6201983318452887
            else:
                if input[35] > 58.50000000000001:
                    var20 = 0.02911635782037463
                else:
                    if input[27] > 0.06350000202655794:
                        var20 = 0.6446644228103474
                    else:
                        var20 = 0.45578972264172485
        else:
            if input[29] > 3.5000000000000004:
                if input[2] > 1631.0000000000002:
                    if input[4] > 4.500000000000001:
                        if input[27] > 0.04550000093877316:
                            var20 = 0.2507947982385241
                        else:
                            var20 = -0.27801977480743445
                    else:
                        var20 = 0.20271545021652104
                else:
                    var20 = -0.7548861622810364
            else:
                var20 = 0.3931755142560338
    else:
        if input[3] > 0.000000000000000000000000000000000010000000180025095:
            if input[22] > 2.5000000000000004:
                if input[37] > 86.00000000000001:
                    if input[21] > 0.09349999949336053:
                        if input[27] > 0.05949999950826169:
                            var20 = -0.07551896001171807
                        else:
                            var20 = 0.6907842934131623
                    else:
                        var20 = -0.20566942463902868
                else:
                    var20 = -0.36068777297437193
            else:
                if input[2] > 604.5000000000001:
                    if input[37] > 69.50000000000001:
                        var20 = 0.015805514480254447
                    else:
                        var20 = 0.37516879324729624
                else:
                    var20 = -0.5534810948371888
        else:
            if input[2] > 1367.0000000000002:
                if input[19] > 0.27500000596046453:
                    var20 = -0.721952157009797
                else:
                    if input[18] > 43.50000000000001:
                        var20 = -0.20664190221629056
                    else:
                        if input[43] > 24.500000000000004:
                            if input[37] > 24.000000000000004:
                                if input[24] > 0.000000000000000000000000000000000010000000180025095:
                                    if input[27] > 0.04550000093877316:
                                        var20 = 0.2694235267671379
                                    else:
                                        var20 = -0.4888238409469867
                                else:
                                    if input[25] > 10.500000000000002:
                                        var20 = -0.6489761800622436
                                    else:
                                        var20 = -0.48692217918189934
                            else:
                                var20 = -0.816928768466259
                        else:
                            var20 = 0.08542231693863869
            else:
                if input[1] > 3.5000000000000004:
                    var20 = -0.4391628597127764
                else:
                    var20 = -0.7431196450119298
    if input[3] > 1.5000000000000002:
        if input[3] > 2.5000000000000004:
            if input[3] > 11.500000000000002:
                if input[27] > 0.04450000077486039:
                    var21 = 0.6859795057791329
                else:
                    if input[11] > 0.000000000000000000000000000000000010000000180025095:
                        if input[0] > 10.500000000000002:
                            var21 = 0.2211508371131985
                        else:
                            var21 = 0.70711973840424
                    else:
                        if input[3] > 18.500000000000004:
                            var21 = 0.47230324002734403
                        else:
                            var21 = -0.17042102904030773
            else:
                if input[29] > 7.500000000000001:
                    if input[18] > 79.50000000000001:
                        var21 = -0.1484004819393158
                    else:
                        if input[1] > 9.500000000000002:
                            var21 = 0.49166722346355424
                        else:
                            var21 = 0.12251044316725297
                else:
                    var21 = 0.6228257790130735
        else:
            if input[4] > 3.5000000000000004:
                if input[27] > 0.01650000084191561:
                    if input[1] > 10.500000000000002:
                        if input[43] > 62.50000000000001:
                            var21 = 0.4714658525326978
                        else:
                            var21 = -0.11091557752929236
                    else:
                        var21 = 0.5317897955919134
                else:
                    var21 = -0.2160342467446176
            else:
                if input[19] > 0.000000000000000000000000000000000010000000180025095:
                    if input[33] > 1.5000000000000002:
                        var21 = 0.6726041165681986
                    else:
                        var21 = 0.20391865678131582
                else:
                    if input[1] > 10.500000000000002:
                        var21 = 0.32397793272267217
                    else:
                        var21 = -0.33153029721836713
    else:
        if input[3] > 0.000000000000000000000000000000000010000000180025095:
            if input[27] > 0.02550000045448542:
                if input[38] > 55.50000000000001:
                    var21 = -0.25236227825284
                else:
                    if input[2] > 1067.5000000000002:
                        if input[18] > 8.500000000000002:
                            if input[25] > 11.500000000000002:
                                var21 = 0.22372031025588512
                            else:
                                var21 = -0.41143846698105335
                        else:
                            var21 = 0.36633352456836527
                    else:
                        var21 = -0.31444709363736606
            else:
                if input[16] > 0.000000000000000000000000000000000010000000180025095:
                    var21 = -0.1172398579865694
                else:
                    var21 = -0.5152591285278213
        else:
            if input[28] > 1762.5000000000002:
                if input[27] > 0.04450000077486039:
                    if input[21] > 0.1944999992847443:
                        var21 = -0.4886651202051108
                    else:
                        if input[18] > 19.500000000000004:
                            var21 = -0.34395499669015406
                        else:
                            var21 = 0.39235003530979157
                else:
                    var21 = -0.5485215046696634
            else:
                if input[37] > 21.500000000000004:
                    if input[12] > 0.000000000000000000000000000000000010000000180025095:
                        var21 = -0.03645672418854453
                    else:
                        var21 = -0.5962665704095427
                else:
                    var21 = -0.7517031640665872
    if input[3] > 1.5000000000000002:
        if input[3] > 2.5000000000000004:
            if input[16] > 0.000000000000000000000000000000000010000000180025095:
                if input[27] > 0.024500000290572647:
                    if input[0] > 1.5000000000000002:
                        var22 = 0.6379366779498792
                    else:
                        var22 = 0.19894177247496214
                else:
                    var22 = 0.4064344938634567
            else:
                if input[2] > 3148.5000000000005:
                    var22 = 0.4928967097496821
                else:
                    var22 = -0.03475835753544684
        else:
            if input[25] > 4.500000000000001:
                if input[18] > 11.500000000000002:
                    if input[29] > 9.500000000000002:
                        if input[1] > 38.50000000000001:
                            var22 = 0.37559558412543054
                        else:
                            var22 = -0.2782950957354746
                    else:
                        var22 = 0.42678034926982633
                else:
                    if input[35] > 40.50000000000001:
                        if input[2] > 2600.5000000000005:
                            var22 = 0.5504578967546595
                        else:
                            var22 = -0.047968178171001075
                    else:
                        var22 = -0.24873394120198034
            else:
                var22 = 0.5276959093753248
    else:
        if input[3] > 0.000000000000000000000000000000000010000000180025095:
            if input[22] > 2.5000000000000004:
                if input[37] > 86.00000000000001:
                    if input[21] > 0.09349999949336053:
                        if input[27] > 0.06250000000000001:
                            var22 = -0.10321031936577388
                        else:
                            var22 = 0.6262936721245449
                    else:
                        var22 = -0.19094701689832352
                else:
                    if input[32] > 1.5000000000000002:
                        var22 = -0.22020068554390623
                    else:
                        var22 = -0.6677886398215044
            else:
                if input[2] > 604.5000000000001:
                    if input[1] > 2.5000000000000004:
                        var22 = -0.0359867565871514
                    else:
                        if input[43] > 45.50000000000001:
                            var22 = 0.01738236105442047
                        else:
                            var22 = 0.5315049060682456
                else:
                    var22 = -0.5125497796386481
        else:
            if input[28] > 3636.5000000000005:
                if input[21] > 0.06549999862909318:
                    if input[27] > 0.049499999731779105:
                        if input[28] > 4454.500000000001:
                            var22 = -0.49035962278905676
                        else:
                            var22 = 0.15306459251911408
                    else:
                        var22 = -0.6828682542764224
                else:
                    if input[21] > 0.018499999307096008:
                        var22 = 0.4239739998369603
                    else:
                        var22 = -0.5548749853905879
            else:
                if input[27] > 0.002500000060535968:
                    if input[19] > 0.3849999904632569:
                        var22 = -0.6950607101265476
                    else:
                        if input[0] > 0.000000000000000000000000000000000010000000180025095:
                            if input[12] > 0.000000000000000000000000000000000010000000180025095:
                                var22 = 0.09243596096833548
                            else:
                                var22 = -0.4961873894240791
                        else:
                            var22 = -0.6831931489231313
                else:
                    var22 = -0.6819520742962831
    if input[3] > 1.5000000000000002:
        if input[3] > 2.5000000000000004:
            if input[3] > 21.500000000000004:
                var23 = 0.6308070957795223
            else:
                if input[29] > 15.500000000000002:
                    if input[27] > 0.02550000045448542:
                        var23 = 0.4136643839818135
                    else:
                        var23 = -0.1963065768991198
                else:
                    if input[2] > 2223.5000000000005:
                        if input[28] > 5106.500000000001:
                            if input[21] > 0.0535000003874302:
                                if input[0] > 3.5000000000000004:
                                    var23 = 0.36227432669817533
                                else:
                                    var23 = -0.248528634689071
                            else:
                                if input[27] > 0.04550000093877316:
                                    var23 = 0.8222091850998638
                                else:
                                    var23 = 0.271943536400795
                        else:
                            var23 = 0.5828639018428593
                    else:
                        var23 = 0.14695554635177055
        else:
            if input[22] > 1.5000000000000002:
                if input[2] > 1490.5000000000002:
                    if input[18] > 7.500000000000001:
                        if input[43] > 64.50000000000001:
                            var23 = 0.47888508945703506
                        else:
                            var23 = 0.054590858836230396
                    else:
                        if input[2] > 4172.000000000001:
                            var23 = -0.22962572088495634
                        else:
                            if input[38] > 34.00000000000001:
                                var23 = -0.19896974617784674
                            else:
                                var23 = 0.8453775554895402
                else:
                    var23 = -0.5720012886077166
            else:
                var23 = 0.60290452783758
    else:
        if input[3] > 0.000000000000000000000000000000000010000000180025095:
            if input[22] > 2.5000000000000004:
                if input[37] > 86.00000000000001:
                    var23 = 0.04802024157699009
                else:
                    var23 = -0.31691014544665813
            else:
                if input[2] > 604.5000000000001:
                    var23 = 0.13432493612602137
                else:
                    var23 = -0.4869222904741764
        else:
            if input[2] > 1367.0000000000002:
                if input[19] > 0.27500000596046453:
                    var23 = -0.6258920531450625
                else:
                    if input[43] > 24.500000000000004:
                        if input[37] > 24.000000000000004:
                            if input[18] > 43.50000000000001:
                                var23 = -0.14211659685398143
                            else:
                                if input[24] > 0.000000000000000000000000000000000010000000180025095:
                                    if input[27] > 0.04550000093877316:
                                        var23 = 0.2915897771514751
                                    else:
                                        var23 = -0.41310621194926833
                                else:
                                    if input[25] > 3.5000000000000004:
                                        var23 = -0.5105947632171496
                                    else:
                                        if input[18] > 3.5000000000000004:
                                            if input[21] > 0.0224999999627471:
                                                var23 = 0.39438455004531603
                                            else:
                                                var23 = -0.39636372065544134
                                        else:
                                            var23 = -0.4126787308982953
                        else:
                            var23 = -0.723440596792433
                    else:
                        var23 = 0.12726351649810871
            else:
                var23 = -0.6205152917515072
    if input[3] > 1.5000000000000002:
        if input[3] > 2.5000000000000004:
            if input[16] > 0.000000000000000000000000000000000010000000180025095:
                if input[27] > 0.08850000053644182:
                    var24 = 0.6420322680105532
                else:
                    if input[4] > 2.5000000000000004:
                        var24 = 0.539178007904116
                    else:
                        var24 = 0.2859562994123579
            else:
                if input[35] > 53.50000000000001:
                    var24 = 0.10227503089317636
                else:
                    if input[27] > 0.058499999344348914:
                        if input[21] > 0.29850000143051153:
                            var24 = 0.2669679751934169
                        else:
                            var24 = 0.5787289924624023
                    else:
                        var24 = 0.357044174121454
        else:
            if input[22] > 1.5000000000000002:
                if input[2] > 1490.5000000000002:
                    if input[18] > 7.500000000000001:
                        if input[43] > 64.50000000000001:
                            var24 = 0.45494082766771315
                        else:
                            var24 = 0.051861314259066774
                    else:
                        if input[2] > 4172.000000000001:
                            var24 = -0.2181444357897415
                        else:
                            if input[38] > 34.00000000000001:
                                var24 = -0.18902126315868262
                            else:
                                var24 = 0.8031086759133773
                else:
                    var24 = -0.543401254862547
            else:
                var24 = 0.5727592912587253
    else:
        if input[3] > 0.000000000000000000000000000000000010000000180025095:
            if input[27] > 0.02550000045448542:
                if input[21] > 0.04550000093877316:
                    var24 = -0.01297115861477769
                else:
                    var24 = 0.384380313415419
            else:
                var24 = -0.2140642841491913
        else:
            if input[28] > 156.50000000000003:
                if input[19] > 0.3849999904632569:
                    var24 = -0.6319971919465228
                else:
                    if input[38] > 15.000000000000002:
                        if input[18] > 43.50000000000001:
                            var24 = -0.17727986104015647
                        else:
                            if input[15] > 0.000000000000000000000000000000000010000000180025095:
                                var24 = -0.5382894477984476
                            else:
                                if input[1] > 8.500000000000002:
                                    var24 = -0.16390722268737679
                                else:
                                    var24 = -0.46814056738499166
                    else:
                        if input[36] > 52.50000000000001:
                            var24 = 0.2779038946543421
                        else:
                            if input[27] > 0.09549999982118608:
                                var24 = -0.922913480758667
                            else:
                                if input[19] > 0.07499999925494195:
                                    var24 = -0.6046890323812312
                                else:
                                    if input[36] > 31.500000000000004:
                                        if input[36] > 35.50000000000001:
                                            if input[36] > 39.50000000000001:
                                                if input[27] > 0.05049999989569188:
                                                    var24 = 0.5881848877668381
                                                else:
                                                    var24 = -0.35397260896861554
                                            else:
                                                var24 = -0.5749203363190526
                                        else:
                                            var24 = 0.46436741855637786
                                    else:
                                        var24 = -0.5473475173763607
            else:
                var24 = -0.6290180602186436
    if input[3] > 1.5000000000000002:
        if input[3] > 3.5000000000000004:
            if input[21] > 0.23050000518560412:
                if input[1] > 26.500000000000004:
                    var25 = 0.3788798339876416
                else:
                    var25 = -0.25420575879869006
            else:
                if input[27] > 0.0705000013113022:
                    if input[21] > 0.04749999940395356:
                        var25 = 0.5418330780803897
                    else:
                        var25 = 0.7160548348216133
                else:
                    if input[27] > 0.020499999634921554:
